{"fixed_weights": [1.0, 0.0, 1.0, 0.0, 1.0, 0.0, 1.0, 0.0, 1.0, 0.0, 1.0, 0.0, 1.0, 0.0, 1.0, 0.0, 1.0, 0.0, 1.0, 0.0, 1.0, 0.0, 1.0, 0.0, 1.0, 0.0, 1.0, 0.0, 1.0, 0.0, 1.0, 0.0, 1.0, 0.0, 1.0, 0.0, 1.0, 0.0, 1.0, 0.0, 1.0, 0.0, 1.0, 0.0, 1.0, 0.0, 1.0, 0.0, 1.0, 0.0, 1.0, 0.0, 1.0, 0.0, 1.0, 0.0, 1.0, 0.0, 1.0, 0.0, 1.0, 0.0, 1.0, 0.0, 1.0, 0.0, 1.0, 0.0, 1.0, 0.0, 1.0, 0.0, 1.0, 0.0, 1.0, 0.0, 1.0, 0.0, 1.0, 0.0, 1.0, 0.0, 1.0, 0.0, 1.0, 0.0, 1.0, 0.0, 1.0, 0.0, 1.0, 0.0, 1.0, 0.0, 1.0, 0.0, 0.9999984108510357, 0.0017827774407147663, 0.9999708460425673, 0.007635906292792964, 0.999909022355732, 0.013488773539659429, 0.9998747008300682, 0.01582980227234171, 0.9998554847143085, 0.017000284900997652, 0.999812941908602, 0.019341178662801148, 0.9996826079928816, 0.0251929211595374, 0.9995180250737946, 0.031043800549888995, 0.9992641424656988, 0.03835588067417592, 0.9992641424656988, 0.03835588067417592, 0.9992641424656988, 0.03835588067417592, 0.9992641424656988, 0.03835588067417592, 0.9992641424656988, 0.03835588067417592, 0.9992641424656988, 0.03835588067417592, 0.9992641424656988, 0.03835588067417592, 0.9992641424656988, 0.03835588067417592, 0.9998642477496013, -0.01647683440846731, 0.9996816732071093, -0.025229987194493958, 0.9994224720475308, -0.033981206076339227, 0.9992973403840365, -0.037481001872829364, 0.9992301785963881, -0.03923073007516388, 0.9990866641388981, -0.042729820264174476, 0.9986742752212291, -0.051475159167823414, 0.9981853369045538, -0.06021655244816376, 0.9985991906232191, -0.05291178022568943, 0.9992655639312801, -0.03831883011132673, 0.9997186957202843, -0.023717702825813182, 0.9998402176207926, -0.017875660211754765, 0.9998881767446582, -0.014954397555337328, 0.9999584892927025, -0.00911151422410735, 0.9999848934770069, 0.005496618758756185, 0.9997979026385908, 0.020103578772815333, 0.9999984108510357, 0.0017827774407147663, 0.9999708460425673, 0.007635906292792964, 0.999909022355732, 0.013488773539659429, 0.9998747008300682, 0.01582980227234171, 0.9998554847143085, 0.017000284900997652, 0.999812941908602, 0.019341178662801148, 0.9996826079928816, 0.0251929211595374, 0.9995180250737946, 0.031043800549888995, 0.9997979026385908, 0.020103578772815333, 0.9999848934770069, 0.005496618758756185, 0.9999584892927025, -0.00911151422410735, 0.9998881767446582, -0.014954397555337328, 0.9998402176207926, -0.017875660211754765, 0.9997186957202843, -0.023717702825813182, 0.9992655639312801, -0.03831883011132673, 0.9985991906232191, -0.05291178022568943, 0.9999936434091937, 0.0035655492152316857, 0.9998833858701753, 0.015271367351811886, 0.9996361059767915, 0.026975092725637452, 0.9994988347200371, 0.0316556376225136, 0.9994219806265698, 0.0339956561999367, 0.9992518376158672, 0.038675121477670195, 0.9987306334468987, 0.0503698502554508, 0.9980725648948374, 0.062057676432819654, 0.9970576528354168, 0.07665531242079414, 0.9970576528354168, 0.07665531242079414, 0.9970576528354168, 0.07665531242079414, 0.9970576528354168, 0.07665531242079414, 0.9970576528354168, 0.07665531242079414, 0.9970576528354168, 0.07665531242079414, 0.9970576528354168, 0.07665531242079414, 0.9970576528354168, 0.07665531242079414, 0.9994570278557519, -0.03294919528223383, 0.9987268954923313, -0.05044391162717132, 0.9976905552671947, -0.06792316195994305, 0.9971903489972179, -0.07490933097289496, 0.9969218996355392, -0.0784010588389454, 0.9963483249203827, -0.08538158717397754, 0.9947006159772945, -0.10281383454764692, 0.9927479336225151, -0.12021455938540215, 0.9944006870266967, -0.10567532181561423, 0.9970633345177986, -0.07658137476076364, 0.9988749411453328, -0.04742206186900651, 0.9993609215439878, -0.03574560799247245, 0.9995527319875138, -0.029905450611842032, 0.9998339606170877, -0.018222271997414715, 0.9999395743644418, 0.010993071447917042, 0.9991916922410504, 0.04019903178518093, 0.9999936434091937, 0.0035655492152316857, 0.9998833858701753, 0.015271367351811886, 0.9996361059767915, 0.026975092725637452, 0.9994988347200371, 0.0316556376225136, 0.9994219806265698, 0.0339956561999367, 0.9992518376158672, 0.038675121477670195, 0.9987306334468987, 0.0503698502554508, 0.9980725648948374, 0.062057676432819654, 0.9991916922410504, 0.04019903178518093, 0.9999395743644418, 0.010993071447917042, 0.9998339606170877, -0.018222271997414715, 0.9995527319875138, -0.029905450611842032, 0.9993609215439878, -0.03574560799247245, 0.9988749411453328, -0.04742206186900651, 0.9970633345177986, -0.07658137476076364, 0.9944006870266967, -0.10567532181561423, 0.9999856976896264, 0.00534830965737092, 0.9997376245824448, 0.02290593796924338, 0.9991813005217571, 0.0404565036508353, 0.9988724958613298, 0.047473540122449975, 0.9986996130327179, 0.05098120171493974, 0.9983168970399917, 0.057994595303722855, 0.9971446806602751, 0.07551480537562254, 0.9956650128142546, 0.09301173182771194, 0.9933837784331915, 0.11484192938903426, 0.9933837784331915, 0.11484192938903426, 0.9933837784331915, 0.11484192938903426, 0.9933837784331915, 0.11484192938903426, 0.9933837784331915, 0.11484192938903426, 0.9933837784331915, 0.11484192938903426, 0.9933837784331915, 0.11484192938903426, 0.9933837784331915, 0.11484192938903426, 0.998778450880486, -0.04941261030118357, 0.9971362747183219, -0.07562572076263041, 0.9948062501196959, -0.10178666279424295, 0.9936819868350616, -0.11223238854949356, 0.9930787170425527, -0.11745067797640679, 0.9917899843912701, -0.127877389952893, 0.9880895582252404, -0.1538799042313499, 0.9837075242640259, -0.17977626847373654, 0.9874162518168456, -0.15814280144215176, 0.993396546552981, -0.11473143116256763, 0.9974692109786915, -0.07109974085428646, 0.9985622649357205, -0.05360413273660764, 0.9989937407496162, -0.044849815418666984, 0.9996264243117026, -0.02733151693192372, 0.999864044031533, 0.016489192002904714, 0.9981816138344223, 0.06027823656103656, 0.9999856976896264, 0.00534830965737092, 0.9997376245824448, 0.02290593796924338, 0.9991813005217571, 0.0404565036508353, 0.9988724958613298, 0.047473540122449975, 0.9986996130327179, 0.05098120171493974, 0.9983168970399917, 0.057994595303722855, 0.9971446806602751, 0.07551480537562254, 0.9956650128142546, 0.09301173182771194, 0.9981816138344223, 0.06027823656103656, 0.999864044031533, 0.016489192002904714, 0.9996264243117026, -0.02733151693192372, 0.9989937407496162, -0.044849815418666984, 0.9985622649357205, -0.05360413273660764, 0.9974692109786915, -0.07109974085428646, 0.993396546552981, -0.11473143116256763, 0.9874162518168456, -0.15814280144215176, 0.9999745737175875, 0.00713105310098865, 0.999533570678412, 0.030539172989193845, 0.9985446887448866, 0.0539305533012382, 0.9979958412134242, 0.06327954583204422, 0.9976885907190715, 0.06795201210408133, 0.9970084699573749, 0.07729237241315767, 0.994925756370487, 0.10061182490450361, 0.9922976895915189, 0.12387612857743643, 0.9882479261553409, 0.15285953175928516, 0.9882479261553409, 0.15285953175928516, 0.9882479261553409, 0.15285953175928516, 0.9882479261553409, 0.15285953175928516, 0.9882479261553409, 0.15285953175928516, 0.9882479261553409, 0.15285953175928516, 0.9882479261553409, 0.15285953175928516, 0.9882479261553409, 0.15285953175928516, 0.9978287010605065, -0.06586260957404037, 0.9949108235595002, -0.10075938251178866, 0.9907728881387267, -0.13553259434263834, 0.9887771842663866, -0.14939772379201846, 0.9877065479458644, -0.15631946502231825, 0.985419969143305, -0.1701396027196723, 0.9788586308512182, -0.20453796911106406, 0.9710969194235473, -0.23868551084239822, 0.9776654527183327, -0.21016722523042813, 0.9882705860795029, -0.15271296176184834, 0.9955022960961842, -0.09473741851678842, 0.997444503018497, -0.07144552748901481, 0.9982113280474053, -0.05978414972076874, 0.9993358976065044, -0.03643849276523401, 0.9997583047602819, 0.02198481436917613, 0.996768075687068, 0.08033307719177342, 0.9999745737175875, 0.00713105310098865, 0.999533570678412, 0.030539172989193845, 0.9985446887448866, 0.0539305533012382, 0.9979958412134242, 0.06327954583204422, 0.9976885907190715, 0.06795201210408133, 0.9970084699573749, 0.07729237241315767, 0.994925756370487, 0.10061182490450361, 0.9922976895915189, 0.12387612857743643, 0.996768075687068, 0.08033307719177342, 0.9997583047602819, 0.02198481436917613, 0.9993358976065044, -0.03643849276523401, 0.9982113280474053, -0.05978414972076874, 0.997444503018497, -0.07144552748901481, 0.9955022960961842, -0.09473741851678842, 0.9882705860795029, -0.15271296176184834, 0.9776654527183327, -0.21016722523042813, 0.9999602715284325, 0.00891377387999508, 0.999271236056035, 0.038170627333645596, 0.9977263864810593, 0.06739479000225428, 0.99686909046452, 0.07906969379250564, 0.9963892059019871, 0.08490318228433785, 0.9953270458717625, 0.09656123319526605, 0.9920752691152024, 0.12564497765529212, 0.987973841157354, 0.15462111495130149, 0.9816576545130524, 0.1906521684532664, 0.9816576545130524, 0.1906521684532664, 0.9816576545130524, 0.1906521684532664, 0.9816576545130524, 0.1906521684532664, 0.9816576545130524, 0.1906521684532664, 0.9816576545130524, 0.1906521684532664, 0.9816576545130524, 0.1906521684532664, 0.9816576545130524, 0.1906521684532664, 0.996608036257164, -0.08229472685196355, 0.9920519588573268, -0.12582889543876968, 0.9855951280828598, -0.16912197816762667, 0.9824828341045714, -0.18635310754009235, 0.9808136635669835, -0.19494757592827902, 0.9772499151032108, -0.21209102628533658, 0.9670323091935296, -0.25465371188307817, 0.9549618870995098, -0.29672848563517307, 0.9651756077527748, -0.2616028405791149, 0.9816929824778814, -0.19047017654657117, 0.9929753031009597, -0.1183217960967344, 0.9960079929896342, -0.08926409076869013, 0.9972056688647519, -0.07470511350639127, 0.9989624046214316, -0.04554244342332922, 0.9996223597453943, 0.02747977250724001, 0.9949516491436473, 0.10035544761664163, 0.9999602715284325, 0.00891377387999508, 0.999271236056035, 0.038170627333645596, 0.9977263864810593, 0.06739479000225428, 0.99686909046452, 0.07906969379250564, 0.9963892059019871, 0.08490318228433785, 0.9953270458717625, 0.09656123319526605, 0.9920752691152024, 0.12564497765529212, 0.987973841157354, 0.15462111495130149, 0.9949516491436473, 0.10035544761664163, 0.9996223597453943, 0.02747977250724001, 0.9989624046214316, -0.04554244342332922, 0.9972056688647519, -0.07470511350639127, 0.9960079929896342, -0.08926409076869013, 0.9929753031009597, -0.1183217960967344, 0.9816929824778814, -0.19047017654657117, 0.9651756077527748, -0.2616028405791149, 0.9999427911676178, 0.010696466328372452, 0.9989506360114984, 0.045799856028408414, 0.9967265426247, 0.08084676386480967, 0.9954925259764843, 0.09484002701896917, 0.9948018341434013, 0.10182981284930652, 0.9932732538311149, 0.11579396885740535, 0.9885950283381637, 0.1505983729827959, 0.9826976354848196, 0.18521705432422966, 0.9736226625084081, 0.22816421947807325, 0.9736226625084081, 0.22816421947807325, 0.9736226625084081, 0.22816421947807325, 0.9736226625084081, 0.22816421947807325, 0.9736226625084081, 0.22816421947807325, 0.9736226625084081, 0.22816421947807325, 0.9736226625084081, 0.22816421947807325, 0.9736226625084081, 0.22816421947807325, 0.9951167878864468, -0.09870450074115453, 0.9885615007182653, -0.15081829894827467, 0.9792789505544222, -0.20251601665307759, 0.974807781920951, -0.22304660568221077, 0.9724106764857647, -0.2332755372011761, 0.9672947462776715, -0.2536550291707522, 0.9526419501475012, -0.3040942531833936, 0.935360986587318, -0.3536945359634484, 0.9499817087040563, -0.3123055445036502, 0.973673397406778, -0.2279476149959515, 0.9898896537009066, -0.1418396048214291, 0.9942531939071123, -0.10705412839076386, 0.995976988113823, -0.08960936975404789, 0.9985059763644, -0.05464261308334732, 0.9994562130941826, 0.032973900397673436, 0.9927330683941834, 0.12033725489917711, 0.9999427911676178, 0.010696466328372452, 0.9989506360114984, 0.045799856028408414, 0.9967265426247, 0.08084676386480967, 0.9954925259764843, 0.09484002701896917, 0.9948018341434013, 0.10182981284930652, 0.9932732538311149, 0.11579396885740535, 0.9885950283381637, 0.1505983729827959, 0.9826976354848196, 0.18521705432422966, 0.9927330683941834, 0.12033725489917711, 0.9994562130941826, 0.032973900397673436, 0.9985059763644, -0.05464261308334732, 0.995976988113823, -0.08960936975404789, 0.9942531939071123, -0.10705412839076386, 0.9898896537009066, -0.1418396048214291, 0.973673397406778, -0.2279476149959515, 0.9499817087040563, -0.3123055445036502, 0.9999221326907013, 0.01247912478019305, 0.9985717892383222, 0.05342641422906506, 0.9955453391026858, 0.09428402723111884, 0.9938664927140923, 0.11058659349210911, 0.9929269342422802, 0.11872701148528353, 0.9908478621922706, 0.1349833841219249, 0.984487243240582, 0.17545617087056012, 0.9764741585715953, 0.215634453744978, 0.9641547753602174, 0.2653404777829583, 0.9641547753602174, 0.2653404777829583, 0.9641547753602174, 0.2653404777829583, 0.9641547753602174, 0.2653404777829583, 0.9641547753602174, 0.2653404777829583, 0.9641547753602174, 0.2653404777829583, 0.9641547753602174, 0.2653404777829583, 0.9641547753602174, 0.2653404777829583, 0.9933553608289991, -0.1150874759141453, 0.9844416713550062, -0.17571168344695282, 0.9718316510915647, -0.23567613781764873, 0.9657628136139651, -0.25942665213974797, 0.9625105243008272, -0.2712443374711201, 0.9555726474920704, -0.29475568758718684, 0.9357257090242584, -0.35272850391065486, 0.9123653559485659, -0.4093769134487759, 0.932126323084692, -0.36213328735786277, 0.9642236106112575, -0.2650902275448684, 0.9862470839087889, -0.16527761337038482, 0.9921806665428764, -0.12480995528616107, 0.9945255605847814, -0.10449358517883446, 0.997966650728729, -0.06373824623633007, 0.9992598698264438, 0.038467032046137814, 0.9901132301773073, 0.14027042249832392, 0.9999221326907013, 0.01247912478019305, 0.9985717892383222, 0.05342641422906506, 0.9955453391026858, 0.09428402723111884, 0.9938664927140923, 0.11058659349210911, 0.9929269342422802, 0.11872701148528353, 0.9908478621922706, 0.1349833841219249, 0.984487243240582, 0.17545617087056012, 0.9764741585715953, 0.215634453744978, 0.9901132301773073, 0.14027042249832392, 0.9992598698264438, 0.038467032046137814, 0.997966650728729, -0.06373824623633007, 0.9945255605847814, -0.10449358517883446, 0.9921806665428764, -0.12480995528616107, 0.9862470839087889, -0.16527761337038482, 0.9642236106112575, -0.2650902275448684, 0.932126323084692, -0.36213328735786277, 0.9998982961633418, 0.014261743569637211, 0.9981347178262722, 0.06104985724690928, 0.9941829908412446, 0.10770413512004882, 0.9919913981585804, 0.1263054471485088, 0.9907650481020136, 0.13558989438529237, 0.9880517783334914, 0.1541222999180359, 0.9797545213787711, 0.20020259198585652, 0.9693094095373329, 0.2458439923658642, 0.9532679271006642, 0.30212623050838, 0.9532679271006642, 0.30212623050838, 0.9532679271006642, 0.30212623050838, 0.9532679271006642, 0.30212623050838, 0.9532679271006642, 0.30212623050838, 0.9532679271006642, 0.30212623050838, 0.9532679271006642, 0.30212623050838, 0.9532679271006642, 0.30212623050838, 0.991324233320195, -0.13143920431943995, 0.9796950936716862, -0.20049320047230074, 0.9632618317415077, -0.2685640398675805, 0.9553606402515276, -0.2954421213337587, 0.9511284497102724, -0.3087955183478765, 0.9421050311727841, -0.33531792412414724, 0.9163284383838428, -0.40042751280228983, 0.8860584538278068, -0.4635735285801772, 0.911659474877885, -0.4109464708029246, 0.9533575026198485, -0.30184345644463717, 0.9820496430655498, -0.18862263531937606, 0.9897910732036329, -0.14252589731834947, 0.9928517108843294, -0.11935443097790696, 0.997344472489996, -0.0728285877499465, 0.9990333358743058, 0.04395900148839403, 0.9870931934178011, 0.16014689353292938, 0.9998982961633418, 0.014261743569637211, 0.9981347178262722, 0.06104985724690928, 0.9941829908412446, 0.10770413512004882, 0.9919913981585804, 0.1263054471485088, 0.9907650481020136, 0.13558989438529237, 0.9880517783334914, 0.1541222999180359, 0.9797545213787711, 0.20020259198585652, 0.9693094095373329, 0.2458439923658642, 0.9870931934178011, 0.16014689353292938, 0.9990333358743058, 0.04395900148839403, 0.997344472489996, -0.0728285877499465, 0.9928517108843294, -0.11935443097790696, 0.9897910732036329, -0.14252589731834947, 0.9820496430655498, -0.18862263531937606, 0.9533575026198485, -0.30184345644463717, 0.911659474877885, -0.4109464708029246, 0.9998712816612988, 0.016044317031011328, 0.9976394472600707, 0.06866974057487459, 0.9926397457268473, 0.12110464567199654, 0.9898677122055312, 0.14199264886953739, 0.9883168005737879, 0.15241358766065327, 0.9848860483149975, 0.1732035560676178, 0.9743998670089126, 0.2248219276961515, 0.9612102948408066, 0.27581654970659325, 0.9409781400683814, 0.3384673395077425, 0.9409781400683814, 0.3384673395077425, 0.9409781400683814, 0.3384673395077425, 0.9409781400683814, 0.3384673395077425, 0.9409781400683814, 0.3384673395077425, 0.9409781400683814, 0.3384673395077425, 0.9409781400683814, 0.3384673395077425, 0.9409781400683814, 0.3384673395077425, 0.9890239568202949, -0.14775524638918064, 0.9743247895940076, -0.2251470727826432, 0.9535793911246958, -0.3011417354374091, 0.9436158802079184, -0.3310424000327379, 0.9382819770433755, -0.34587126442590566, 0.9269164982337086, -0.375267644891162, 0.8945015691109114, -0.4470648083422776, 0.8565357565539088, -0.516087684162898, 0.8886385043893978, -0.458608338908675, 0.9410910343558221, -0.3381533159013659, 0.9772996926873354, -0.21186153655923406, 0.9870851775191999, -0.16019629309659353, 0.990955813363112, -0.13418858357495667, 0.9966394933023184, -0.08191288293118495, 0.9987766180820492, 0.049449642795316766, 0.9836741787985855, 0.17995863403829312, 0.9998712816612988, 0.016044317031011328, 0.9976394472600707, 0.06866974057487459, 0.9926397457268473, 0.12110464567199654, 0.9898677122055312, 0.14199264886953739, 0.9883168005737879, 0.15241358766065327, 0.9848860483149975, 0.1732035560676178, 0.9743998670089126, 0.2248219276961515, 0.9612102948408066, 0.27581654970659325, 0.9836741787985855, 0.17995863403829312, 0.9987766180820492, 0.049449642795316766, 0.9966394933023184, -0.08191288293118495, 0.990955813363112, -0.13418858357495667, 0.9870851775191999, -0.16019629309659353, 0.9772996926873354, -0.21186153655923406, 0.9410910343558221, -0.3381533159013659, 0.8886385043893978, -0.458608338908675, 0.9998410892704326, 0.01782683949876586, 0.9970860064179119, 0.07628561991345262, 0.9909158845611041, 0.13448312059319797, 0.9874959670471188, 0.1576442674684864, 0.985582899275985, 0.16919322874968612, 0.9813518564876189, 0.19222001396395705, 0.9684266791800022, 0.24929855004069504, 0.9521846216224328, 0.3055232337249402, 0.9273035013281347, 0.37431032102332173, 0.9273035013281347, 0.37431032102332173, 0.9273035013281347, 0.37431032102332173, 0.9273035013281347, 0.37431032102332173, 0.9273035013281347, 0.37431032102332173, 0.9273035013281347, 0.37431032102332173, 0.9273035013281347, 0.37431032102332173, 0.9273035013281347, 0.37431032102332173, 0.9864551558647214, -0.1640311722445102, 0.9683341781453183, -0.24965760440177043, 0.9427955130013376, -0.33337159546749723, 0.9305450386203016, -0.3661774584803678, 0.9239908852793758, -0.382414492299436, 0.9100347931384654, -0.41453187486299603, 0.8703029740483404, -0.4925167340939937, 0.8239044116253138, -0.5667287891966893, 0.8631279076018763, -0.504985361291599, 0.9274422236926361, -0.37396647137418415, 0.9719999051368856, -0.2349812426852096, 0.9840638441984781, -0.17781549578513517, 0.9888382920319944, -0.14899272536351624, 0.9958517716940657, -0.09099037758900894, 0.9984897242059007, 0.05493879007790773, 0.979857568267327, 0.199697636213453, 0.9998410892704326, 0.01782683949876586, 0.9970860064179119, 0.07628561991345262, 0.9909158845611041, 0.13448312059319797, 0.9874959670471188, 0.1576442674684864, 0.985582899275985, 0.16919322874968612, 0.9813518564876189, 0.19222001396395705, 0.9684266791800022, 0.24929855004069504, 0.9521846216224328, 0.3055232337249402, 0.979857568267327, 0.199697636213453, 0.9984897242059007, 0.05493879007790773, 0.9958517716940657, -0.09099037758900894, 0.9888382920319944, -0.14899272536351624, 0.9840638441984781, -0.17781549578513517, 0.9719999051368856, -0.2349812426852096, 0.9274422236926361, -0.37396647137418415, 0.8631279076018763, -0.504985361291599, 0.9998077190867035, 0.019609305307513338, 0.9964744275697772, 0.08389705119659926, 0.9890117210096706, 0.14783712559938864, 0.9848767570387426, 0.17325638067571889, 0.9825641343896592, 0.18592396782313933, 0.9774505250497114, 0.2111645592424151, 0.9618387495761881, 0.27361692165090035, 0.9422410901785783, 0.33493540866722993, 0.9122641360518154, 0.4096024243991174, 0.9122641360518154, 0.4096024243991174, 0.9122641360518154, 0.4096024243991174, 0.9122641360518154, 0.4096024243991174, 0.9122641360518154, 0.4096024243991174, 0.9122641360518154, 0.4096024243991174, 0.9122641360518154, 0.4096024243991174, 0.9122641360518154, 0.4096024243991174, 0.9836185278944958, -0.1802625628983043, 0.9617270732698782, -0.27400919061183765, 0.9309226533535377, -0.3652163926677019, 0.9161664841937374, -0.40079792070329706, 0.9082771775949153, -0.4183689384505195, 0.8914907532203744, -0.45303889118106566, 0.8437968145503016, -0.5366627765690145, 0.7882828488368152, -0.6153130505927165, 0.835199155481695, -0.5499476072160543, 0.9124311189879827, -0.40923031791686426, 0.9661532621200393, -0.2579687463527446, 0.9807280387531203, -0.19537787490772388, 0.9864996204672336, -0.16376354544893104, 0.994981373063, -0.10006031809697093, 0.998172662913798, 0.06042627749230765, 0.9756449044778612, 0.2193559216578961, 0.9998077190867035, 0.019609305307513338, 0.9964744275697772, 0.08389705119659926, 0.9890117210096706, 0.14783712559938864, 0.9848767570387426, 0.17325638067571889, 0.9825641343896592, 0.18592396782313933, 0.9774505250497114, 0.2111645592424151, 0.9618387495761881, 0.27361692165090035, 0.9422410901785783, 0.33493540866722993, 0.9756449044778612, 0.2193559216578961, 0.998172662913798, 0.06042627749230765, 0.994981373063, -0.10006031809697093, 0.9864996204672336, -0.16376354544893104, 0.9807280387531203, -0.19537787490772388, 0.9661532621200393, -0.2579687463527446, 0.9124311189879827, -0.40923031791686426, 0.835199155481695, -0.5499476072160543, 0.999771171216172, 0.02139170879204638, 0.9958047463755542, 0.09150359061762728, 0.9869276015451754, 0.16116423085873452, 0.9820107385500824, 0.18882507612158325, 0.9792613784301504, 0.2026009691859388, 0.9731835135525004, 0.23003010444202757, 0.9546402601098694, 0.2977616056132169, 0.9313892855749107, 0.3640247226717677, 0.8958821778999232, 0.444291709714789, 0.8958821778999232, 0.444291709714789, 0.8958821778999232, 0.444291709714789, 0.8958821778999232, 0.444291709714789, 0.8958821778999232, 0.444291709714789, 0.8958821778999232, 0.444291709714789, 0.8958821778999232, 0.444291709714789, 0.8958821778999232, 0.444291709714789, 0.9805148430668789, -0.1964450114549462, 0.9545076814046977, -0.29818632788816474, 0.9179745259979408, -0.3966393445169754, 0.9005004233872888, -0.43485513390014574, 0.8911650474870054, -0.45367924587475167, 0.8713182523527697, -0.4907183541675562, 0.8150533703616683, -0.5793858847625522, 0.7498003504592018, -0.6616641402186294, 0.804930493744557, -0.5933691096106567, 0.8960797696353149, -0.44389305744776064, 0.9597630530082016, -0.2808111145955158, 0.9770788271889876, -0.21287781814691809, 0.9839403217045647, -0.17849774038882907, 0.9940283696708472, -0.10912195145577971, 0.9978254437851286, 0.06591193924480691, 0.971037890166661, 0.23892554459638615, 0.999771171216172, 0.02139170879204638, 0.9958047463755542, 0.09150359061762728, 0.9869276015451754, 0.16116423085873452, 0.9820107385500824, 0.18882507612158325, 0.9792613784301504, 0.2026009691859388, 0.9731835135525004, 0.23003010444202757, 0.9546402601098694, 0.2977616056132169, 0.9313892855749107, 0.3640247226717677, 0.971037890166661, 0.23892554459638615, 0.9978254437851286, 0.06591193924480691, 0.9940283696708472, -0.10912195145577971, 0.9839403217045647, -0.17849774038882907, 0.9770788271889876, -0.21287781814691809, 0.9597630530082016, -0.2808111145955158, 0.8960797696353149, -0.44389305744776064, 0.804930493744557, -0.5933691096106567, 0.999731445774998, 0.023174044287355682, 0.9950770018829567, 0.09910479465508366, 0.9846639053841769, 0.17446201143395285, 0.9788986298006135, 0.20434645231684698, 0.9756755859949008, 0.2192194126748518, 0.9685524183540393, 0.24880959165703803, 0.946835780267086, 0.32171727526823674, 0.9196396684068763, 0.39276313509861216, 0.8781817364471234, 0.47832712422641804, 0.8781817364471234, 0.47832712422641804, 0.8781817364471234, 0.47832712422641804, 0.8781817364471234, 0.47832712422641804, 0.8781817364471234, 0.47832712422641804, 0.8781817364471234, 0.47832712422641804, 0.8781817364471234, 0.47832712422641804, 0.8781817364471234, 0.47832712422641804, 0.9771449440462705, -0.21257412430681885, 0.946680598801495, -0.32217362376961095, 0.9039660867455068, -0.4276041557492336, 0.8835688720174957, -0.4683012368142223, 0.8726808415236829, -0.48829104931128614, 0.8495541390725521, -0.5275014358129225, 0.7841488532748164, -0.6205727805082901, 0.7085965820317266, -0.7056138348508726, 0.7724067236408307, -0.6351282179799896, 0.8784121936761065, -0.4779037748345691, 0.9528328729877157, -0.303495496101632, 0.9731173756654923, -0.23030973313758427, 0.9811609681222256, -0.1931920149319242, 0.9929928406372968, -0.11817452535581525, 0.99744807731044, 0.07139560959685476, 0.9660383874645987, 0.2583985950906038, 0.999731445774998, 0.023174044287355682, 0.9950770018829567, 0.09910479465508366, 0.9846639053841769, 0.17446201143395285, 0.9788986298006135, 0.20434645231684698, 0.9756755859949008, 0.2192194126748518, 0.9685524183540393, 0.24880959165703803, 0.946835780267086, 0.32171727526823674, 0.9196396684068763, 0.39276313509861216, 0.9660383874645987, 0.2583985950906038, 0.99744807731044, 0.07139560959685476, 0.9929928406372968, -0.11817452535581525, 0.9811609681222256, -0.1931920149319242, 0.9731173756654923, -0.23030973313758427, 0.9528328729877157, -0.303495496101632, 0.8784121936761065, -0.4779037748345691, 0.7724067236408307, -0.6351282179799896, 0.9996885428894408, 0.024956306128648027, 0.9942912365252488, 0.10670022009861051, 0.9822210444181633, 0.18772804772354212, 0.9755412106796221, 0.2198166196304031, 0.9718077934875468, 0.23577449505166112, 0.9635589720219857, 0.26749599517737477, 0.9384302642068816, 0.3454687239398125, 0.9070035647162099, 0.42112294355934593, 0.8591888616998229, 0.5116585775016018, 0.8591888616998229, 0.5116585775016018, 0.8591888616998229, 0.5116585775016018, 0.8591888616998229, 0.5116585775016018, 0.8591888616998229, 0.5116585775016018, 0.8591888616998229, 0.5116585775016018, 0.8591888616998229, 0.5116585775016018, 0.8591888616998229, 0.5116585775016018, 0.973509745775422, -0.2286455223271891, 0.9382508086004757, -0.34595580665823994, 0.8889135161267133, -0.4580750602764174, 0.8653956243191244, -0.5010892269938687, 0.8528530187797063, -0.5221510589459165, 0.8262381692700094, -0.5633209455020675, 0.7511652050579023, -0.6601142588297269, 0.6648210854703069, -0.7470026267116354, 0.7377189643747752, -0.6751079392229136, 0.8594543425204197, -0.5112125126821456, 0.9453666210371792, -0.32600912844389257, 0.9688449501229329, -0.24766804925401978, 0.9781621813129473, -0.2078430827549879, 0.9918748719334339, -0.12721728823958667, 0.9970405748911229, 0.07687712287006662, 0.9606484171442834, 0.27776720223630225, 0.9996885428894408, 0.024956306128648027, 0.9942912365252488, 0.10670022009861051, 0.9822210444181633, 0.18772804772354212, 0.9755412106796221, 0.2198166196304031, 0.9718077934875468, 0.23577449505166112, 0.9635589720219857, 0.26749599517737477, 0.9384302642068816, 0.3454687239398125, 0.9070035647162099, 0.42112294355934593, 0.9606484171442834, 0.27776720223630225, 0.9970405748911229, 0.07687712287006662, 0.9918748719334339, -0.12721728823958667, 0.9781621813129473, -0.2078430827549879, 0.9688449501229329, -0.24766804925401978, 0.9453666210371792, -0.32600912844389257, 0.8594543425204197, -0.5112125126821456, 0.7377189643747752, -0.6751079392229136, 0.9996424626958585, 0.026738488651364304, 0.9934474961187699, 0.11428942407478775, 0.9795994631386065, 0.2009599259020416, 0.9719393225507659, 0.23523170126400553, 0.9676591188183665, 0.2522614313914482, 0.9582050426854205, 0.2860823241170825, 0.9294290476164826, 0.3690008745880124, 0.8934931550731993, 0.4490768106207889, 0.8389315057579834, 0.5442370151382969, 0.8389315057579834, 0.5442370151382969, 0.8389315057579834, 0.5442370151382969, 0.8389315057579834, 0.5442370151382969, 0.8389315057579834, 0.5442370151382969, 0.8389315057579834, 0.5442370151382969, 0.8389315057579834, 0.5442370151382969, 0.8389315057579834, 0.5442370151382969, 0.9696102352270253, -0.24465484205916033, 0.9292236776577986, -0.36951773554203815, 0.8728342007021379, -0.48801686250032394, 0.8460062195066721, -0.5331730268459092, 0.8317121070197463, -0.5552071424583568, 0.8014129335678557, -0.5981114527495387, 0.7161898801903964, -0.6979054774916627, 0.618632736331132, -0.7856803023746084, 0.7009643978232689, -0.7131962654026323, 0.8392340628276032, -0.5437703447135331, 0.9373684977338465, -0.34833934526003796, 0.9642629158779462, -0.26494721939012833, 0.9749446319449357, -0.22244766719782372, 0.990674556374602, -0.13624948936412754, 0.9966029488390664, 0.08235631345122996, 0.9548701578032747, 0.2970235373446848, 0.9996424626958585, 0.026738488651364304, 0.9934474961187699, 0.11428942407478775, 0.9795994631386065, 0.2009599259020416, 0.9719393225507659, 0.23523170126400553, 0.9676591188183665, 0.2522614313914482, 0.9582050426854205, 0.2860823241170825, 0.9294290476164826, 0.3690008745880124, 0.8934931550731993, 0.4490768106207889, 0.9548701578032747, 0.2970235373446848, 0.9966029488390664, 0.08235631345122996, 0.990674556374602, -0.13624948936412754, 0.9749446319449357, -0.22244766719782372, 0.9642629158779462, -0.26494721939012833, 0.9373684977338465, -0.34833934526003796, 0.8392340628276032, -0.5437703447135331, 0.7009643978232689, -0.7131962654026323, 0.9995932053407078, 0.028520586191197485, 0.992545829860264, 0.12187196407295597, 0.9767996385560845, 0.21415523835923936, 0.9680938680412305, 0.2505878342237879, 0.9632307610811706, 0.2686754564655823, 0.95249263333595, 0.30456162502972617, 0.9198378443242893, 0.39229878937978446, 0.8791214628352257, 0.47659779015691284, 0.8174394816775944, 0.5760144909589218, 0.8174394816775944, 0.5760144909589218, 0.8174394816775944, 0.5760144909589218, 0.8174394816775944, 0.5760144909589218, 0.8174394816775944, 0.5760144909589218, 0.8174394816775944, 0.5760144909589218, 0.8174394816775944, 0.5760144909589218, 0.8174394816775944, 0.5760144909589218, 0.965447471135745, -0.2605977369003706, 0.9196049531287477, -0.39284440963449363, 0.8557467129800093, -0.5173949779654897, 0.8254279058836171, -0.5645075483893783, 0.8092906556965325, -0.5874084052873916, 0.7751237795221453, -0.6318094067195461, 0.6793156139819441, -0.7338462349840968, 0.5701991671994473, -0.8215064879385048, 0.6622459962692421, -0.7492864875502288, 0.8177810556031089, -0.5755294476364046, 0.9288430028903474, -0.37047358337895325, 0.9593727371871986, -0.2821417217320798, 0.9715090396118801, -0.23700250199608106, 0.9893919936126967, -0.14527037886332353, 0.9961352123762868, 0.08783301579730772, 0.9487059449835051, 0.3161598171067197, 0.9995932053407078, 0.028520586191197485, 0.992545829860264, 0.12187196407295597, 0.9767996385560845, 0.21415523835923936, 0.9680938680412305, 0.2505878342237879, 0.9632307610811706, 0.2686754564655823, 0.95249263333595, 0.30456162502972617, 0.9198378443242893, 0.39229878937978446, 0.8791214628352257, 0.47659779015691284, 0.9487059449835051, 0.3161598171067197, 0.9961352123762868, 0.08783301579730772, 0.9893919936126967, -0.14527037886332353, 0.9715090396118801, -0.23700250199608106, 0.9593727371871986, -0.2821417217320798, 0.9288430028903474, -0.37047358337895325, 0.8177810556031089, -0.5755294476364046, 0.6622459962692421, -0.7492864875502288, 0.9995407709805433, 0.03030259308411066, 0.9915862903240105, 0.12944739797101854, 0.9738220801134874, 0.22731158413825, 0.964005810815532, 0.2658811702883238, 0.9585240002067256, 0.2850118261190176, 0.9464238810783545, 0.32292698450978763, 0.9096627426728289, 0.41534767917125376, 0.8639023415929012, 0.5036593533235557, 0.79474441959435, 0.606944237573469, 0.79474441959435, 0.606944237573469, 0.79474441959435, 0.606944237573469, 0.79474441959435, 0.606944237573469, 0.79474441959435, 0.606944237573469, 0.79474441959435, 0.606944237573469, 0.79474441959435, 0.606944237573469, 0.79474441959435, 0.606944237573469, 0.9610225837107678, -0.27646987828311476, 0.9094007588087849, -0.4159209779249012, 0.8376707899639213, -0.5461754733061711, 0.8036896025498548, -0.5950487566185282, 0.7856231858363221, -0.6187052689903229, 0.7474187287871739, -0.6643532523124764, 0.6406401766893678, -0.767841236201479, 0.5196961592962204, -0.8543511584897381, 0.621672233912596, -0.7832774946225141, 0.795126832571513, -0.606443171389367, 0.9197949330230542, -0.39239938988881634, 0.954175976779462, -0.2992460615228873, 0.9678561726720177, -0.25150433201174377, 0.9880272901278927, -0.15427920781016755, 0.9956373796345271, 0.0933070644404401, 0.942158270227267, 0.335168306739113, 0.9995407709805433, 0.03030259308411066, 0.9915862903240105, 0.12944739797101854, 0.9738220801134874, 0.22731158413825, 0.964005810815532, 0.2658811702883238, 0.9585240002067256, 0.2850118261190176, 0.9464238810783545, 0.32292698450978763, 0.9096627426728289, 0.41534767917125376, 0.8639023415929012, 0.5036593533235557, 0.942158270227267, 0.335168306739113, 0.9956373796345271, 0.0933070644404401, 0.9880272901278927, -0.15427920781016755, 0.9678561726720177, -0.25150433201174377, 0.954175976779462, -0.2992460615228873, 0.9197949330230542, -0.39239938988881634, 0.795126832571513, -0.606443171389367, 0.621672233912596, -0.7832774946225141, 0.9994851597820168, 0.032084503666355, 0.9905689334587588, 0.13701528406122068, 0.9706673295933204, 0.2404265693723812, 0.9596761753340245, 0.2811078769729845, 0.9535401965928167, 0.3012658186414988, 0.9400010563310631, 0.34117153177908244, 0.8989102016539728, 0.4381329128956347, 0.8478504618159007, 0.5302354141308969, 0.7708797201731011, 0.6369807352077779, 0.7708797201731011, 0.6369807352077779, 0.7708797201731011, 0.6369807352077779, 0.7708797201731011, 0.6369807352077779, 0.7708797201731011, 0.6369807352077779, 0.7708797201731011, 0.6369807352077779, 0.7708797201731011, 0.6369807352077779, 0.7708797201731011, 0.6369807352077779, 0.956336774328945, -0.29226695684957005, 0.8986175912348143, -0.4387327486333111, 0.8186273103554911, -0.5743251054412776, 0.7808218587611295, -0.6247537313860676, 0.7607461368888505, -0.6490495475760617, 0.7183483893956815, -0.6956835426058535, 0.6002661142837652, -0.7998003451128723, 0.46730700451075374, -0.8840951100052451, 0.5793567829668519, -0.815074056776622, 0.7713046698898222, -0.6364661076649349, 0.9102293786535206, -0.4141044291432123, 0.9486742953562206, -0.3162547728183376, 0.9639868480762938, -0.2659499139611302, 0.986580559219804, -0.1632752282789366, 0.9951094656548312, 0.0987782939929437, 0.9352297800701433, 0.35404132311066633, 0.9994851597820168, 0.032084503666355, 0.9905689334587588, 0.13701528406122068, 0.9706673295933204, 0.2404265693723812, 0.9596761753340245, 0.2811078769729845, 0.9535401965928167, 0.3012658186414988, 0.9400010563310631, 0.34117153177908244, 0.8989102016539728, 0.4381329128956347, 0.8478504618159007, 0.5302354141308969, 0.9352297800701433, 0.35404132311066633, 0.9951094656548312, 0.0987782939929437, 0.986580559219804, -0.1632752282789366, 0.9639868480762938, -0.2659499139611302, 0.9486742953562206, -0.3162547728183376, 0.9102293786535206, -0.4141044291432123, 0.7713046698898222, -0.6364661076649349, 0.5793567829668519, -0.815074056776622, 0.9994263719218774, 0.033866312274487796, 0.9894938185844667, 0.14457518107590445, 0.9673359610191248, 0.2534978077207105, 0.9551060465961718, 0.29626413849035327, 0.9482807907110501, 0.31743273613227996, 0.933226561976753, 0.35928844125722936, 0.8875870468088725, 0.46064002685079847, 0.8309812967113664, 0.5563003545890438, 0.7458805054515933, 0.6660797786956721, 0.7458805054515933, 0.6660797786956721, 0.7458805054515933, 0.6660797786956721, 0.7458805054515933, 0.6660797786956721, 0.7458805054515933, 0.6660797786956721, 0.7458805054515933, 0.6660797786956721, 0.7458805054515933, 0.6660797786956721, 0.7458805054515933, 0.6660797786956721, 0.9513913152086138, -0.30798468362180625, 0.8872623155491378, -0.46126519856410386, 0.7986382704382907, -0.6018113599719895, 0.7568568109975782, -0.6535807277196721, 0.7346978106235946, -0.6783945216943431, 0.6879658633145894, -0.7257430474443497, 0.5583004765550376, -0.8296388237530944, 0.4132218401746286, -0.9106303919827702, 0.5354181951929448, -0.844587092167723, 0.746349559269053, -0.665554156608529, 0.9001517214445107, -0.43557648970127383, 0.9428694510609694, -0.3331624202337146, 0.9599019311856527, -0.28033601714024264, 0.9850519209980769, -0.1722576934072856, 0.994551486387088, 0.10424653915230847, 0.9279232749712929, 0.37277123784775873, 0.9994263719218774, 0.033866312274487796, 0.9894938185844667, 0.14457518107590445, 0.9673359610191248, 0.2534978077207105, 0.9551060465961718, 0.29626413849035327, 0.9482807907110501, 0.31743273613227996, 0.933226561976753, 0.35928844125722936, 0.8875870468088725, 0.46064002685079847, 0.8309812967113664, 0.5563003545890438, 0.9279232749712929, 0.37277123784775873, 0.994551486387088, 0.10424653915230847, 0.9850519209980769, -0.1722576934072856, 0.9599019311856527, -0.28033601714024264, 0.9428694510609694, -0.3331624202337146, 0.9001517214445107, -0.43557648970127383, 0.746349559269053, -0.665554156608529, 0.5354181951929448, -0.844587092167723, 0.9993644075869705, 0.03564801324539046, 0.9883610083888404, 0.1521266482132384, 0.9638285805510307, 0.2665229208022928, 0.9502965698686486, 0.31134615670645527, 0.9427473026905128, 0.33350790585796114, 0.9261029324633923, 0.37727093511521054, 0.8757004658952141, 0.48285473388059985, 0.8133111073085111, 0.5818290494024886, 0.7197835671508357, 0.6941985425363686, 0.7197835671508357, 0.6941985425363686, 0.7197835671508357, 0.6941985425363686, 0.7197835671508357, 0.6941985425363686, 0.7197835671508357, 0.6941985425363686, 0.7197835671508357, 0.6941985425363686, 0.7197835671508357, 0.6941985425363686, 0.7197835671508357, 0.6941985425363686, 0.9461875490641837, -0.3236187911662625, 0.8753421611287382, -0.4835039823522348, 0.7777267586709107, -0.628602488737707, 0.7318281378017171, -0.6814892344869954, 0.7075183121587292, -0.7066950105668379, 0.6563266494451389, -0.7544768579804936, 0.5148545332747726, -0.8572775569011568, 0.3576369589913089, -0.9338606992284496, 0.48997956976238644, -0.8717339165223909, 0.720298156575883, -0.6936645915955237, 0.8895676311722293, -0.45680349119794245, 0.9367632989173732, -0.3499636006807568, 0.9556023355775036, -0.29465942414730284, 0.9834415023724191, -0.18122585745825312, 0.9939634586895512, 0.10971163470619193, 0.9202417081815187, 0.3913504804176947, 0.9993644075869705, 0.03564801324539046, 0.9883610083888404, 0.1521266482132384, 0.9638285805510307, 0.2665229208022928, 0.9502965698686486, 0.31134615670645527, 0.9427473026905128, 0.33350790585796114, 0.9261029324633923, 0.37727093511521054, 0.8757004658952141, 0.48285473388059985, 0.8133111073085111, 0.5818290494024886, 0.9202417081815187, 0.3913504804176947, 0.9939634586895512, 0.10971163470619193, 0.9834415023724191, -0.18122585745825312, 0.9556023355775036, -0.29465942414730284, 0.9367632989173732, -0.3499636006807568, 0.8895676311722293, -0.45680349119794245, 0.720298156575883, -0.6936645915955237, 0.48997956976238644, -0.8717339165223909, 0.9992992669742371, 0.03742960091628646, 0.9871705689236807, 0.15966924516291953, 0.9601458263754633, 0.279499538628919, 0.9452489503983385, 0.3263501520925638, 0.9369413318784092, 0.3494866816030515, 0.9186328328560623, 0.39511228581106644, 0.8632580043245458, 0.5047629324441351, 0.7948569267838017, 0.6067968901896335, 0.6926273125281698, 0.7212956439214124, 0.6926273125281698, 0.7212956439214124, 0.6926273125281698, 0.7212956439214124, 0.6926273125281698, 0.7212956439214124, 0.6926273125281698, 0.7212956439214124, 0.6926273125281698, 0.7212956439214124, 0.6926273125281698, 0.7212956439214124, 0.6926273125281698, 0.7212956439214124, 0.940726888741584, -0.3391650347523745, 0.8628647169826704, -0.5054349415962613, 0.7559169290184993, -0.6546675464869487, 0.705771012449338, -0.7084400313267428, 0.6792494882135693, -0.7339074415494123, 0.6234885422446182, -0.781832486975107, 0.47004347917005784, -0.8826432618502831, 0.30075409662589087, -0.953701721379774, 0.4431682083803201, -0.8964384747884135, 0.6931887279898696, -0.7207561219911951, 0.8784830625364572, -0.47777349114048484, 0.9303577902364665, -0.36665294509429347, 0.9510890228414016, -0.30891693160231243, 0.9817494370420631, -0.1901789758821732, 0.9933454003283283, 0.1151734155374108, 0.9121881845495804, 0.40977154118867337, 0.9992992669742371, 0.03742960091628646, 0.9871705689236807, 0.15966924516291953, 0.9601458263754633, 0.279499538628919, 0.9452489503983385, 0.3263501520925638, 0.9369413318784092, 0.3494866816030515, 0.9186328328560623, 0.39511228581106644, 0.8632580043245458, 0.5047629324441351, 0.7948569267838017, 0.6067968901896335, 0.9121881845495804, 0.40977154118867337, 0.9933454003283283, 0.1151734155374108, 0.9817494370420631, -0.1901789758821732, 0.9510890228414016, -0.30891693160231243, 0.9303577902364665, -0.36665294509429347, 0.8784830625364572, -0.47777349114048484, 0.6931887279898696, -0.7207561219911951, 0.4431682083803201, -0.8964384747884135, 0.9992309502907134, 0.0392110696247594, 0.9859225696010304, 0.16720253213184708, 0.9562883685890212, 0.29242530003634837, 0.9399644531103007, 0.34127236467234373, 0.9308645563778005, 0.36536444501286747, 0.9108190578399131, 0.41280581860677906, 0.8502675603725701, 0.5263507155671756, 0.7756365440418314, 0.6311798092040367, 0.6644517078527306, 0.7473312036383799, 0.6644517078527306, 0.7473312036383799, 0.6644517078527306, 0.7473312036383799, 0.6644517078527306, 0.7473312036383799, 0.6644517078527306, 0.7473312036383799, 0.6644517078527306, 0.7473312036383799, 0.6644517078527306, 0.7473312036383799, 0.6644517078527306, 0.7473312036383799, 0.9350108168346698, -0.354619193505038, 0.8498379269204912, -0.5270441138723416, 0.733233973053582, -0.6799764266208492, 0.6787220535198272, -0.7343952437657999, 0.6499348626795709, -0.7599899172184373, 0.5895115261548611, -0.8077599646742629, 0.42398612849047207, -0.9056686827133094, 0.24277969954057035, -0.9700814488953958, 0.39511525863467295, -0.9186315542120549, 0.6650610937953245, -0.7467889538013847, 0.8669042518103867, -0.4984746916274424, 0.9236549719930836, -0.383225120148009, 0.9463630023639917, -0.3231053508634781, 0.979975865484666, -0.19911630537848937, 0.9926973299768452, 0.12063171662892966, 0.9037659592672299, 0.42802697446514254, 0.9992309502907134, 0.0392110696247594, 0.9859225696010304, 0.16720253213184708, 0.9562883685890212, 0.29242530003634837, 0.9399644531103007, 0.34127236467234373, 0.9308645563778005, 0.36536444501286747, 0.9108190578399131, 0.41280581860677906, 0.8502675603725701, 0.5263507155671756, 0.7756365440418314, 0.6311798092040367, 0.9037659592672299, 0.42802697446514254, 0.9926973299768452, 0.12063171662892966, 0.979975865484666, -0.19911630537848937, 0.9463630023639917, -0.3231053508634781, 0.9236549719930836, -0.383225120148009, 0.8669042518103867, -0.4984746916274424, 0.6650610937953245, -0.7467889538013847, 0.39511525863467295, -0.9186315542120549, 0.9991594577535304, 0.04099241370877098, 0.9846170831891278, 0.17472606986976577, 0.9522569090765488, 0.30529785311393437, 0.9344444022907831, 0.3561090549640955, 0.9245187325625819, 0.3811366069283783, 0.9026645306746272, 0.43034491406539843, 0.8367373801654459, 0.5476043796700918, 0.7556684865677076, 0.654954302534513, 0.6352982195864859, 0.7722669047617159, 0.6352982195864859, 0.7722669047617159, 0.6352982195864859, 0.7722669047617159, 0.6352982195864859, 0.7722669047617159, 0.6352982195864859, 0.7722669047617159, 0.6352982195864859, 0.7722669047617159, 0.6352982195864859, 0.7722669047617159, 0.6352982195864859, 0.7722669047617159, 0.9290408852826906, -0.3699770715505957, 0.8362700844948052, -0.5483177416234599, 0.7097040908583876, -0.7044998959679621, 0.6507192734353722, -0.7593183964449574, 0.619619569609084, -0.7849022798778542, 0.554457666030364, -0.8322119300876198, 0.37680459997809673, -0.9262927687482757, 0.18392417573309044, -0.9829404344012425, 0.3459553465706165, -0.9382509782458021, 0.6359565698904083, -0.7717248481247875, 0.8548377133320402, -0.5188954459862303, 0.9166569861717171, -0.39967482995878595, 0.9414253311032632, -0.33722150874033996, 0.9781209349446475, -0.2080371039574641, 0.9920192672152812, 0.12608637306884662, 0.8949784365534807, 0.44610940149730893, 0.9991594577535304, 0.04099241370877098, 0.9846170831891278, 0.17472606986976577, 0.9522569090765488, 0.30529785311393437, 0.9344444022907831, 0.3561090549640955, 0.9245187325625819, 0.3811366069283783, 0.9026645306746272, 0.43034491406539843, 0.8367373801654459, 0.5476043796700918, 0.7556684865677076, 0.654954302534513, 0.8949784365534807, 0.44610940149730893, 0.9920192672152812, 0.12608637306884662, 0.9781209349446475, -0.2080371039574641, 0.9414253311032632, -0.33722150874033996, 0.9166569861717171, -0.39967482995878595, 0.8548377133320402, -0.5188954459862303, 0.6359565698904083, -0.7717248481247875, 0.3459553465706165, -0.9382509782458021, 0.9990847895899125, 0.042773627506678985, 0.9832541858081634, 0.18223941969487772, 0.9480521813834251, 0.31811485563256764, 0.9286901812553565, 0.37085650491786304, 0.9179056945698365, 0.39679860871261374, 0.8941723021007798, 0.4477230105274821, 0.8226760524452781, 0.5685104332666675, 0.7349720025674852, 0.6780974527617255, 0.6052097533574194, 0.7960660490443312, 0.6052097533574194, 0.7960660490443312, 0.6052097533574194, 0.7960660490443312, 0.6052097533574194, 0.7960660490443312, 0.6052097533574194, 0.7960660490443312, 0.6052097533574194, 0.7960660490443312, 0.6052097533574194, 0.7960660490443312, 0.6052097533574194, 0.7960660490443312, 0.9228187149489321, -0.3852344991560356, 0.8221698277211438, -0.5692422809182262, 0.6853544607622882, -0.7282096285502089, 0.6218020250413727, -0.7831744643784347, 0.5883502837250333, -0.8086061733876837, 0.5183909937661697, -0.8551437175014052, 0.3286239930758294, -0.9444608362313904, 0.12440113109748371, -0.9922320084444296, 0.29582619951971284, -0.9552417807433483, 0.6059179070993581, -0.79552717732101, 0.8422902358392482, -0.5390242653256564, 0.9093660690820153, -0.41599681777908265, 0.9362771133521643, -0.35126224820344465, 0.9761847994209649, -0.21694063100178007, 0.9913112325299778, 0.1315372200553758, 0.8858291682786406, 0.46401151346359054, 0.9990847895899125, 0.042773627506678985, 0.9832541858081634, 0.18223941969487772, 0.9480521813834251, 0.31811485563256764, 0.9286901812553565, 0.37085650491786304, 0.9179056945698365, 0.39679860871261374, 0.8941723021007798, 0.4477230105274821, 0.8226760524452781, 0.5685104332666675, 0.7349720025674852, 0.6780974527617255, 0.8858291682786406, 0.46401151346359054, 0.9913112325299778, 0.1315372200553758, 0.9761847994209649, -0.21694063100178007, 0.9362771133521643, -0.35126224820344465, 0.9093660690820153, -0.41599681777908265, 0.8422902358392482, -0.5390242653256564, 0.6059179070993581, -0.79552717732101, 0.29582619951971284, -0.9552417807433483, 0.9990069460371775, 0.04455470535725529, 0.9818339569258416, 0.18974214351942095, 0.9436749505820905, 0.3308739754708566, 0.9227032320022601, 0.3855110188471705, 0.9110273537697141, 0.412345923568249, 0.8853455491985087, 0.4649336065659172, 0.8080925031181226, 0.5890556055282785, 0.713567042413862, 0.700586951049428, 0.5742305908146718, 0.8186936109269651, 0.5742305908146718, 0.8186936109269651, 0.5742305908146718, 0.8186936109269651, 0.5742305908146718, 0.8186936109269651, 0.5742305908146718, 0.8186936109269651, 0.5742305908146718, 0.8186936109269651, 0.5742305908146718, 0.8186936109269651, 0.5742305908146718, 0.8186936109269651, 0.9163459951806449, -0.400387333861092, 0.8075461335785424, -0.5898044100736675, 0.6602132079493095, -0.7510782383009655, 0.5920109463031316, -0.8059299221751669, 0.5561751485585172, -0.83106510221878, 0.4813773913326177, -0.8765134380680103, 0.27957205623252374, -0.9601247134481637, 0.06442659417860866, -0.9979224488719276, 0.24486826024044012, -0.9695563599537781, 0.5749892283769941, -0.8181609788118894, 0.8292688786502478, -0.558849824999669, 0.9017845506441368, -0.4321858676768044, 0.9309195004916315, -0.3652244290904037, 0.9741676196543284, -0.2258261473280271, 0.9905732473128193, 0.1369840929018266, 0.8763218525286637, 0.48172607442480325, 0.9990069460371775, 0.04455470535725529, 0.9818339569258416, 0.18974214351942095, 0.9436749505820905, 0.3308739754708566, 0.9227032320022601, 0.3855110188471705, 0.9110273537697141, 0.412345923568249, 0.8853455491985087, 0.4649336065659172, 0.8080925031181226, 0.5890556055282785, 0.713567042413862, 0.700586951049428, 0.8763218525286637, 0.48172607442480325, 0.9905732473128193, 0.1369840929018266, 0.9741676196543284, -0.2258261473280271, 0.9309195004916315, -0.3652244290904037, 0.9017845506441368, -0.4321858676768044, 0.8292688786502478, -0.558849824999669, 0.5749892283769941, -0.8181609788118894, 0.24486826024044012, -0.9695563599537781, 0.9989259273427353, 0.04633564159970386, 0.9803564793527474, 0.19723380387521344, 0.9391260131328386, 0.34357289103946986, 0.9164850548510372, 0.40006892435515584, 0.903885698212986, 0.427774057845988, 0.876187574198916, 0.48197026341821037, 0.7929959895879631, 0.6092268547080036, 0.6914742394150186, 0.7224011186490656, 0.5424063244585697, 0.8401162890858294, 0.5424063244585697, 0.8401162890858294, 0.5424063244585697, 0.8401162890858294, 0.5424063244585697, 0.8401162890858294, 0.5424063244585697, 0.8401162890858294, 0.5424063244585697, 0.8401162890858294, 0.5424063244585697, 0.8401162890858294, 0.5424063244585697, 0.8401162890858294, 0.9096244833503783, -0.41543146160294286, 0.7924083122943144, -0.6099910381365257, 0.6343093719719703, -0.7730793106975018, 0.5613879031965394, -0.827552791152681, 0.5231437023249663, -0.8522444876429105, 0.4434844704306103, -0.896282056323165, 0.22977884818441927, -0.9732428684182801, 0.0042182321340909785, -0.9999911032192551, 0.1932242934511255, -0.9811546118835264, 0.543215963997739, -0.8395930064370517, 0.8157809676920486, -0.5783609709787002, 0.8939148536441894, -0.4482368062021317, 0.9253536907330864, -0.3791049288081805, 0.9720695631138555, -0.23469291524807048, 0.989805333860587, 0.14242682704157916, 0.8664603321104043, 0.4992459242488894, 0.9989259273427353, 0.04633564159970386, 0.9803564793527474, 0.19723380387521344, 0.9391260131328386, 0.34357289103946986, 0.9164850548510372, 0.40006892435515584, 0.903885698212986, 0.427774057845988, 0.876187574198916, 0.48197026341821037, 0.7929959895879631, 0.6092268547080036, 0.6914742394150186, 0.7224011186490656, 0.8664603321104043, 0.4992459242488894, 0.989805333860587, 0.14242682704157916, 0.9720695631138555, -0.23469291524807048, 0.9253536907330864, -0.3791049288081805, 0.8939148536441894, -0.4482368062021317, 0.8157809676920486, -0.5783609709787002, 0.543215963997739, -0.8395930064370517, 0.1932242934511255, -0.9811546118835264, 0.9988417337640876, 0.0481164305736787, 0.9788218392375172, 0.20471396393916094, 0.9344061967388955, 0.35620929170356086, 0.910037208066559, 0.4145265732548668, 0.8964827920564388, 0.4430785523433649, 0.8667018032486508, 0.49882660739533236, 0.7773960948802593, 0.6290113764193164, 0.6687148899251454, 0.7435189277970001, 0.5097837905414566, 0.8603025554426678, 0.5097837905414566, 0.8603025554426678, 0.5097837905414566, 0.8603025554426678, 0.5097837905414566, 0.8603025554426678, 0.5097837905414566, 0.8603025554426678, 0.5097837905414566, 0.8603025554426678, 0.5097837905414566, 0.8603025554426678, 0.5097837905414566, 0.8603025554426678, 0.9026560043788464, -0.4303627978331957, 0.7767660014166612, -0.6297893132176597, 0.6076728732089772, -0.7941874332712312, 0.5299759308730141, -0.8480126842773534, 0.4893068016529865, -0.8721117209716454, 0.40478144898723056, -0.9144134614909155, 0.17937639311096376, -0.983780519015548, -0.05600543925079023, -0.9984304636650096, 0.1410389858576345, -0.9900040426524782, 0.5106447848243554, -0.8597917792882692, 0.8018340913788047, -0.5975467261250176, 0.8857594929599939, -0.4641445040407724, 0.9195809288504607, -0.39290064303144623, 0.9698908039831683, -0.24354019863029455, 0.9890075153742856, 0.14786525803305664, 0.8562485929983745, 0.5165639815050057, 0.9988417337640876, 0.0481164305736787, 0.9788218392375172, 0.20471396393916094, 0.9344061967388955, 0.35620929170356086, 0.910037208066559, 0.4145265732548668, 0.8964827920564388, 0.4430785523433649, 0.8667018032486508, 0.49882660739533236, 0.7773960948802593, 0.6290113764193164, 0.6687148899251454, 0.7435189277970001, 0.8562485929983745, 0.5165639815050057, 0.9890075153742856, 0.14786525803305664, 0.9698908039831683, -0.24354019863029455, 0.9195809288504607, -0.39290064303144623, 0.8857594929599939, -0.4641445040407724, 0.8018340913788047, -0.5975467261250176, 0.5106447848243554, -0.8597917792882692, 0.1410389858576345, -0.9900040426524782, 0.9987543655688265, 0.04989706661930193, 0.9772301260618161, 0.21218218755872728, 0.929516360195815, 0.36878087820320066, 0.9033613074685254, 0.42888034248349083, 0.8888207749662684, 0.45825498359359057, 0.8568917851281318, 0.5154963322662186, 0.7613027215587953, 0.648396611764105, 0.645310932815824, 0.76392002198422, 0.47641100013807464, 0.8792227015651037, 0.47641100013807464, 0.8792227015651037, 0.47641100013807464, 0.8792227015651037, 0.47641100013807464, 0.8792227015651037, 0.47641100013807464, 0.8792227015651037, 0.47641100013807464, 0.8792227015651037, 0.47641100013807464, 0.8792227015651037, 0.47641100013807464, 0.8792227015651037, 0.8954424502394538, -0.4451772886268609, 0.760629159678893, -0.649186630674247, 0.5803344783055132, -0.8143782249605326, 0.4978191731813743, -0.8672808488678929, 0.45471654328331595, -0.8906362137620906, 0.3653390247173134, -0.930874533446158, 0.12849833057936075, -0.9917097251909539, -0.1160258486281659, -0.9932461942791998, 0.08845854079638162, -0.996079859529433, 0.4773235337544141, -0.8787276279508905, 0.7874360963425071, -0.616396296368557, 0.8773210747574168, -0.4799038776531098, 0.9136025059018065, -0.40660848639685276, 0.9676315231459318, -0.25236726296071754, 0.9881798159584414, 0.15329922156469342, 0.8456907627236343, 0.5336732463257997, 0.9987543655688265, 0.04989706661930193, 0.9772301260618161, 0.21218218755872728, 0.929516360195815, 0.36878087820320066, 0.9033613074685254, 0.42888034248349083, 0.8888207749662684, 0.45825498359359057, 0.8568917851281318, 0.5154963322662186, 0.7613027215587953, 0.648396611764105, 0.645310932815824, 0.76392002198422, 0.8456907627236343, 0.5336732463257997, 0.9881798159584414, 0.15329922156469342, 0.9676315231459318, -0.25236726296071754, 0.9136025059018065, -0.40660848639685276, 0.8773210747574168, -0.4799038776531098, 0.7874360963425071, -0.616396296368557, 0.4773235337544141, -0.8787276279508905, 0.08845854079638162, -0.996079859529433, 0.9986638230346341, 0.051677544077181684, 0.9755814326351206, 0.21963803927736547, 0.9244573932352161, 0.3812853630717405, 0.8964590260265433, 0.4431266350102885, 0.8809018614996527, 0.4732989651440691, 0.8467611899238916, 0.5319732016170319, 0.7447260854396908, 0.6673702553048603, 0.6212849283280556, 0.7835847355789946, 0.4423370684869414, 0.8968488823889892, 0.4423370684869414, 0.8968488823889892, 0.4423370684869414, 0.8968488823889892, 0.4423370684869414, 0.8968488823889892, 0.4423370684869414, 0.8968488823889892, 0.4423370684869414, 0.8968488823889892, 0.4423370684869414, 0.8968488823889892, 0.4423370684869414, 0.8968488823889892, 0.887985779444616, -0.45987091178301104, 0.7440080606591655, -0.668170641134574, 0.5523257646360429, -0.83362836427224, 0.46496282063164096, -0.8853302070020364, 0.4194261838584534, -0.907789444912164, 0.32522924598192754, -0.9456352032142347, 0.07727956120599846, -0.9970094630542924, -0.17562516235429507, -0.9844571104664883, 0.035630268628320694, -0.9993650403918849, 0.44330115544519677, -0.8963727380844162, 0.7725950830184021, -0.6348990767797575, 0.8686022956575329, -0.4955098908987225, 0.9074197589405557, -0.42022539319306224, 0.9652919081708371, -0.2611733754039721, 0.9873222606203751, 0.15872855345989945, 0.834791108705465, 0.5505668032367195, 0.9986638230346341, 0.051677544077181684, 0.9755814326351206, 0.21963803927736547, 0.9244573932352161, 0.3812853630717405, 0.8964590260265433, 0.4431266350102885, 0.8809018614996527, 0.4732989651440691, 0.8467611899238916, 0.5319732016170319, 0.7447260854396908, 0.6673702553048603, 0.6212849283280556, 0.7835847355789946, 0.834791108705465, 0.5505668032367195, 0.9873222606203751, 0.15872855345989945, 0.9652919081708371, -0.2611733754039721, 0.9074197589405557, -0.42022539319306224, 0.8686022956575329, -0.4955098908987225, 0.7725950830184021, -0.6348990767797575, 0.44330115544519677, -0.8963727380844162, 0.035630268628320694, -0.9993650403918849, 0.9985701064492817, 0.05345785728843015, 0.9738758550893066, 0.2270810843599083, 0.9192302163628919, 0.3937204710520282, 0.8893320934408834, 0.45726188073800333, 0.8727283404646753, 0.4882061488242172, 0.8363138076555371, 0.5482510511843067, 0.7276767091065639, 0.6859202628759711, 0.5966600363253203, 0.8024941127835565, 0.40761214270671425, 0.9131551571984036, 0.40761214270671425, 0.9131551571984036, 0.40761214270671425, 0.9131551571984036, 0.40761214270671425, 0.9131551571984036, 0.40761214270671425, 0.9131551571984036, 0.40761214270671425, 0.9131551571984036, 0.40761214270671425, 0.9131551571984036, 0.40761214270671425, 0.9131551571984036, 0.8802880165140147, -0.47443967791682634, 0.7269132862397687, -0.6867292583603091, 0.52367908383068, -0.8519156162192707, 0.43145304688794284, -0.902135393569674, 0.3834900579264519, -0.9235450045729047, 0.28452538017967266, -0.9586685078970795, 0.025855888974268847, -0.9996656806179506, -0.23458707507891224, -0.9720951106789504, -0.017297825968524003, -0.999850381415521, 0.4086276244202508, -0.9127011912782094, 0.7573194010876162, -0.6530446575359868, 0.8596059418748784, -0.5109575566457581, 0.9010340707164926, -0.43374831804638364, 0.9628721532960289, -0.2699578048641462, 0.9864348752694455, 0.16415308968202047, 0.8235540365265013, 0.567237823951212, 0.9985701064492817, 0.05345785728843015, 0.9738758550893066, 0.2270810843599083, 0.9192302163628919, 0.3937204710520282, 0.8893320934408834, 0.45726188073800333, 0.8727283404646753, 0.4882061488242172, 0.8363138076555371, 0.5482510511843067, 0.7276767091065639, 0.6859202628759711, 0.5966600363253203, 0.8024941127835565, 0.8235540365265013, 0.567237823951212, 0.9864348752694455, 0.16415308968202047, 0.9628721532960289, -0.2699578048641462, 0.9010340707164926, -0.43374831804638364, 0.8596059418748784, -0.5109575566457581, 0.7573194010876162, -0.6530446575359868, 0.4086276244202508, -0.9127011912782094, -0.017297825968524003, -0.999850381415521, 0.9984732161106286, 0.055238000594681536, 0.9721134928730445, 0.23451088881791665, 0.9138357806913184, 0.4060839395104029, 0.8819822957090199, 0.4712825373975223, 0.8643025742587915, 0.5029722260022179, 0.825553546857843, 0.5643237911610985, 0.7101654152309637, 0.704034859229167, 0.5714599939686298, 0.8206299259065402, 0.37228732799392056, 0.928117527802997, 0.37228732799392056, 0.928117527802997, 0.37228732799392056, 0.928117527802997, 0.37228732799392056, 0.928117527802997, 0.37228732799392056, 0.928117527802997, 0.37228732799392056, 0.928117527802997, 0.37228732799392056, 0.928117527802997, 0.37228732799392056, 0.928117527802997, 0.8723512514249316, -0.4888796315427302, 0.7093557198701355, -0.7048506669412478, 0.49442752440724563, -0.8692188580032779, 0.3973369438797796, -0.9176727919189263, 0.34696349428512224, -0.9378786348102072, 0.24330177991119425, -0.9699506399255814, -0.02563633884284079, -0.9996713350550445, -0.2926975947879005, -0.9562050606461869, -0.07017745865173901, -0.9975345228598274, 0.37335387166320605, -0.9276890031223256, 0.741617644779555, -0.6708228297781954, 0.8503348883270768, -0.5262419383646441, 0.8944468693665066, -0.447174236601859, 0.9603724594129802, -0.27871982204547946, 0.9855176867162672, 0.16957266633929416, 0.811984088152018, 0.5836795701306805, 0.9984732161106286, 0.055238000594681536, 0.9721134928730445, 0.23451088881791665, 0.9138357806913184, 0.4060839395104029, 0.8819822957090199, 0.4712825373975223, 0.8643025742587915, 0.5029722260022179, 0.825553546857843, 0.5643237911610985, 0.7101654152309637, 0.704034859229167, 0.5714599939686298, 0.8206299259065402, 0.811984088152018, 0.5836795701306805, 0.9855176867162672, 0.16957266633929416, 0.9603724594129802, -0.27871982204547946, 0.8944468693665066, -0.447174236601859, 0.8503348883270768, -0.5262419383646441, 0.741617644779555, -0.6708228297781954, 0.37335387166320605, -0.9276890031223256, -0.07017745865173901, -0.9975345228598274, 0.9983731523266209, 0.05701796833811005, 0.9702944487460002, 0.24192701943498474, 0.9082750677665947, 0.41837351884839424, 0.8744114746780628, 0.4851850914355629, 0.8556269981860221, 0.5175929288303474, 0.8144844331185049, 0.5801854084752801, 0.6922033197023111, 0.7217025455082586, 0.5457090928350946, 0.8379746929335623, 0.3364146124106685, 0.9417139738564888, 0.3364146124106685, 0.9417139738564888, 0.3364146124106685, 0.9417139738564888, 0.3364146124106685, 0.9417139738564888, 0.3364146124106685, 0.9417139738564888, 0.3364146124106685, 0.9417139738564888, 0.3364146124106685, 0.9417139738564888, 0.3364146124106685, 0.9417139738564888, 0.8641776390448105, -0.503186852148322, 0.6913465396378524, -0.7225233298176381, 0.4646048735521807, -0.8855181034126643, 0.36266245562282723, -0.9319205670450786, 0.30990273079544706, -0.9507682669533752, 0.20163374716139043, -0.9794609905481976, -0.07706059320066881, -0.9970264113731195, -0.34974581945011357, -0.9368446305429564, -0.1228604808507182, -0.9924239528775645, 0.33753170980666997, -0.9413141584375463, 0.7254986480367156, -0.6882235913545087, 0.8407920977161153, -0.5413581517056286, 0.8876596280951952, -0.46050014619965085, 0.9577930340498129, -0.28745869951291086, 0.9845707226718998, 0.17498711968980174, 0.8000859400940911, 0.5998853961080854, 0.9983731523266209, 0.05701796833811005, 0.9702944487460002, 0.24192701943498474, 0.9082750677665947, 0.41837351884839424, 0.8744114746780628, 0.4851850914355629, 0.8556269981860221, 0.5175929288303474, 0.8144844331185049, 0.5801854084752801, 0.6922033197023111, 0.7217025455082586, 0.5457090928350946, 0.8379746929335623, 0.8000859400940911, 0.5998853961080854, 0.9845707226718998, 0.17498711968980174, 0.9577930340498129, -0.28745869951291086, 0.8876596280951952, -0.46050014619965085, 0.8407920977161153, -0.5413581517056286, 0.7254986480367156, -0.6882235913545087, 0.33753170980666997, -0.9413141584375463, -0.1228604808507182, -0.9924239528775645, 0.9982699154152914, 0.0587977548614479, 0.968418828772844, 0.24932904379199997, 0.9025490893898456, 0.4305869729120477, 0.8666215275831939, 0.4989660588951632, 0.8467041197530761, 0.5320640314785133, 0.8031106075721017, 0.5958299690391291, 0.6738018245717098, 0.7389121065484276, 0.5194321555020619, 0.8545116943790072, 0.3000467903730336, 0.9539244852643425, 0.3000467903730336, 0.9539244852643425, 0.3000467903730336, 0.9539244852643425, 0.3000467903730336, 0.9539244852643425, 0.3000467903730336, 0.9539244852643425, 0.3000467903730336, 0.9539244852643425, 0.3000467903730336, 0.9539244852643425, 0.3000467903730336, 0.9539244852643425, 0.8557693985462, -0.5173574552588133, 0.6728972111520912, -0.7397359956252891, 0.434245578094456, -0.9007945259077742, 0.32747831084229007, -0.9448586962757344, 0.2723648277953638, -0.9621940555729919, 0.1595973957474049, -0.9871821874763778, -0.128280525282751, -0.9917379224539019, -0.40552470244964123, -0.9140840856852995, -0.1751992948224742, -0.9845329893374359, 0.3012137570260965, -0.9535566436128604, 0.7089714795446349, -0.7052371524475235, 0.83098061958157, -0.5563013660596476, 0.8806738648453856, -0.47372306654657587, 0.9551340913540696, -0.2961737117524711, 0.9835940117470118, 0.18039628614641515, 0.787864401521377, 0.6158487515740877, 0.9982699154152914, 0.0587977548614479, 0.968418828772844, 0.24932904379199997, 0.9025490893898456, 0.4305869729120477, 0.8666215275831939, 0.4989660588951632, 0.8467041197530761, 0.5320640314785133, 0.8031106075721017, 0.5958299690391291, 0.6738018245717098, 0.7389121065484276, 0.5194321555020619, 0.8545116943790072, 0.787864401521377, 0.6158487515740877, 0.9835940117470118, 0.18039628614641515, 0.9551340913540696, -0.2961737117524711, 0.8806738648453856, -0.47372306654657587, 0.83098061958157, -0.5563013660596476, 0.7089714795446349, -0.7052371524475235, 0.3012137570260965, -0.9535566436128604, -0.1751992948224742, -0.9845329893374359, 0.9981635057047576, 0.06057735450800329, 0.9664867423170654, 0.25671653029235625, 0.8966588874331186, 0.4427220793988052, 0.8586144065722228, 0.5126219862887562, 0.8375365179446058, 0.5463813513556489, 0.7914363253508307, 0.6112516199693658, 0.6549726108141065, 0.7556526179954338, 0.4926545116193955, 0.8702249894027722, 0.2632373849527207, 0.9647310916329239, 0.2632373849527207, 0.9647310916329239, 0.2632373849527207, 0.9647310916329239, 0.2632373849527207, 0.9647310916329239, 0.2632373849527207, 0.9647310916329239, 0.2632373849527207, 0.9647310916329239, 0.2632373849527207, 0.9647310916329239, 0.2632373849527207, 0.9647310916329239, 0.8471288128042395, -0.5313875934916809, 0.6540194802439878, -0.756477705858794, 0.4033847047175599, -0.915030480366598, 0.29183395449348726, -0.9564689974090604, 0.23440758024722452, -0.9721384090357921, 0.11726951228366998, -0.9931001266180315, -0.17916032802283124, -0.9838198904589963, -0.4598318040255151, -0.8880060315147866, -0.2270472671642452, -0.9738837397108794, 0.2644533597504136, -0.9643984760029012, 0.6920454376297694, -0.7218539410821423, 0.8209035893260807, -0.5710668061020159, 0.8734911419586531, -0.4868400403826375, 0.9523958520749343, -0.30486413523151573, 0.9825875834510152, 0.18580000228173948, 0.7753244123152716, 0.6315631842246495, 0.9981635057047576, 0.06057735450800329, 0.9664867423170654, 0.25671653029235625, 0.8966588874331186, 0.4427220793988052, 0.8586144065722228, 0.5126219862887562, 0.8375365179446058, 0.5463813513556489, 0.7914363253508307, 0.6112516199693658, 0.6549726108141065, 0.7556526179954338, 0.4926545116193955, 0.8702249894027722, 0.7753244123152716, 0.6315631842246495, 0.9825875834510152, 0.18580000228173948, 0.9523958520749343, -0.30486413523151573, 0.8734911419586531, -0.4868400403826375, 0.8209035893260807, -0.5710668061020159, 0.6920454376297694, -0.7218539410821423, 0.2644533597504136, -0.9643984760029012, -0.2270472671642452, -0.9738837397108794, 0.9980539235332213, 0.062356761621678324, 0.9644983020345972, 0.2640890481871197, 0.8906055336498103, 0.45477663026186443, 0.8503921182163817, 0.5261494514636078, 0.8281268424777999, 0.5605407503186091, 0.7794659539925934, 0.6264445917768116, 0.6357276309133957, 0.7719134532402201, 0.465401973492964, 0.8850994311764382, 0.22604056910635362, 0.9741178887167999, 0.22604056910635362, 0.9741178887167999, 0.22604056910635362, 0.9741178887167999, 0.22604056910635362, 0.9741178887167999, 0.22604056910635362, 0.9741178887167999, 0.22604056910635362, 0.9741178887167999, 0.22604056910635362, 0.9741178887167999, 0.22604056910635362, 0.9741178887167999, 0.8382582277768473, -0.5452734576012472, 0.6347253654886161, -0.7727378018483, 0.3720578994555178, -0.9282095234658756, 0.2557794782759057, -0.9667351542655855, 0.19608942875419882, -0.9805860165894943, 0.07472741591796986, -0.997203997841075, -0.22956509619044607, -0.9732933096508325, -0.5124700259916333, -0.858705113796427, -0.2782591396243835, -0.96050603913536, 0.22730451430294124, -0.9738237303421517, 0.6747300450281781, -0.7380646085108489, 0.8105642272133866, -0.5856497533184535, 0.8661130658259086, -0.49984813414240653, 0.9495785435449053, -0.31352924845879426, 0.9815514681911742, 0.1911981048330507, 0.7624710410732364, 0.6470223423690213, 0.9980539235332213, 0.062356761621678324, 0.9644983020345972, 0.2640890481871197, 0.8906055336498103, 0.45477663026186443, 0.8503921182163817, 0.5261494514636078, 0.8281268424777999, 0.5605407503186091, 0.7794659539925934, 0.6264445917768116, 0.6357276309133957, 0.7719134532402201, 0.465401973492964, 0.8850994311764382, 0.7624710410732364, 0.6470223423690213, 0.9815514681911742, 0.1911981048330507, 0.9495785435449053, -0.31352924845879426, 0.8661130658259086, -0.49984813414240653, 0.8105642272133866, -0.5856497533184535, 0.6747300450281781, -0.7380646085108489, 0.22730451430294124, -0.9738237303421517, -0.2782591396243835, -0.96050603913536, 0.9979411692489673, 0.06413597054698707, 0.962453623867246, 0.2714461676001445, 0.8843901294796551, 0.4667484321119449, 0.8419567230074828, 0.5395450644594025, 0.8184778130365351, 0.5745381358682213, 0.7672039718070292, 0.6414032005248487, 0.6160791012751724, 0.787684290164515, 0.43770081120287235, 0.8991206814840528, 0.18851108594831745, 0.9820710618252562, 0.18851108594831745, 0.9820710618252562, 0.18851108594831745, 0.9820710618252562, 0.18851108594831745, 0.9820710618252562, 0.18851108594831745, 0.9820710618252562, 0.18851108594831745, 0.9820710618252562, 0.18851108594831745, 0.9820710618252562, 0.18851108594831745, 0.9820710618252562, 0.8291600518677831, -0.5590112775129096, 0.6150271505533198, -0.7885059315453906, 0.3403013465197309, -0.9403164326740536, 0.2193655502383705, -0.9756427396176415, 0.1574693695826193, -0.9875238719358902, 0.032048817094739245, -0.9994863047199937, -0.2793611840853395, -0.9601860907274365, -0.5632483270703728, -0.8262876751183128, -0.3286914360606003, -0.9444373668276898, 0.189821787587695, -0.9818185621371253, 0.6570350435279486, -0.753860034473394, 0.7999658373392433, -0.600045547512956, 0.8585412865281349, -0.5127444386111029, 0.9466823996609223, -0.32216833204434886, 0.9804856972716872, 0.19659043070722806, 0.7493094830600975, 0.6622199774970621, 0.9979411692489673, 0.06413597054698707, 0.962453623867246, 0.2714461676001445, 0.8843901294796551, 0.4667484321119449, 0.8419567230074828, 0.5395450644594025, 0.8184778130365351, 0.5745381358682213, 0.7672039718070292, 0.6414032005248487, 0.6160791012751724, 0.787684290164515, 0.43770081120287235, 0.8991206814840528, 0.7493094830600975, 0.6622199774970621, 0.9804856972716872, 0.19659043070722806, 0.9466823996609223, -0.32216833204434886, 0.8585412865281349, -0.5127444386111029, 0.7999658373392433, -0.600045547512956, 0.6570350435279486, -0.753860034473394, 0.189821787587695, -0.9818185621371253, -0.3286914360606003, -0.9444373668276898, 0.9978252432103623, 0.06591497562907346, 0.9603528270359323, 0.2787874595531383, 0.8780138058483121, 0.47863530661638665, 0.8333103348415614, 0.5528054683577622, 0.8085922184853042, 0.5883694623321423, 0.7546549662001063, 0.6561218499558724, 0.5960394944719541, 0.8029551176931481, 0.40957772728042163, 0.9122752245434513, 0.15070416818449234, 0.9885789061535858, 0.15070416818449234, 0.9885789061535858, 0.15070416818449234, 0.9885789061535858, 0.15070416818449234, 0.9885789061535858, 0.15070416818449234, 0.9885789061535858, 0.15070416818449234, 0.9885789061535858, 0.15070416818449234, 0.9885789061535858, 0.15070416818449234, 0.9885789061535858, 0.8198367552727553, -0.5725973233467305, 0.5949373763772707, -0.8037720561137528, 0.30815172650418754, -0.951337223834161, 0.18264334357426334, -0.9831792354642228, 0.11860686382880384, -0.9929412932558982, -0.010688324396408422, -0.9999428782293502, -0.3284165598922957, -0.9445329868186236, -0.6119824162436996, -0.7908713689396798, -0.37820286440541445, -0.9257227410815506, 0.1520602369375822, -0.9883712280021543, 0.6389703884883838, -0.7692313323279311, 0.7891118065755507, -0.6142495882970298, 0.8507774974673513, -0.5255260695752314, 0.9437076608649473, -0.3307806687592394, 0.9793903028927397, 0.20197681698568204, 0.735845058108148, 0.6771499468048537, 0.9978252432103623, 0.06591497562907346, 0.9603528270359323, 0.2787874595531383, 0.8780138058483121, 0.47863530661638665, 0.8333103348415614, 0.5528054683577622, 0.8085922184853042, 0.5883694623321423, 0.7546549662001063, 0.6561218499558724, 0.5960394944719541, 0.8029551176931481, 0.40957772728042163, 0.9122752245434513, 0.735845058108148, 0.6771499468048537, 0.9793903028927397, 0.20197681698568204, 0.9437076608649473, -0.3307806687592394, 0.8507774974673513, -0.5255260695752314, 0.7891118065755507, -0.6142495882970298, 0.6389703884883838, -0.7692313323279311, 0.1520602369375822, -0.9883712280021543, -0.37820286440541445, -0.9257227410815506, 0.9977061457858537, 0.06769377121372937, 0.9581960340337389, 0.28611249599067484, 0.8714777229615873, 0.49043509089550963, 0.8244551204891376, 0.5659273401234841, 0.7984729160631487, 0.602030732034181, 0.7418236319579009, 0.6705950335849415, 0.5756215313257913, 0.8177162421489199, 0.3810598309682082, 0.9245503800347932, 0.11267545682544891, 0.9936318440092268, 0.11267545682544891, 0.9936318440092268, 0.11267545682544891, 0.9936318440092268, 0.11267545682544891, 0.9936318440092268, 0.11267545682544891, 0.9936318440092268, 0.11267545682544891, 0.9936318440092268, 0.11267545682544891, 0.9936318440092268, 0.11267545682544891, 0.9936318440092268, 0.8102908693087518, -0.5860279064301182, 0.5744688331872356, -0.8185264563204393, 0.27564617401732877, -0.9612591673162907, 0.14566446470684763, -0.989334050622775, 0.07956174587020676, -0.9968299396557492, -0.05340594182762343, -0.9985728843592262, -0.37660115575683606, -0.9263755013398267, -0.6584954216053873, -0.7525847325881273, -0.42665471251265963, -0.9044145931433989, 0.11407532924221928, -0.9934721029089238, 0.6205462432390323, -0.7841698540507176, 0.7780056034880274, -0.628257336559813, 0.8428234349878911, -0.5381901684676264, 0.9406545741240032, -0.3393655435950889, 0.9782653181495324, 0.2073571009292763, 0.7220832084668993, 0.6918062156775902, 0.9977061457858537, 0.06769377121372937, 0.9581960340337389, 0.28611249599067484, 0.8714777229615873, 0.49043509089550963, 0.8244551204891376, 0.5659273401234841, 0.7984729160631487, 0.602030732034181, 0.7418236319579009, 0.6705950335849415, 0.5756215313257913, 0.8177162421489199, 0.3810598309682082, 0.9245503800347932, 0.7220832084668993, 0.6918062156775902, 0.9782653181495324, 0.2073571009292763, 0.9406545741240032, -0.3393655435950889, 0.8428234349878911, -0.5381901684676264, 0.7780056034880274, -0.628257336559813, 0.6205462432390323, -0.7841698540507176, 0.11407532924221928, -0.9934721029089238, -0.42665471251265963, -0.9044145931433989, 0.9975838773539688, 0.06947235164741247, 0.9559833706187685, 0.29342084980515326, 0.8647830700943284, 0.5021456379161605, 0.8153932990522272, 0.5789073914372878, 0.7881228305578296, 0.6155179964497501, 0.7287147694901994, 0.684817336759844, 0.5548381728332922, 0.8319582934059939, 0.3521746120881731, 0.9359343153237544, 0.07448091929873359, 0.9972224389073961, 0.07448091929873359, 0.9972224389073961, 0.07448091929873359, 0.9972224389073961, 0.07448091929873359, 0.9972224389073961, 0.07448091929873359, 0.9972224389073961, 0.07448091929873359, 0.9972224389073961, 0.07448091929873359, 0.9972224389073961, 0.07448091929873359, 0.9972224389073961, 0.8005249857267757, -0.5992993802993172, 0.5536345523546322, -0.8327597387236525, 0.2428222347894972, -0.9700708027210355, 0.108480880765771, -0.9940985356131868, 0.04039413124185046, -0.999183824008984, -0.0960260041351047, -0.9953788256386836, -0.42378721265357566, -0.9057617779478846, -0.7026185322868602, -0.7115667207557267, -0.47391123677603425, -0.8805726203201015, 0.07592285947416297, -0.9971136943244068, 0.6017729733617112, -0.7986671951015674, 0.7666507772277802, -0.6420643159186162, 0.8346808779880736, -0.5507339030067594, 0.9375233929096701, -0.34792224382344444, 0.9771107770312814, 0.21273111998324468, 0.7080294966033525, 0.7061828601287369, 0.9975838773539688, 0.06947235164741247, 0.9559833706187685, 0.29342084980515326, 0.8647830700943284, 0.5021456379161605, 0.8153932990522272, 0.5789073914372878, 0.7881228305578296, 0.6155179964497501, 0.7287147694901994, 0.684817336759844, 0.5548381728332922, 0.8319582934059939, 0.3521746120881731, 0.9359343153237544, 0.7080294966033525, 0.7061828601287369, 0.9771107770312814, 0.21273111998324468, 0.9375233929096701, -0.34792224382344444, 0.8346808779880736, -0.5507339030067594, 0.7666507772277802, -0.6420643159186162, 0.6017729733617112, -0.7986671951015674, 0.07592285947416297, -0.9971136943244068, -0.47391123677603425, -0.8805726203201015, 0.9974584383033129, 0.07125071127726422, 0.9537149658068113, 0.3007120948617014, 0.8579310653740295, 0.5137648168823773, 0.8061271414082388, 0.5917423695198624, 0.7775449534604746, 0.6288273573471087, 0.7153332830345891, 0.6987834386868054, 0.5337026119381902, 0.8456722308379018, 0.3229499145427929, 0.9464160568675929, 0.036176767080763186, 0.9993454065154771, 0.036176767080763186, 0.9993454065154771, 0.036176767080763186, 0.9993454065154771, 0.036176767080763186, 0.9993454065154771, 0.036176767080763186, 0.9993454065154771, 0.036176767080763186, 0.9993454065154771, 0.036176767080763186, 0.9993454065154771, 0.036176767080763186, 0.9993454065154771, 0.7905417560081739, -0.6124081416894397, 0.5324477980990597, -0.8464628416531129, 0.20971782230552202, -0.977761952116889, 0.07114484655665788, -0.9974659948130711, 0.001164324079873803, -0.9999993221744888, -0.1384706584562357, -0.9903665365644664, -0.46984961913283224, -0.8827464728905647, -0.7441916111268977, -0.6679662011871201, -0.5198400424309334, -0.8542636187298422, 0.03765886873323054, -0.999290653216437, 0.5826611408587427, -0.8127151991523158, 0.7550509563971196, -0.655666114149416, 0.8263516475223598, -0.5631544678301696, 0.9343143771770418, -0.35645005905494864, 0.9759267144201902, 0.21809871178210227, 0.6936896029536791, 0.7202740691944748, 0.9974584383033129, 0.07125071127726422, 0.9537149658068113, 0.3007120948617014, 0.8579310653740295, 0.5137648168823773, 0.8061271414082388, 0.5917423695198624, 0.7775449534604746, 0.6288273573471087, 0.7153332830345891, 0.6987834386868054, 0.5337026119381902, 0.8456722308379018, 0.3229499145427929, 0.9464160568675929, 0.6936896029536791, 0.7202740691944748, 0.9759267144201902, 0.21809871178210227, 0.9343143771770418, -0.35645005905494864, 0.8263516475223598, -0.5631544678301696, 0.7550509563971196, -0.655666114149416, 0.5826611408587427, -0.8127151991523158, 0.03765886873323054, -0.999290653216437, -0.5198400424309334, -0.8542636187298422, 0.9973298290325688, 0.07302884445112792, 0.9513909518638217, 0.30798580602302333, 0.8509229555591865, 0.5252905136230985, 0.7966589696408946, 0.6044290579470086, 0.766742342100945, 0.6419549679140721, 0.7016841788217033, 0.7124881144210842, 0.5122282651566735, 0.8588493490563899, 0.2934139094749532, 0.9559855007930946, -0.002180627030453299, 0.9999976224300506, -0.002180627030453299, 0.9999976224300506, -0.002180627030453299, 0.9999976224300506, -0.002180627030453299, 0.9999976224300506, -0.002180627030453299, 0.9999976224300506, -0.002180627030453299, 0.9999976224300506, -0.002180627030453299, 0.9999976224300506, -0.002180627030453299, 0.9999976224300506, 0.7803438906447475, -0.6253506315127685, 0.5109220590435863, -0.859627040979204, 0.1763711740125218, -0.9843237317963256, 0.03370883112642642, -0.9994316958672513, -0.03806727572529793, -0.999275178576379, -0.18066237234120974, -0.9835451729432899, -0.5146662430473282, -0.8573906100882773, -0.7830637758616299, -0.6219414143899142, -0.5643124544741054, -0.8255612961648642, -0.0006604380707116376, -0.9999997819107536, 0.5632214982106789, -0.8263059626756413, 0.7432098478899871, -0.6690583845968469, 0.81783760639408, -0.575449085121874, 0.931027793343144, -0.36494828129831763, 0.9747131660903972, 0.2234597141545513, 0.679069323627218, 0.7340741472824613, 0.9973298290325688, 0.07302884445112792, 0.9513909518638217, 0.30798580602302333, 0.8509229555591865, 0.5252905136230985, 0.7966589696408946, 0.6044290579470086, 0.766742342100945, 0.6419549679140721, 0.7016841788217033, 0.7124881144210842, 0.5122282651566735, 0.8588493490563899, 0.2934139094749532, 0.9559855007930946, 0.679069323627218, 0.7340741472824613, 0.9747131660903972, 0.2234597141545513, 0.931027793343144, -0.36494828129831763, 0.81783760639408, -0.575449085121874, 0.7432098478899871, -0.6690583845968469, 0.5632214982106789, -0.8263059626756413, -0.0006604380707116376, -0.9999997819107536, -0.5643124544741054, -0.8255612961648642, 0.9971980499504951, 0.07480674551756658, 0.949011464298207, 0.3152415591741879, 0.8437600158124429, 0.5367206309768484, 0.786991156458321, 0.6169642774556681, 0.7557181187641746, 0.6548970338698572, 0.6877725632023083, 0.7259262368217082, 0.49042876406079505, 0.8714812834374591, 0.2635950681123798, 0.9646334226362001, -0.04053481188001006, 0.9991781267751272, -0.04053481188001006, 0.9991781267751272, -0.04053481188001006, 0.9991781267751272, -0.04053481188001006, 0.9991781267751272, -0.04053481188001006, 0.9991781267751272, -0.04053481188001006, 0.9991781267751272, -0.04053481188001006, 0.9991781267751272, -0.04053481188001006, 0.9991781267751272, 0.7699341584028412, -0.638123335825065, 0.48907103962716786, -0.8722439556672211, 0.14282080715351772, -0.9897485625369797, -0.0037745559724727917, -0.9999928763382321, -0.0772402655232084, -0.9970125081371368, -0.22252407537936186, -0.9749271951671878, -0.5581182553794147, -0.8297614193322309, -0.8190939467254885, -0.573659399328262, -0.6072038781619543, -0.794546065590336, -0.03897877477557324, -0.9992400387879756, 0.5434649823268661, -0.8394318393916561, 0.731131235707362, -0.6822368475632387, 0.8091406587388245, -0.5876150052336149, 0.9276639142648155, -0.37341620501911926, 0.9734701687068938, 0.22881396512838048, 0.6641745680637188, 0.7475775164739591, 0.9971980499504951, 0.07480674551756658, 0.949011464298207, 0.3152415591741879, 0.8437600158124429, 0.5367206309768484, 0.786991156458321, 0.6169642774556681, 0.7557181187641746, 0.6548970338698572, 0.6877725632023083, 0.7259262368217082, 0.49042876406079505, 0.8714812834374591, 0.2635950681123798, 0.9646334226362001, 0.6641745680637188, 0.7475775164739591, 0.9734701687068938, 0.22881396512838048, 0.9276639142648155, -0.37341620501911926, 0.8091406587388245, -0.5876150052336149, 0.731131235707362, -0.6822368475632387, 0.5434649823268661, -0.8394318393916561, -0.03897877477557324, -0.9992400387879756, -0.6072038781619543, -0.794546065590336, 0.9970631014759248, 0.07658440882588093, 0.9465766418529256, 0.32247893124735805, 0.8364435494685668, 0.5480530891733256, 0.7771261245984518, 0.6293448867406422, 0.7444754697877332, 0.667649814561746, 0.6736036407369361, 0.7390927784696213, 0.46831794662536863, 0.8835600154310959, 0.2335221343228033, 0.9723514862339249, -0.07882934103612028, 0.9968881256148109, -0.07882934103612028, 0.9968881256148109, -0.07882934103612028, 0.9968881256148109, -0.07882934103612028, 0.9968881256148109, -0.07882934103612028, 0.9968881256148109, -0.07882934103612028, 0.9968881256148109, -0.07882934103612028, 0.9968881256148109, -0.07882934103612028, 0.9968881256148109, 0.7593153855716107, -0.650722786779621, 0.46690865137966864, -0.8843055531131867, 0.10910547427786242, -0.9940301783560712, -0.04125263861527234, -0.9991487475883046, -0.1162943329018782, -0.993214794561029, -0.2639792999815094, -0.9645283454524664, -0.6000904453102199, -0.7999321580280305, -0.852151358475695, -0.5232953871839762, -0.6483941480775096, -0.7613048198578809, -0.07723985664421569, -0.9970125398136078, 0.5234027083922448, -0.8520854445697701, 0.7188189797480287, -0.6951972916762573, 0.8002627495985899, -0.5996495072998098, 0.9242230192160562, -0.3818531271983476, 0.9721977598244171, 0.234161302935359, 0.6490113566447782, 0.7607787187784005, 0.9970631014759248, 0.07658440882588093, 0.9465766418529256, 0.32247893124735805, 0.8364435494685668, 0.5480530891733256, 0.7771261245984518, 0.6293448867406422, 0.7444754697877332, 0.667649814561746, 0.6736036407369361, 0.7390927784696213, 0.46831794662536863, 0.8835600154310959, 0.2335221343228033, 0.9723514862339249, 0.6490113566447782, 0.7607787187784005, 0.9721977598244171, 0.234161302935359, 0.9242230192160562, -0.3818531271983476, 0.8002627495985899, -0.5996495072998098, 0.7188189797480287, -0.6951972916762573, 0.5234027083922448, -0.8520854445697701, -0.07723985664421569, -0.9970125398136078, -0.6483941480775096, -0.7613048198578809, 0.9969249840377645, 0.07836182872612733, 0.9440866264973973, 0.32969750024645905, 0.8289748877973033, 0.5592858262118292, 0.7670663462218936, 0.6415677832417974, 0.7330176446408787, 0.6802096240462483, 0.6591827122487741, 0.7519828135485211, 0.4459098484438444, 0.895077877651318, 0.20322409690631169, 0.9791322517600031, -0.1170078558631792, 0.9931309891783165, -0.1170078558631792, 0.9931309891783165, -0.1170078558631792, 0.9931309891783165, -0.1170078558631792, 0.9931309891783165, -0.1170078558631792, 0.9931309891783165, -0.1170078558631792, 0.9931309891783165, -0.1170078558631792, 0.9931309891783165, -0.1170078558631792, 0.9931309891783165, 0.7484904551956728, -0.6631455635687948, 0.44444900406503646, -0.8958041542578362, 0.0752641184798818, -0.9971636337479654, -0.07867274813165769, -0.9969004958878357, -0.15516934854737474, -0.9878878849704471, -0.304952321061133, -0.9523676190838428, -0.6404715256953218, -0.7679819169573635, -0.8821160349819808, -0.4710321653854107, -0.6877678647881109, -0.7259306882649352, -0.11538748303953339, -0.9933205568988298, 0.5030459636138526, -0.8642596591834022, 0.7062770145750882, -0.7079355752347107, 0.7912058644867774, -0.6115498998460642, 0.9207053938648403, -0.39025834739078835, 0.9708959778863152, 0.23950156601612377, 0.6335858182604325, 0.7736724183394793, 0.9969249840377645, 0.07836182872612733, 0.9440866264973973, 0.32969750024645905, 0.8289748877973033, 0.5592858262118292, 0.7670663462218936, 0.6415677832417974, 0.7330176446408787, 0.6802096240462483, 0.6591827122487741, 0.7519828135485211, 0.4459098484438444, 0.895077877651318, 0.20322409690631169, 0.9791322517600031, 0.6335858182604325, 0.7736724183394793, 0.9708959778863152, 0.23950156601612377, 0.9207053938648403, -0.39025834739078835, 0.7912058644867774, -0.6115498998460642, 0.7062770145750882, -0.7079355752347107, 0.5030459636138526, -0.8642596591834022, -0.11538748303953339, -0.9933205568988298, -0.6877678647881109, -0.7259306882649352, 0.9967836980749927, 0.08013899956913582, 0.9415415634192255, 0.3368968452717843, 0.8213553897611415, 0.5704167982364504, 0.7568143422924073, 0.6536299039215625, 0.7213479549853599, 0.6925728321544524, 0.6445151728405406, 0.764591519687688, 0.4232186938187373, 0.9060275587433099, 0.17273016165160088, 0.9849691828965066, -0.15501416846561963, 0.9879122468999524, -0.15501416846561963, 0.9879122468999524, -0.15501416846561963, 0.9879122468999524, -0.15501416846561963, 0.9879122468999524, -0.15501416846561963, 0.9879122468999524, -0.15501416846561963, 0.9879122468999524, -0.15501416846561963, 0.9879122468999524, -0.15501416846561963, 0.9879122468999524, 0.7374623062923453, -0.6753882933527758, 0.4217063966982693, -0.9067324384755195, 0.041335828417420804, -0.9991453093965089, -0.11598229732206528, -0.993251280748178, -0.19380545882147848, -0.9810399809034269, -0.3453682943592539, -0.9384672297162964, -0.6791544281370008, -0.7339954105727797, -0.9088792246591003, -0.4170594142122591, -0.7252147181506249, -0.6885227756419607, -0.153365619976005, -0.988169513094477, 0.48240620087054387, -0.8759476339152065, 0.693509348158611, -0.720447627532091, 0.7819720289441403, -0.6233135213911092, 0.9171113302494006, -0.3986311677831713, 0.9695648622233857, 0.2448345930250607, 0.6179041878318936, 0.7862534035918751, 0.9967836980749927, 0.08013899956913582, 0.9415415634192255, 0.3368968452717843, 0.8213553897611415, 0.5704167982364504, 0.7568143422924073, 0.6536299039215625, 0.7213479549853599, 0.6925728321544524, 0.6445151728405406, 0.764591519687688, 0.4232186938187373, 0.9060275587433099, 0.17273016165160088, 0.9849691828965066, 0.6179041878318936, 0.7862534035918751, 0.9695648622233857, 0.2448345930250607, 0.9171113302494006, -0.3986311677831713, 0.7819720289441403, -0.6233135213911092, 0.693509348158611, -0.720447627532091, 0.48240620087054387, -0.8759476339152065, -0.153365619976005, -0.988169513094477, -0.7252147181506249, -0.6885227756419607, 0.9966392440366579, 0.081915915706528, 0.9389416010157314, 0.344076546544537, 0.8135864417680452, 0.5814439799079627, 0.7463726819451576, 0.6655282260325197, 0.7094697737182457, 0.7047358655412546, 0.6296065098760898, 0.7769141797661112, 0.40025888673226784, 0.9164021080245536, 0.14206972318305916, 0.9898566531345279, -0.19279234438048234, 0.9812395792813687, -0.19279234438048234, 0.9812395792813687, -0.19279234438048234, 0.9812395792813687, -0.19279234438048234, 0.9812395792813687, -0.19279234438048234, 0.9812395792813687, -0.19279234438048234, 0.9812395792813687, -0.19279234438048234, 0.9812395792813687, -0.19279234438048234, 0.9812395792813687, 0.7262339330536907, -0.6874476521753256, 0.3986953084418972, -0.9170834482349033, 0.0073597931622609416, -0.9999729163555424, -0.1531288543594829, -0.988206230481549, -0.23214317791490702, -0.9726816256862097, -0.385153393160323, -0.9228525687980121, -0.716036586870693, -0.6980627523815954, -0.9323437951618065, -0.3615730183839488, -0.7606297963584092, -0.6491858846984928, -0.1911184824264527, -0.9815669746252722, 0.46149503226950245, -0.8871427930105564, 0.6805200605948312, -0.7327294501574284, 0.7725633080857777, -0.634937741042033, 0.9134411267539826, -0.4069708932521032, 0.9682044530526872, 0.2501602228351796, 0.6019728037914257, 0.7985165893677412, 0.9966392440366579, 0.081915915706528, 0.9389416010157314, 0.344076546544537, 0.8135864417680452, 0.5814439799079627, 0.7463726819451576, 0.6655282260325197, 0.7094697737182457, 0.7047358655412546, 0.6296065098760898, 0.7769141797661112, 0.40025888673226784, 0.9164021080245536, 0.14206972318305916, 0.9898566531345279, 0.6019728037914257, 0.7985165893677412, 0.9682044530526872, 0.2501602228351796, 0.9134411267539826, -0.4069708932521032, 0.7725633080857777, -0.634937741042033, 0.6805200605948312, -0.7327294501574284, 0.46149503226950245, -0.8871427930105564, -0.1911184824264527, -0.9815669746252722, -0.7606297963584092, -0.6491858846984928, 0.9964916223818785, 0.08369257149073497, 0.9362868908853017, 0.3512361854313066, 0.8056694574191879, 0.5923653647723433, 0.735743981842893, 0.6772597678749009, 0.6973865339970549, 0.7166952087181653, 0.6144623009275006, 0.7889461836772402, 0.37704500170294447, 0.9261949398970103, 0.11127233662582306, 0.9937899511978522, -0.23028678489700913, 0.9731228065880476, -0.23028678489700913, 0.9731228065880476, -0.23028678489700913, 0.9731228065880476, -0.23028678489700913, 0.9731228065880476, -0.23028678489700913, 0.9731228065880476, -0.23028678489700913, 0.9731228065880476, -0.23028678489700913, 0.9731228065880476, -0.23028678489700913, 0.9731228065880476, 0.7148083840335803, -0.699320365866247, 0.3754303893877714, -0.9268505935285074, -0.026624743065450335, -0.999645498692761, -0.19006021647290616, -0.9817724349941142, -0.270123479434213, -0.962825688200286, -0.42423494314939525, -0.9055521591885414, -0.7510202107129436, -0.6602792160144721, -0.9524245859098162, -0.3047743561300971, -0.7939138798641978, -0.6080302224059065, -0.22859061626311442, -0.9735226397760093, 0.4403242226131714, -0.8978388379771206, 0.6673133028022908, -0.7447771182730429, 0.7629818061392796, -0.6464199590826716, 0.9096950880840722, -0.4152768314217784, 0.9668147914763248, 0.255478294542982, 0.5857981055203851, 0.8104570189521019, 0.9964916223818785, 0.08369257149073497, 0.9362868908853017, 0.3512361854313066, 0.8056694574191879, 0.5923653647723433, 0.735743981842893, 0.6772597678749009, 0.6973865339970549, 0.7166952087181653, 0.6144623009275006, 0.7889461836772402, 0.37704500170294447, 0.9261949398970103, 0.11127233662582306, 0.9937899511978522, 0.5857981055203851, 0.8104570189521019, 0.9668147914763248, 0.255478294542982, 0.9096950880840722, -0.4152768314217784, 0.7629818061392796, -0.6464199590826716, 0.6673133028022908, -0.7447771182730429, 0.4403242226131714, -0.8978388379771206, -0.22859061626311442, -0.9735226397760093, -0.7939138798641978, -0.6080302224059065, 0.9963408335798397, 0.08546896127501534, 0.9335775878185484, 0.35837534446847835, 0.7976058772517414, 0.6031789656258582, 0.7249309055202141, 0.6888215895437965, 0.6851017282474681, 0.728447405069393, 0.5990882116884164, 0.8006830300537006, 0.353591774533892, 0.9353998380275534, 0.08036768911611888, 0.9967652855843921, -0.2674423088821032, 0.9635738743966701, -0.2674423088821032, 0.9635738743966701, -0.2674423088821032, 0.9635738743966701, -0.2674423088821032, 0.9635738743966701, -0.2674423088821032, 0.9635738743966701, -0.2674423088821032, 0.9635738743966701, -0.2674423088821032, 0.9635738743966701, -0.2674423088821032, 0.9635738743966701, 0.703188761319997, -0.7110032109303364, 0.3519264512300305, -0.9360276560682579, -0.060578526226466395, -0.9981634345938691, -0.22672448330889633, -0.9739589358224062, -0.30768788728134583, -0.9514873430689142, -0.462541555164246, -0.8865976030569003, -0.7840125423497945, -0.6207449826121929, -0.9690487171633333, -0.2468695683232301, -0.8249737193554461, -0.565171091239495, -0.2657269797126673, -0.9640483246460126, 0.4189056827802728, -0.9080297511284492, 0.6538932951953534, -0.7565867818687836, 0.7532296659741233, -0.6577576075550253, 0.905873525241099, -0.4235482927214605, 0.9653959194802073, 0.260788647473323, 0.5693866307464563, 0.8220698660863313, 0.9963408335798397, 0.08546896127501534, 0.9335775878185484, 0.35837534446847835, 0.7976058772517414, 0.6031789656258582, 0.7249309055202141, 0.6888215895437965, 0.6851017282474681, 0.728447405069393, 0.5990882116884164, 0.8006830300537006, 0.353591774533892, 0.9353998380275534, 0.08036768911611888, 0.9967652855843921, 0.5693866307464563, 0.8220698660863313, 0.9653959194802073, 0.260788647473323, 0.905873525241099, -0.4235482927214605, 0.7532296659741233, -0.6577576075550253, 0.6538932951953534, -0.7565867818687836, 0.4189056827802728, -0.9080297511284492, -0.2657269797126673, -0.9640483246460126, -0.8249737193554461, -0.565171091239495, 0.9961868781097936, 0.08724507941347313, 0.9308138497892843, 0.3654936073865749, 0.7893971684767614, 0.6138828148766436, 0.7139361627160962, 0.7002107936658901, 0.6726189071539106, 0.7399890578509111, 0.5834899938544174, 0.8121203279513276, 0.3299140929588, 0.9440109592939969, 0.04938557118435286, 0.9987797882210048, -0.3042042339912334, 0.9526068360146315, -0.3042042339912334, 0.9526068360146315, -0.3042042339912334, 0.9526068360146315, -0.3042042339912334, 0.9526068360146315, -0.3042042339912334, 0.9526068360146315, -0.3042042339912334, 0.9526068360146315, -0.3042042339912334, 0.9526068360146315, -0.3042042339912334, 0.9526068360146315, 0.6913782196928049, -0.7224930154225766, 0.32819845783518276, -0.9446087932443821, -0.0944623378030521, -0.995528435925756, -0.2630701298681433, -0.96477671342708, -0.34477856568595583, -0.9386840472936221, -0.500003255599934, -0.8660235241547813, -0.8149261042781246, -0.5795648752004207, -0.9821558545273988, -0.1880688103263137, -0.8537222970033523, -0.5207285661448965, -0.30247302420555394, -0.953157945792798, 0.397251463024648, -0.9177097989695745, 0.640264326335508, -0.7681546669923565, 0.7433090686224286, -0.6689481508335736, 0.9019767554966163, -0.4317845904427315, 0.9639478799327797, 0.2660911211842652, 0.5527450129011365, 0.8333504369189005, 0.9961868781097936, 0.08724507941347313, 0.9308138497892843, 0.3654936073865749, 0.7893971684767614, 0.6138828148766436, 0.7139361627160962, 0.7002107936658901, 0.6726189071539106, 0.7399890578509111, 0.5834899938544174, 0.8121203279513276, 0.3299140929588, 0.9440109592939969, 0.04938557118435286, 0.9987797882210048, 0.5527450129011365, 0.8333504369189005, 0.9639478799327797, 0.2660911211842652, 0.9019767554966163, -0.4317845904427315, 0.7433090686224286, -0.6689481508335736, 0.640264326335508, -0.7681546669923565, 0.397251463024648, -0.9177097989695745, -0.30247302420555394, -0.953157945792798, -0.8537222970033523, -0.5207285661448965, 0.9960297564610563, 0.08902092026107576, 0.9279958379453109, 0.372590559134528, 0.7810448247122219, 0.6244749649027209, 0.7027625086948331, 0.7114245261255367, 0.6599416786332956, 0.7513168311722214, 0.5676734829712179, 0.8232537984918906, 0.30602698719142624, 0.9520228374942161, 0.01835584803853267, 0.999831517228171, -0.3405184571452661, 0.9402378317975764, -0.3405184571452661, 0.9402378317975764, -0.3405184571452661, 0.9402378317975764, -0.3405184571452661, 0.9402378317975764, -0.3405184571452661, 0.9402378317975764, -0.3405184571452661, 0.9402378317975764, -0.3405184571452661, 0.9402378317975764, -0.3405184571452661, 0.9402378317975764, 0.6793799657672129, -0.7337866598093349, 0.30426151571530624, -0.9525885418451265, -0.12823704009856388, -0.9917435462591926, -0.2990460789145414, -0.9542386717618595, -0.38133840825182275, -0.9244355133766585, -0.5365516142276077, -0.8438675045703256, -0.8436789307478372, -0.5368480807567315, -0.9916984279250898, -0.12858548927039007, -0.8800790702536402, -0.4748271581338711, -0.33877477450085797, -0.9408674997904289, 0.37537374619567865, -0.9268735354227254, 0.6264307515608956, -0.7794770769553467, 0.7332222327911773, -0.6799890861923599, 0.8980051023659604, -0.43998504079650363, 0.9624707165837275, 0.27138555547192655, 0.535879978438538, 0.8442941719026089, 0.9960297564610563, 0.08902092026107576, 0.9279958379453109, 0.372590559134528, 0.7810448247122219, 0.6244749649027209, 0.7027625086948331, 0.7114245261255367, 0.6599416786332956, 0.7513168311722214, 0.5676734829712179, 0.8232537984918906, 0.30602698719142624, 0.9520228374942161, 0.01835584803853267, 0.999831517228171, 0.535879978438538, 0.8442941719026089, 0.9624707165837275, 0.27138555547192655, 0.8980051023659604, -0.43998504079650363, 0.7332222327911773, -0.6799890861923599, 0.6264307515608956, -0.7794770769553467, 0.37537374619567865, -0.9268735354227254, -0.33877477450085797, -0.9408674997904289, -0.8800790702536402, -0.4748271581338711, 0.9958694691330073, 0.09079647817367192, 0.9251237165990231, 0.3796657859038794, 0.7725503657112424, 0.6349534884063759, 0.6914127435555729, 0.7224599767799982, 0.6470737067922256, 0.7624274509605283, 0.5516445962514946, 0.8340792764638896, 0.2819456203846583, 0.9594303868160056, -0.01269156922429536, 0.9999194587918694, -0.3763315341547808, 0.9264850653953949, -0.3763315341547808, 0.9264850653953949, -0.3763315341547808, 0.9264850653953949, -0.3763315341547808, 0.9264850653953949, -0.3763315341547808, 0.9264850653953949, -0.3763315341547808, 0.9264850653953949, -0.3763315341547808, 0.9264850653953949, -0.3763315341547808, 0.9264850653953949, 0.6671972571231635, -0.7448810778153298, 0.28013086441043433, -0.959961821534931, -0.1618636214436782, -0.9868131373533379, -0.33460177275500824, -0.9423596201393637, -0.4173111258803061, -0.9087636789707825, -0.5721198691940687, -0.8201700160779848, -0.8701947850899111, -0.49270786070685274, -0.9976418042448453, -0.06863548953048867, -0.9039701974760883, -0.4275954654519174, -0.3745789079690302, -0.9271950397325952, 0.3532848408841138, -0.9355158048913371, 0.6123969915944969, -0.7905503935145499, 0.7229714143660065, -0.6908779443647163, 0.8939588955813926, -0.4481489629697883, 0.9609644740626548, 0.2766717903753204, 0.5187983441165906, 0.8548966476375279, 0.9958694691330073, 0.09079647817367192, 0.9251237165990231, 0.3796657859038794, 0.7725503657112424, 0.6349534884063759, 0.6914127435555729, 0.7224599767799982, 