{"fixed_weights": [-0.14433756729740782, 0.0, -0.14433756729740646, 0.0, -0.14433756729740646, 0.0, -0.14433756729740646, 0.0, -0.14433756729740646, 0.0, -0.14433756729740646, 0.0, -0.14433756729740646, 0.0, -0.14433756729740646, 0.0, -0.14433756729740646, 0.0, -0.14433756729740646, 0.0, -0.14433756729740646, 0.0, -0.14433756729740646, 0.0, -0.14433756729740646, 0.0, -0.14433756729740646, 0.0, -0.14433756729740646, 0.0, -0.14433756729740646, 0.0, -0.14433756729740646, 0.0, -0.14433756729740646, 0.0, -0.14433756729740646, 0.0, -0.14433756729740646, 0.0, -0.14433756729740646, 0.0, -0.14433756729740646, 0.0, -0.14433756729740646, 0.0, -0.14433756729740646, 0.0, -0.14433756729740646, 0.0, -0.14433756729740646, 0.0, -0.14433756729740646, 0.0, -0.14433756729740646, 0.0, -0.14433756729740646, 0.0, -0.14433756729740646, 0.0, -0.14433756729740646, 0.0, -0.14433756729740646, 0.0, -0.14433756729740646, 0.0, -0.14433756729740646, 0.0, -0.14433756729740646, 0.0, -0.14433756729740646, 0.0, -0.14433756729740646, 0.0, -0.14433756729740646, 0.0, -0.14433756729740646, 0.0, -0.14433756729740646, 0.0, -0.14433756729740646, 0.0, -0.14433756729740646, 0.0, -0.14433756729740646, 0.0, -0.14433756729740646, 0.0, -0.14433756729740646, 0.0, -0.14433756729740646, 0.0, -0.14433756729740646, 0.0, -0.14433756729740646, 0.0, -0.14432698165953656, 9.846589693016344e-05, -0.14433181473019446, 0.0008648609886808877, -0.14432914177872463, 0.0016312709900302732, -0.14432597090628005, 0.0019378225380570528, -0.14432393512362304, 0.002091093268388036, -0.14431896290183574, 0.002397621672713831, -0.144301279009421, 0.003163838813479557, -0.14427609182445245, 0.003929848203301062, -0.14424683264718144, 0.004951351940079106, -0.14425303016136423, 0.005002744706891953, -0.1442556537176075, 0.0050540223202294185, -0.14425570240831248, 0.005074500281201814, -0.14425551231139583, 0.005084732052097952, -0.14425470323683182, 0.005105181024719181, -0.14425017881422666, 0.005156217070621044, -0.14424208071924247, 0.005207126714120339, -0.14430980346871694, -0.002266295742018056, -0.14429661272327698, -0.003391801856502021, -0.14427211178882568, -0.004517158147680413, -0.14425914498352108, -0.004967230555918158, -0.14425198315092658, -0.00519224771482278, -0.14423630276943286, -0.005642238915385143, -0.1441891892545362, -0.006766918491204483, -0.14413077631845264, -0.00789107125676681, -0.14417472410796978, -0.006934018358278427, -0.14425198283389518, -0.005043560384619381, -0.14430343333929616, -0.003152244577985013, -0.14431678499698436, -0.0023955596116878547, -0.14432191164128558, -0.002017194785952252, -0.1443290664028547, -0.0012604350164110959, -0.1443288780759639, 0.0006315041312335261, -0.14430286968342987, 0.0025232086832221107, -0.1443247116667409, 0.00016240992997060616, -0.14432804028640456, 0.0009799489445539676, -0.14432413999274066, 0.0017974980195016653, -0.14432055579095415, 0.0021245049144147624, -0.1443183299741698, 0.002288003411257787, -0.14431301094366003, 0.0026149877267571666, -0.1442946540101869, 0.0034323486431835164, -0.14426907077636694, 0.0042495113581859385, -0.1443019720414129, 0.002842969828658395, -0.14433151247892967, 0.0009001028589979385, -0.14433394188824794, -0.0010430343166749766, -0.1443273220135732, -0.0018202775989140491, -0.14432238533706945, -0.0022088842927661285, -0.14430925867089728, -0.002986052206389678, -0.14425746695599145, -0.004928561331113788, -0.1441785765994553, -0.006870172310553612, -0.1442952198954085, 0.00019653644699531788, -0.14431455472034632, 0.0017292327389570384, -0.1443038671954859, 0.0032620483998831687, -0.14429118583658468, 0.0038750750728252644, -0.14428304405427098, 0.004181548067052764, -0.14426315886614732, 0.0047943896238780625, -0.14419244428732508, 0.006325662765390936, -0.14409175101694882, 0.00785527463396239, -0.14397478112395162, 0.009895522326922769, -0.1439995231206507, 0.009999700777523497, -0.14400999300684722, 0.010102958607374929, -0.14401018439430358, 0.010143997205185907, -0.14400942368499606, 0.010164458856115038, -0.14400618952122013, 0.010205265663046591, -0.1439881141864682, 0.010306591971239247, -0.14395577130877435, 0.010406907748163373, -0.1442265128253506, -0.004531538591456868, -0.14417374740827935, -0.00678203728085103, -0.14407575131169692, -0.009031337297315398, -0.14402389502558277, -0.009930496473257826, -0.1439952559441156, -0.010379923727756913, -0.14393255820116824, -0.011278433398127253, -0.1437442254933671, -0.013522321356665357, -0.14351083432479078, -0.015761998546891205, -0.14368647632452825, -0.013853653599038474, -0.1439952838431104, -0.010082000656503175, -0.1442010271186403, -0.006303488304579042, -0.14425443056778378, -0.004790814398186672, -0.14427493737920688, -0.004034298700561519, -0.14430355864832484, -0.002521026335579521, -0.14430281525141722, 0.001262472551783827, -0.14419881811413415, 0.00504409524710397, -0.14428614383838528, 0.00032438558701397926, -0.14429946180102146, 0.001959270788928434, -0.144283866079956, 0.003594236557084873, -0.14426953214226407, 0.004248121011947331, -0.14426063065478065, 0.004575023642115787, -0.14423935919989253, 0.005228727497365007, -0.144165955094016, 0.00686218837302928, -0.1440636790981409, 0.008494064348575114, -0.14419522603359108, 0.0056836685671250095, -0.14431335256415412, 0.0017997090792382174, -0.14432305951371627, -0.002086411499761511, -0.14429657600530266, -0.0036407669423237045, -0.14427682783749077, -0.0044178250667912325, -0.14422432131771665, -0.005971577499558574, -0.14401720404711174, -0.009852673664133508, -0.1437018653588879, -0.013726587896869496, -0.14424226745229238, 0.0002938162534208322, -0.14428578034192685, 0.002592625346452297, -0.14426174947721968, 0.00489183782838901, -0.1442332244156488, 0.0058111868615064125, -0.14421491046373852, 0.006270725263604843, -0.1441701826642856, 0.007189449718295873, -0.14401115355996597, 0.009483458252165363, -0.1437848015951029, 0.011771864120215452, -0.14352186973109665, 0.014825342962017244, -0.14357735916692074, 0.014985087130736813, -0.14360082521500617, 0.015141727616845676, -0.14360124319042064, 0.015203491800077953, -0.14359953039041282, 0.015234179491397808, -0.1435922615232277, 0.015295162032269532, -0.14355167579741973, 0.015445289355584578, -0.14347908979528273, 0.015592010003097916, -0.14408769791139658, -0.006794674822116288, -0.1439689666074946, -0.010169137865684939, -0.14374850410287085, -0.013539554902290415, -0.1436318685034919, -0.0148858291121707, -0.14356746152483021, -0.015558452250667414, -0.14342648083319512, -0.016902535256490773, -0.1430031873493868, -0.020254695967568185, -0.14247903396140704, -0.02359266622036439, -0.14287366914977825, -0.02074454012282846, -0.14356763357079677, -0.01511020086818893, -0.14403033559567477, -0.009452729413062686, -0.14415048141695952, -0.007185459104851937, -0.1441966226202531, -0.0060512206673184275, -0.1442610288147236, -0.0037819303777614356, -0.14425939334979296, 0.0018923695502388496, -0.14402553636596727, 0.007560340554076408, -0.14422186100147386, 0.0004854927968564243, -0.14425183948100334, 0.002937338168153673, -0.1442167695668274, 0.00538945591936879, -0.14418452896975764, 0.006369959426302148, -0.144164507297147, 0.006860077582025987, -0.14411666402446194, 0.007839971766097588, -0.14395159336364347, 0.010287012618424195, -0.1437216857717121, 0.012728708431900429, -0.14401744852420878, 0.008519827740574018, -0.14428310118440066, 0.0026983217825210307, -0.14430490172259475, -0.0031304747250785725, -0.1442452987870533, -0.0054616796878558405, -0.1442008599279599, -0.006626878424922912, -0.14408272081075618, -0.00895604788720359, -0.1436168929764406, -0.01476788695832146, -0.1429082160390234, -0.020555505181633835, -0.14416810007169617, 0.00038990982035275325, -0.14424548004735216, 0.0034545475742462904, -0.14420279854351734, 0.006520143231222257, -0.14415210724330632, 0.007745585681417125, -0.14411956170402113, 0.008357984399717909, -0.14404008015577618, 0.009581946993551901, -0.14375755755297714, 0.0126352141875477, -0.143355671046414, 0.015675214686015727, -0.14288885921136552, 0.01973367233608251, -0.14298705958428154, 0.019953137792947852, -0.14302855030499326, 0.02016525768544392, -0.14302926193899232, 0.02024799387022563, -0.14302621397219872, 0.020288901697958498, -0.14301331144484744, 0.020369787262813632, -0.14294136734557283, 0.020566487526154968, -0.1428127865850761, 0.020755125527143804, -0.14389336302030323, -0.009054649040159547, -0.1436822625225533, -0.013551531250938538, -0.14329040086078965, -0.018038821317736167, -0.14308315097995827, -0.01982925183202704, -0.14296872680646686, -0.020723249326889976, -0.14271831671223734, -0.022508488790658983, -0.14196692782541298, -0.026952535721932267, -0.14103752901993996, -0.0313630152927527, -0.14173771074829863, -0.02759234737166931, -0.14296930424827875, -0.020123041404233825, -0.14379133703481145, -0.012598964304239854, -0.1440048998595807, -0.009579187617283188, -0.14408693084694355, -0.008067869199100658, -0.1442014515152861, -0.005043303798814205, -0.1441986366034219, 0.0025206594135334394, -0.14378323059482115, 0.010069631428945734, -0.14413185846523946, 0.000645297582957059, -0.1441851860488288, 0.003913523186931304, -0.144122890480115, 0.007182395988756776, -0.1440656006589065, 0.008489131191218274, -0.1440300231876371, 0.00914218225914512, -0.14394501203448623, 0.010447473807416995, -0.14365177343798272, 0.013704319491879226, -0.143243579493229, 0.01694850871627685, -0.14376883816300318, 0.011349184104522334, -0.14424078108973773, 0.0035954436112892833, -0.14427943772930432, -0.004175567788239791, -0.14417343949875028, -0.007283227319286032, -0.14409442344053025, -0.008836099712361984, -0.14388439975096687, -0.011938933216746004, -0.14305672461877678, -0.019669749089062036, -0.14179893242331187, -0.02734321289075169, -0.1440726837833769, 0.0004844215051703076, -0.14419363766075635, 0.004314506185097293, -0.14412702835963817, 0.00814646609639115, -0.1440478632734258, 0.009677697087876901, -0.14399703619686507, 0.010442683026645076, -0.14387291569029065, 0.011971025246592168, -0.1434318673051153, 0.015778923264541826, -0.14280495705657004, 0.019560944133856322, -0.14207681265361408, 0.02461340892317933, -0.1422293533961929, 0.024898109445360278, -0.1422937279719509, 0.02516849153309068, -0.1422947768650069, 0.025272526398159842, -0.1422900084330251, 0.025323646221346648, -0.14226988818817643, 0.025424072019271556, -0.14215789343363494, 0.02566438526185291, -0.14195791054825166, 0.02588898405229235, -0.14364351427490812, -0.011310403349303704, -0.14331362446684529, -0.016927639141777584, -0.14270148520216266, -0.02252613624863396, -0.1423778631461638, -0.024756775995464397, -0.14219923051981373, -0.02586971875693007, -0.1418084116610974, -0.028090227064031977, -0.14063664275637835, -0.033604343140563694, -0.13918933350913254, -0.03905307185871434, -0.14028057148591064, -0.034382797363143744, -0.14220067732541172, -0.025115403150911084, -0.143484001000612, -0.01574118662563939, -0.14381763307317252, -0.011971692529327784, -0.14394581086611483, -0.010084152192163298, -0.1441247911630057, -0.0063053036095091835, -0.14412057898439423, 0.0031468064256275443, -0.14347218912872897, 0.0125696636371583, -0.1440161296499299, 0.0008033662664388506, -0.14409951929396478, 0.00488719715259512, -0.14400228488631286, 0.008972296008094242, -0.1439128233944916, 0.010604747187634364, -0.14385726697599358, 0.011420354907185164, -0.14372452453578802, 0.0130499881244179, -0.14326678163175735, 0.01711161412927994, -0.14263004341830385, 0.021148553756705466, -0.14344967284807061, 0.01416948225902024, -0.14418642419582914, 0.004490576487758976, -0.14424662436337796, -0.005222035417005742, -0.1440809268292682, -0.009105621059326526, -0.14395743683462633, -0.011045543135772997, -0.14362927773642417, -0.014919700089903376, -0.1423369666163605, -0.02455380480944356, -0.14037583913122315, -0.03407604522838054, -0.14395597489681974, 0.0005769554730284782, -0.14413023236851227, 0.0051720052718559105, -0.1440344570144433, 0.00977030461619689, -0.1439205299282581, 0.01160694366948346, -0.14384738356301632, 0.012524176038910265, -0.14366877225431493, 0.014355826620529201, -0.14303435419114668, 0.01891258322130529, -0.14213342671303975, 0.023424696609514527, -0.14108709354436716, 0.02945750441424365, -0.14130517659088165, 0.029814288963305898, -0.14139707738922977, 0.030146391077817497, -0.14139847710059905, 0.03027212996320918, -0.14139160007267873, 0.030333451174999127, -0.14136269717332847, 0.030452965038808247, -0.14120215899214686, 0.03073320864951609, -0.14091580732116604, 0.030986365486296314, -0.14333815973964564, -0.013560876514806775, -0.14286303909775086, -0.020295875319668765, -0.14198181430359452, -0.02699848519466739, -0.14151616172839618, -0.029664396977886757, -0.1412592042684469, -0.030993248036273863, -0.1406972126391865, -0.033641668205152055, -0.13901387243857466, -0.04019863306232645, -0.13693832034437287, -0.046642975602278584, -0.13850478286324763, -0.041101682240524684, -0.14126224379736807, -0.03008216767034202, -0.14310828835204134, -0.018878386345218066, -0.14358861303373055, -0.014362664708529115, -0.1437731967397731, -0.012099976719280793, -0.14403100192472737, -0.007568087296670903, -0.14402526425145265, 0.0037702748655689517, -0.1430927821776039, 0.015058144859535562, -0.14387466607389882, 0.0009592655673002939, -0.14399486205063639, 0.005857730305812864, -0.14385502492079316, 0.010758394361429424, -0.14372629520598534, 0.012715918087417555, -0.1436463527244788, 0.013693613029250677, -0.1434553575651447, 0.01564627085528754, -0.1427969858041115, 0.02050641102716982, -0.14188195414430982, 0.025323963325572643, -0.14306030951422527, 0.016978477261644222, -0.14412007164961632, 0.005383221371596902, -0.1442064059983288, -0.006270223586597364, -0.1439676689087875, -0.010929071782065652, -0.14378979509099496, -0.013255261379899227, -0.14331725131875844, -0.017897810770878236, -0.1414579637971223, -0.029415594716058698, -0.13864128093851621, -0.04074039708006473, -0.14381791999002663, 0.0006671156543841749, -0.1440552387067096, 0.006026545585459234, -0.14392510682074008, 0.011391152854465292, -0.14377015324579975, 0.013532744299888558, -0.14367066478881696, 0.014601815005553761, -0.14342775166019697, 0.01673549119174481, -0.14256534995129244, 0.022034198112316838, -0.14134201548169564, 0.027262149142697673, -0.13992136326633228, 0.034258976869925566, -0.14021567112502004, 0.034696000945113506, -0.14033947688021192, 0.0350939422685003, -0.14034120445760506, 0.03524186718237509, -0.14033182727918708, 0.03531337642594881, -0.14029260010232059, 0.03545143769277739, -0.14007526853669822, 0.03576721792062492, -0.13968811712562232, 0.03604011234527734, -0.14297730956509358, -0.01580500312583059, -0.14233049071683332, -0.023654643644288337, -0.14113145973045357, -0.03145283589084933, -0.1404982406583582, -0.034548090184437566, -0.1401489338904714, -0.036089204309608325, -0.1393852694962552, -0.039156711750835335, -0.13710050372186583, -0.04672393597229408, -0.1342892196471967, -0.05411300843594906, -0.13641343614199078, -0.047734881844311294, -0.1401546046259131, -0.0350182173805571, -0.14266415123488888, -0.02200954881768305, -0.1433177564328505, -0.016751792858140255, -0.14356900769552694, -0.014115248821745406, -0.1439200276615853, -0.008831812946766989, -0.14391274601037313, 0.004390529004704306, -0.14264546145998208, 0.01753279766227238, -0.14370745733667162, 0.0011125627073355281, -0.14387124216891486, 0.0068244915482559955, -0.14368119882543734, 0.012539928349547159, -0.14350613602626758, 0.014821754292484494, -0.14339741997151573, 0.015960974457635984, -0.14313770194517098, 0.018235080177107205, -0.1422428351644872, 0.02388623637675198, -0.14100038040375018, 0.029469896144505573, -0.1426011838607397, 0.01977393723885623, -0.1440417739139285, 0.006272878015621187, -0.14415871445950681, -0.007320479838982929, -0.14383355316949623, -0.012753789924933938, -0.14359136957449234, -0.01546530522082221, -0.14294819394668012, -0.02087272208597578, -0.1404201387134715, -0.03425065422041714, -0.13659812189990658, -0.04732273925332106, -0.14365845589542803, 0.000754505706271441, -0.14396862654533304, 0.0068776238598911195, -0.14379900443814103, 0.013008499907837251, -0.14359678806043408, 0.015454513385173299, -0.1434669524304647, 0.016674947498300525, -0.14314997477792984, 0.019109156557359508, -0.1420252467272529, 0.0251417795861433, -0.1404318259569085, 0.031069018157540765, -0.13858157804660806, 0.03901092377266579, -0.13896218370534366, 0.03953761522792713, -0.13912196351479014, 0.0400061599398548, -0.13912395314683731, 0.04017682717912145, -0.13911168027065998, 0.040258508009816805, -0.13906061466742248, 0.040414488577418944, -0.13877852525744858, 0.04076071429445683, -0.13827677210607722, 0.04104314211209399, -0.14256097616507057, -0.018041712755736645, -0.1417159616392108, -0.027002336043961076, -0.1401505084559351, -0.035886134743049074, -0.13932433251064494, -0.0394038070766468, -0.13886876113021926, -0.04115293034597095, -0.1378732371226787, -0.04462923504140565, -0.13489877256291005, -0.05316880149673517, -0.13124761664297455, -0.06144362330052602, -0.13401018066178058, -0.05426838131056255, -0.13887847125601627, -0.03991843574299591, -0.14215153307220732, -0.025133653841513875, -0.1430049645755182, -0.019138763074804922, -0.14333314801609687, -0.016129873299920914, -0.14379180185537474, -0.010096639372591117, -0.14378308778790463, 0.0050070331027697815, -0.142130759746731, 0.019991362460958662, -0.14351449109773134, 0.0012628255151970011, -0.14372869247887154, 0.007786848166452488, -0.1434809109948746, 0.01431613395892383, -0.1432524877639568, 0.016921365868124413, -0.14311063381016725, 0.01822145740854065, -0.14277178335225862, 0.02081517670631485, -0.14160486003616654, 0.027248630393804967, -0.13998658147009263, 0.03358155756797476, -0.14207281001836347, 0.022553645995264195, -0.14395159087114215, 0.007159044718966188, -0.14410346891041773, -0.00837315360717247, -0.14367844617395184, -0.014579985400064293, -0.14336200786504924, -0.017675723134981627, -0.14252195589625288, -0.02384388431241138, -0.13922399230241203, -0.03905451252735355, -0.13424974427158648, -0.053809633765014006, -0.14347750968267603, 0.0008387289781041691, -0.1438703610688201, 0.007724732133487338, -0.1436561810185635, 0.01462182905988208, -0.14340049821716636, 0.017371660105904334, -0.1432363308563207, 0.018742916416005916, -0.14283558181010775, 0.02147595742313408, -0.14141449710483406, 0.028233348171139372, -0.13940412638565824, 0.03484106594689594, -0.13706998535793963, 0.04370653495801537, -0.13754626434780973, 0.0443335543879215, -0.1377457326290372, 0.044878092694269664, -0.13774786944241513, 0.04507213008579177, -0.13773230078610554, 0.045163962581070395, -0.13766791420210908, 0.04533714813955241, -0.13731342993937307, 0.04570804682894123, -0.13668399318647415, 0.04598845950560687, -0.14208917442654392, -0.02026992911984688, -0.14101943263360905, -0.03033733049230873, -0.1390390640739464, -0.04029530325766699, -0.13799471021166537, -0.04422747121117583, -0.13741908562432242, -0.04617974053963074, -0.13616187800038265, -0.05005308967932623, -0.1324112670369278, -0.05952180209937349, -0.12781994914231998, -0.06861547315732348, -0.13129922184535628, -0.06068828870144036, -0.13743466622883743, -0.044777707458971826, -0.14157036855258645, -0.02824967470471093, -0.1426501232579883, -0.021523258400978604, -0.14306550690727418, -0.018143753502038302, -0.14364624752034513, -0.011362726243700024, -0.14363636311935082, 0.00561925140255639, -0.1415492903216839, 0.022431600477349184, -0.1432957530507042, 0.0014096225340382716, -0.14356725074748644, 0.008744165551018491, -0.1432542820314735, 0.01608624562271975, -0.14296551438969843, 0.019013862469307502, -0.1427861849818753, 0.020474080530638646, -0.14235786239809428, 0.023385323895136256, -0.14088367157796527, 0.030591149643719225, -0.13884200527777166, 0.037654207209068126, -0.14147578015550402, 0.025315405620280108, -0.14384959194603922, 0.00804121807710885, -0.14404057571684892, -0.009428596545580885, -0.1435021934102507, -0.016407867504903275, -0.1431015335559964, -0.01988656090303936, -0.1420383641874818, -0.026810740054001633, -0.13787010466795618, -0.04382269162179872, -0.13160004723047913, -0.06018774918483937, -0.14327499863801688, 0.0009193884827978017, -0.14376040275260618, 0.008567357065954235, -0.14349667237450967, 0.016230616926770546, -0.1431813568198191, 0.019283587652930076, -0.142978896527715, 0.020805059304716506, -0.1424847326105675, 0.02383502519186372, -0.1407336141632042, 0.03130693457042205, -0.13826034896631, 0.038574107104340616, -0.13538911977698828, 0.0483391054052962, -0.1359696647138118, 0.049078301222397536, -0.13621213726630524, 0.04970482781512199, -0.13621425128916037, 0.04992293158543842, -0.13619498172313838, 0.05002489190459733, -0.13611582727239696, 0.050214483343234084, -0.13568167971135517, 0.0506036192804491, -0.13491228644860875, 0.05086916864596914, -0.14156192195265124, -0.02248856923017398, -0.14024088343487892, -0.033657988968774435, -0.13779724821012265, -0.044677234464853076, -0.1365096890250777, -0.04901497429335462, -0.13580036720738892, -0.051164916941842976, -0.1342520651592252, -0.05542209806300528, -0.1296409308050001, -0.06577153701394572, -0.12401350458902831, -0.07560944020418822, -0.12828531888901365, -0.06698085267339537, -0.13582412389232054, -0.04959091867664052, -0.14092058361602972, -0.03135657721722797, -0.14225310262506152, -0.023904958371123605, -0.14276595834356778, -0.020156791110900813, -0.14348327709979128, -0.012630234221284118, -0.14347265564989173, 0.006226648122803833, -0.1409017463591601, 0.02485129668756818, -0.14305122689255687, 0.0015525231321760803, -0.14338695962792872, 0.009695806910437305, -0.14300144880925522, 0.017849495972383233, -0.14264540203681236, 0.021098353258725003, -0.14242428998595716, 0.02271786294640567, -0.1418962347253769, 0.02594428842327463, -0.14007996146465984, 0.03391136936086889, -0.13756828625837939, 0.041683166497900465, -0.14081076402343787, 0.028057039091623843, -0.14373585624803514, 0.008918892728098732, -0.14396992828800695, -0.010487162867553756, -0.1433046190529753, -0.01823764483191694, -0.14280974601876043, -0.022097861207631873, -0.1414972224866904, -0.02977272310134969, -0.13635913598699426, -0.04855070526525955, -0.12865344538653534, -0.06644387604421, -0.14305083023988865, 0.000996086874024789, -0.14363870733519085, 0.009404979250462535, -0.14332051917028196, 0.017834332593212637, -0.14293944651361384, 0.021189692455949025, -0.14269475831877124, 0.022860707672661695, -0.1420976070473123, 0.026185487552317713, -0.13998317153081827, 0.034360580967466664, -0.13700208792282348, 0.04226401490780936, -0.13354179830419996, 0.052902047867800284, -0.1342343362228862, 0.053766406211273675, -0.13452268753770777, 0.05448149621629512, -0.13452454785074044, 0.05472442749892867, -0.134501166720155, 0.05483648739472403, -0.13440583720598298, 0.05504160238340706, -0.13388516662196115, 0.055441896973729296, -0.13296443903425323, 0.05567848510106741, -0.1409792393391925, -0.024696542546581438, -0.13938029333106802, -0.03696265540066646, -0.136425202135979, -0.04902878933483732, -0.13486962881961365, -0.053762172248522026, -0.13401312854333244, -0.05610370532901735, -0.13214478554437514, -0.06073005000811655, -0.1265910670332875, -0.07190663644875865, -0.11983641665458283, -0.08240666534640056, -0.12497378213499975, -0.07313248018845842, -0.13404789121082827, -0.05435295721003505, -0.14020209543716228, -0.03445331872797411, -0.14181375700594862, -0.026283538550673998, -0.14243436089064482, -0.022168885928152426, -0.14330279234670737, -0.013899325098182971, -0.14329205924975963, 0.006828687448916848, -0.1401889002183485, 0.02724826276037797, -0.14278089428734614, 0.0016910976172226587, -0.14318786660076233, 0.010641132978533613, -0.14272256454692128, 0.019605115578400882, -0.14229235911676866, 0.023173946815274488, -0.14202519120543963, 0.024951824285081563, -0.14138723111845428, 0.0284908405841356, -0.13919450152682775, 0.037206885761554086, -0.13616724289538815, 0.045663826163175936, -0.14007850844042413, 0.03077639287506962, -0.14361047273297786, 0.009791561094270715, -0.14389140689372532, -0.011549209691187171, -0.14308552568870556, -0.02006952517721703, -0.14248642013276833, -0.024309663224006295, -0.14089831099406655, -0.03272925727403639, -0.1346918275399715, -0.053234058003328366, -0.1254148670838094, -0.07256494231980898, -0.142804902130331, 0.0010684264304398072, -0.14350522578517955, 0.010237072520164989, -0.1431277671363024, 0.019432436737327, -0.14267485980261274, 0.023089363403851267, -0.1423840378758369, 0.02490918629946767, -0.14167440541039314, 0.028526468068768938, -0.1391638034480569, 0.03739234234368163, -0.13563109735527917, 0.04590672764873859, -0.13153111515047947, 0.057388905322849036, -0.13234242794125728, 0.05839249495553482, -0.13267904989962703, 0.05920327743270888, -0.132680358995893, 0.059471858423286006, -0.13265244968019155, 0.059593984707895856, -0.1325395815562274, 0.05981365945264333, -0.13192597603943174, 0.06021741368317821, -0.13084351457358367, 0.06040974779923234, -0.14034115048499637, -0.02689275012379008, -0.13843764182743826, -0.04024965358434314, -0.13492308859191668, -0.05334679318714226, -0.13307493662597772, -0.058464881314546614, -0.13205795808922638, -0.06099131131330125, -0.1298411438009431, -0.06597069946942473, -0.12326534275990685, -0.0779157660997189, -0.11529766135644116, -0.0889885779531483, -0.12137047012198576, -0.07912975427412287, -0.13210712867545799, -0.059058712771744806, -0.1394148124054467, -0.037538847124172305, -0.1413319247277723, -0.02865867006671097, -0.14207055750352046, -0.024179935655737186, -0.14310468418764327, -0.015170161944783805, -0.14309467814339671, 0.007424833521039035, -0.1394116026545421, 0.02962033998408844, -0.14248473482398646, 0.0018249173541458094, -0.14297002390655172, 0.011579501714756066, -0.14241779889021114, 0.021352332678672217, -0.1419066164500244, 0.025239751031655558, -0.14158915704989158, 0.027174984706103578, -0.14083121762970724, 0.031023754664842043, -0.1382281433508816, 0.04047531834976206, -0.1346408750000728, 0.049591653627477514, -0.13927983671459188, 0.03347133951976828, -0.143473540384743, 0.010658713118642579, -0.14380487845664552, -0.012615097394616945, -0.1428446940046825, -0.021903715447912007, -0.1421313059792066, -0.026522002202477468, -0.1402413863156561, -0.03567975524220988, -0.13286900286793005, -0.05786824418550681, -0.12188975248547478, -0.07853802900103818, -0.142537102081702, 0.0011360090477361738, -0.1433599042626621, 0.011063103248473793, -0.14291846730670696, 0.021024380743064917, -0.1423876994025437, 0.02498198105579647, -0.1420468700171693, 0.026949812538854673, -0.14121534886550216, 0.030857085771146747, -0.13827620483663378, 0.040400287809328764, -0.1341492888677315, 0.049498254900593716, -0.12936043599649516, 0.06179336322217632, -0.13029628424547435, 0.06295127559024921, -0.1306830463455721, 0.0638654046567711, -0.1306834347197099, 0.06416051442732862, -0.13065057423330642, 0.06429266839533677, -0.13051885149763245, 0.06452585956715454, -0.12980638487313023, 0.06492477852659972, -0.1285528481427895, 0.06505643079333648, -0.13964768293661467, -0.0290760837535934, -0.13741290939014197, -0.04351728508313378, -0.13329109382552445, -0.05762803209267599, -0.1311260694903334, -0.0631188741593235, -0.1299355133993838, -0.06582289650210256, -0.12734236648282776, -0.0711377613768429, -0.11966779370448043, -0.08378763200917407, -0.1104070526744299, -0.09533692592980635, -0.11748178630927199, -0.0849594518373263, -0.1300031113168873, -0.06370307722082984, -0.13855863410202746, -0.04061209981075139, -0.14080742790561662, -0.03103001912922695, -0.14167437529929583, -0.026189835674146778, -0.14288883256876755, -0.016442909261572474, -0.14288062705273707, 0.008014550418947265, -0.1385707819472402, 0.031965402180621307, -0.14216272596741283, 0.001953554887722208, -0.1427334884692626, 0.012510267996345156, -0.14208733800382478, 0.02309037289292545, -0.14148842741281673, 0.02729487299968714, -0.14111648211599598, 0.02938636491180069, -0.14022859572261107, 0.03354180931926688, -0.1371818178401817, 0.04371431221501359, -0.1329913607116297, 0.05346220030692303, -0.13841564800548656, 0.03613978024840734, -0.143325168416873, 0.01151983599511088, -0.14371019631809717, -0.013685189982001278, -0.14258188243899733, -0.023740421567960326, -0.14174412849707885, -0.028734909041573598, -0.13952618131896857, -0.03862361732482753, -0.13089156905768254, -0.062448746998585394, -0.11808405143736804, -0.08435038575054316, -0.14224730795814164, 0.0011984362394307049, -0.1432026840741924, 0.011882529642420965, -0.14269267628038956, 0.022609605798761114, -0.1420780786295799, 0.026866916841948855, -0.14168340317359407, 0.02898189561404347, -0.14072067995411272, 0.033176454745830995, -0.13732113137584098, 0.043382501949162926, -0.1325587289745317, 0.05303468372062426, -0.12703339173107017, 0.06610926152325207, -0.12809844226029551, 0.06743754616981545, -0.12853665350938318, 0.06846316982576657, -0.12853567449658726, 0.06878573981078052, -0.12849743313394812, 0.06892787662211408, -0.1283455911490737, 0.06917346345833271, -0.1275288596133881, 0.06955868287258296, -0.12609604075408437, 0.06961215486140067, -0.13889886826785383, -0.031245425101572667, -0.13630607827260388, -0.046763827099553, -0.13152942985236799, -0.061869249268960376, -0.12902353763272784, -0.06771987602750948, -0.12764652477820573, -0.07059357471366387, -0.1246498066934412, -0.07622490860027321, -0.11580282951458572, -0.08951098580886052, -0.10517523763663116, -0.10143380613572223, -0.11331467546988477, -0.09060856153806249, -0.12773722982282074, -0.06828094482757902, -0.13763345127276597, -0.043672002667323524, -0.1402400722078768, -0.03339724654178724, -0.14124562530307078, -0.028198478817023316, -0.14265510628299735, -0.01771773313914758, -0.14265003135476884, 0.008597302143142383, -0.13766744294516717, 0.03428135860516705, -0.14181484300243097, 0.002076584069868142, -0.1424783218097635, 0.0134327833014286, -0.14173138467316168, 0.02481845892152585, -0.14103806810057254, 0.029338418881902997, -0.14060748736669004, 0.031584986148092055, -0.13957980243251666, 0.036043787933288725, -0.13605653473822069, 0.046921540321585686, -0.13122105322482713, 0.05727110880590813, -0.13748691662418405, 0.038779647541395096, -0.1431654764945347, 0.012374413891459086, -0.1436071999762219, -0.01475985546147407, -0.14229682679045286, -0.025579848382269222, -0.14132458709978918, -0.030948409850655244, -0.13875240497124441, -0.041560230261641254, -0.1287605181571134, -0.06697103751476634, -0.11400422110407572, -0.08998944666694686, -0.14193538767111782, 0.0012553091473072784, -0.14303350162052553, 0.012694801028407275, -0.1424504565056667, 0.024187541980325973, -0.1417461218256879, 0.028743532252739384, -0.14129379987091242, 0.03100473590505611, -0.14019066314108375, 0.03548368372708849, -0.13629939958571477, 0.046337086184176084, -0.13086163628640532, 0.05651218477867607, -0.12455387167574389, 0.07033060648234638, -0.12575162906987453, 0.07184620202316526, -0.12624200167643154, 0.07299192876532033, -0.12623912656106212, 0.0733429379331558, -0.12619506758936622, 0.07349500595915517, -0.12602189682062248, 0.07375179253617663, -0.12509605418638653, 0.07411390726259035, -0.1234769533816955, 0.07407069892883733, -0.13809474249470746, -0.03339964483753053, -0.1351171334280086, -0.049987530319329516, -0.12963833694723037, -0.066067141469037, -0.12676790791966322, -0.07226356092128348, -0.12519179929118893, -0.07529840825645664, -0.12176494916666686, -0.08122576905870081, -0.11167523944246269, -0.09507463038630197, -0.09961369084313203, -0.10726169517659451, -0.10887661974722747, -0.09606430172817057, -0.125310991762339, -0.07278721255672407, -0.13663914579696074, -0.04671746898014605, -0.13962964659549867, -0.035760007200309404, -0.14078410216547438, -0.03020575514163762, -0.14240336277689325, -0.018994801426543195, -0.14240302725354617, 0.009172552591422137, -0.1367026660283019, 0.03656615682980132, -0.141441058969444, 0.00219358019234348, -0.14220458994863874, 0.014346395382038434, -0.1413501584161462, 0.02653581022694676, -0.14055583750866227, 0.031369493767909554, -0.14006252032978359, 0.03376987019187186, -0.1388853105463049, 0.038528478981438734, -0.1348533821149897, 0.0500947057884221, -0.12933247724886252, 0.06101411999773972, -0.13649469127191124, 0.041388907714165826, -0.14299459497708944, 0.013221927664074614, -0.14349571479467849, -0.015839466236406204, -0.14198923978599465, -0.02742219955874221, -0.14087235525024375, -0.03316252550069621, -0.13791974215930589, -0.04448896595583031, -0.12647692872284289, -0.07143057375564942, -0.10965722337101412, -0.09544284615885848, -0.1416011991282946, 0.0013062285624981917, -0.1428522883361451, 0.013499357129631878, -0.1421918765887212, 0.025757607317528512, -0.14139196482119842, 0.030611178015468508, -0.14087823725489512, 0.03301762422704788, -0.13962558541072126, 0.0377778756891292, -0.1352118869172218, 0.04926216015083709, -0.12906037847772014, 0.05992701840686366, -0.12192601630322493, 0.07445158219032741, -0.12325875870119363, 0.07617224307670818, -0.12380137369910749, 0.07744710639419715, -0.12379598711235361, 0.07782757611884883, -0.12374566651470767, 0.0779895162548889, -0.12355001617937304, 0.07825623393105685, -0.12251080762040942, 0.07858532834881214, -0.12069970052777444, 0.07842601129747398, -0.13723534652631256, -0.035537601758762374, -0.13384606351166148, -0.05318661672471767, -0.12761808637456365, -0.0702183553649095, -0.12435980766089864, -0.07674554782049668, -0.12257222514434735, -0.0799324042808852, -0.11868941579708547, -0.0861339229900193, -0.10729019844438148, -0.10046742601514023, -0.09373470839292632, -0.11280348059982515, -0.10417563436944091, -0.10131413846086078, -0.12272602291969563, -0.07721678037072822, -0.13557559065117572, -0.049747398346300535, -0.13897592303351022, -0.038117949578586115, -0.14028958385005433, -0.03221155169471946, -0.14213344793584404, -0.020274283908754576, -0.14213976196683498, 0.009739765530108111, -0.1356776059870703, 0.038817785609334285, -0.14104134459113896, 0.0023041201253527345, -0.14191236329741458, 0.015250447926003573, -0.14094389560541729, 0.028241642696091727, -0.14004205773128456, 0.03338720151392073, -0.13948195531705324, 0.035940039323701975, -0.1381456288021845, 0.040994676374075494, -0.13357352581775195, 0.05323154415907213, -0.1273283252014516, 0.06468707998206644, -0.135440094217162, 0.04396556348661118, -0.14281266518159427, 0.014061854563142495, -0.14337555168004376, -0.01692439951137461, -0.14165881060334085, -0.0292676774879268, -0.14038707999221003, -0.03537727116180082, -0.13702785348977314, -0.04740918018396819, -0.12404196750274969, -0.07582279977312008, -0.1050505220053904, -0.10069843493915803, -0.14124459017486143, 0.0013507949582236048, -0.14265897061947946, 0.0142956273344707, -0.14191701162596473, 0.027319206841744485, -0.14101575543528785, 0.03246919325699656, -0.14043690765975417, 0.03501984109875314, -0.13902575691237315, 0.040058127438734485, -0.13405953184958355, 0.05215586309923192, -0.12715746903653702, 0.06327554056389696, -0.11915420945808759, 0.07846656183241883, -0.12062292887857289, 0.08041078114288584, -0.12121720381250384, 0.08182420199584306, -0.12120859943800258, 0.08223519064501138, -0.12115156571000472, 0.0824069355933273, -0.12093234732924071, 0.08268224562038304, -0.11977614151949999, 0.08296792584880698, -0.11776864333255575, 0.08267222066652283, -0.13632072665261724, -0.03765814190518912, -0.13249286197738527, -0.05635927737451315, -0.12546898336773948, -0.07431948392673605, -0.12179992874146159, -0.08116139694821804, -0.1197887764431736, -0.08449051121259488, -0.11542497162917283, -0.09094290039917909, -0.10265327369402459, -0.10567829699110752, -0.0875514011761022, -0.11804249252042853, -0.09922026301512739, -0.1063458035765406, -0.11998406874036774, -0.08156455155475405, -0.1344426498675196, -0.052760675547114964, -0.13827865617305526, -0.04047071519905226, -0.13976183128854855, -0.034215752273045505, -0.14184519584587263, -0.021556352494395428, -0.1418603939275843, 0.010298404558991562, -0.13459349081891622, 0.04103427772759052, -0.1406156681890961, 0.002407782462579508, -0.14160171653718567, 0.016144280206608075, -0.14051284960117089, 0.029935168281549407, -0.1394970741793369, 0.035390644563788216, -0.138866193664898, 0.03809451628435193, -0.1373613021110226, 0.04344117979417302, -0.1322182088875779, 0.05632982566101936, -0.12521145314252854, 0.06828594691011537, -0.1343243204113532, 0.046507656543534816, -0.14261983966756953, 0.014893667926932338, -0.14324650672577566, -0.018015037714308867, -0.14130520434614482, -0.03111648317985442, -0.139868381435396, -0.037592655825899476, -0.13607637506828213, -0.050320211269762515, -0.12145689125613066, -0.08014314474807716, -0.10019207956838572, -0.1057442961484741, -0.14086539852632346, 0.0013886085352798122, -0.14245346975255582, 0.015083029955060065, -0.14162594356043232, 0.028871731613461973, -0.14061765401509216, 0.03431690465119515, -0.139970019221041, 0.037010656000062904, -0.13839151165671135, 0.0423235292083736, -0.13284333399488352, 0.055016355311509224, -0.12515556379921522, 0.06655420870782748, -0.11624307008871881, 0.08237011865337487, -0.11784741754796903, 0.0845570471722719, -0.11849207634582005, 0.08611879456221375, -0.11847945295156913, 0.08656139181894604, -0.11841524695381168, 0.08674286534554426, -0.11817143779924201, 0.08702536164684802, -0.116895257340247, 0.0872567895179073, -0.11468838223348916, 0.08680364693069867, -0.13535093506951973, -0.03976009766523735, -0.13105752827253686, -0.05950367014811779, -0.12319137036755327, -0.07836706279936513, -0.11908903210077668, -0.08550660608837789, -0.11684251834316764, -0.08896761527754408, -0.11197353131584156, -0.09564617870345586, -0.09777043150009355, -0.11069623881666511, -0.08107768749022325, -0.12296253570417624, -0.09401957282358495, -0.1111473128705109, -0.117086995892447, -0.08582543306490781, -0.1332401784856347, -0.055756169387640865, -0.1375375830019224, -0.0428179380871752, -0.1392005880018223, -0.03621823717813211, -0.14153842853018278, -0.022841181414476504, -0.1415650930004328, 0.010847933068910527, -0.133451620442559, 0.04321371282220224, -0.1401639955891561, 0.0025041476732398944, -0.14127272848349726, 0.017027226718866622, -0.1400572908949453, 0.03161559461976985, -0.1389212558181883, 0.037378923749765536, -0.13821566399772825, 0.040232324213655364, -0.13653291180072022, 0.045866795022771724, -0.1307887509431258, 0.059387357453802504, -0.12298487645230224, 0.07180679766887726, -0.13314863654314277, 0.04901327008492227, -0.14241628254338834, 0.015716836863633364, -0.14310836082033715, -0.0191117689363557, -0.14092806146871067, -0.03296881615758853, -0.13931585219141746, -0.03980868181290939, -0.1350649182561823, -0.05322137871772063, -0.11872304871458594, -0.08438702210782376, -0.09509035407036699, -0.11056876161669112, -0.1404634516916361, 0.0014192692814274468, -0.14223570180866923, 0.01586097147531785, -0.14131876156227954, 0.03041455772774329, -0.14019783401419308, 0.03615362554974647, -0.13947779653396425, 0.03898932661767968, -0.1377232082639328, 0.04457316424968589, -0.13156435421012552, 0.057841819542046646, -0.1230574572715206, 0.069759587570974, -0.11319744350016016, 0.08615703660981315, -0.11493567916964735, 0.08860639846724573, -0.11562872432459037, 0.09032654821559667, -0.11561118213888485, 0.09080186915191096, -0.11553933700777101, 0.09099298532166787, -0.11526998343428663, 0.09128119743504472, -0.11387153346711833, 0.0914471261403288, -0.11146374917848242, 0.09081481174073291, -0.13432603044231542, -0.04184228687121514, -0.12954006913667596, -0.06261791745093138, -0.12078563053133622, -0.08235756667823393, -0.11622795257176757, -0.0897766069629795, -0.11373461260486498, -0.09335853712996121, -0.108337166057348, -0.10023718059495589, -0.09264804461709383, -0.11551032597873749, -0.07432828493650227, -0.12754792213364163, -0.0885831490422011, -0.11570698434809434, -0.11403679394676045, -0.08999433590132337, -0.13196802249755696, -0.05873273149873032, -0.13675242246132735, -0.04515924420768296, -0.1386055796839922, -0.03821888296428611, -0.14121295565833053, -0.024128947433335157, -0.1412540407134646, 0.011387814190733198, -0.1322533653303381, 0.04535422018590795, -0.13968629001423605, 0.0025927982617666274, -0.1409254819361935, 0.01789861680119914, -0.13957750726463364, 0.03328212462402083, -0.13831499542632777, 0.039351138071127625, -0.13753082251534696, 0.04235248657005234, -0.13566107588527174, 0.04827033425207812, -0.1292865475332906, 0.062401985865354906, -0.12065176525878261, 0.07524583441551269, -0.13191438003162348, 0.05148053136469304, -0.14220216979465777, 0.01653082591900224, -0.14296087921677372, -0.02021498739107908, -0.14052699714692515, -0.034824874346908355, -0.13872905675749092, -0.042025344258467684, -0.13399306940301814, -0.056111981802569356, -0.11584188268706005, -0.08854982866280062, -0.08975429536041948, -0.11516042827122722, -0.1400385668853966, 0.0014423770459084666, -0.14200557754645785, 0.01662884578761262, -0.14099556243340408, 0.031947045295736116, -0.13975648261123633, 0.03797865509478218, -0.1389604813581656, 0.04095509807771116, -0.13702123076518782, 0.046806108427157815, -0.1302237147169426, 0.060630462480757416, -0.12086607873838473, 0.07288835483077956, -0.11002239213814452, 0.08982232069174449, -0.11189134077767823, 0.09255432585536373, -0.11263002795841143, 0.09444321771429773, -0.11260656540687809, 0.09495239663640354, -0.11252660652590031, 0.09515305903066741, -0.1122308271820164, 0.09544545521338114, -0.1107085220814562, 0.09553426653988246, -0.10809979939882783, 0.09470044881159394, -0.13324607850837877, -0.04390351188277028, -0.12794050000940413, -0.06570010387826046, -0.11825219152497947, -0.08628740568711091, -0.11321760409377707, -0.09396676167718641, -0.11046632356723816, -0.09765802859534431, -0.10451811103223348, -0.10470927214190154, -0.0872928999368907, -0.12010972036546384, -0.06731870154799362, -0.13178350408167505, -0.08292108930317038, -0.12001345657274902, -0.11083557717944911, -0.09406617550760359, -0.13062601878451538, -0.06168919509796011, -0.13592287502645678, -0.04749425088066397, -0.13797651374697592, -0.04021756217916455, -0.1408685742256483, -0.02541983007279379, -0.14092743050544093, 0.011917510734354708, -0.131000165059165, 0.04745398154224088, -0.13918251196312711, 0.002673318935782815, -0.14056006351278363, 0.01875777424122291, -0.13907380394100005, 0.03493395604985374, -0.13767870987592637, 0.04130638444865001, -0.13681215330567348, 0.04445402702908143, -0.1347464493602765, 0.0506506163851359, -0.12771306946049243, 0.06537159861602342, -0.11821543962027468, 0.07859939095340379, -0.13062295795871776, 0.05390761421647389, -0.14197768963497318, 0.017335094727881067, -0.14280381106070703, -0.021325093894691862, -0.14010160059169322, -0.03668485396144733, -0.13810753084434113, -0.04424263058113413, -0.13286038955292045, -0.05899129810988288, -0.11281493231285046, -0.09262694376317782, -0.08419334124100723, -0.11950817470072891, -0.13959055092765263, 0.0014575316304221199, -0.14176300228856192, 0.017386033417278877, -0.14065645103614566, 0.0334685374002137, -0.13929380136944727, 0.03979127731174415, -0.13841833337002993, 0.04290720216396822, -0.1362859894586193, 0.049021429811764855, -0.128822599229194, 0.06338051624095438, -0.11858448816467548, 0.07593730667033949, -0.10672318591528784, 0.09336120689566313, -0.10871819780457388, 0.09639646082064612, -0.10949901300839929, 0.09846465404823508, -0.10946852382849234, 0.09900883813416873, -0.10937996886187906, 0.09921893905538678, -0.10905695776871836, 0.0995139295483494, -0.10740994581893938, 0.09951367261114866, -0.10460180274783358, 0.0984555139638076, -0.1321111527201102, -0.04594255865681299, -0.1262588465534225, -0.06874827383482923, -0.11559152961117802, -0.0901529217606623, -0.11005898531417979, -0.09807235924149879, -0.10703902455431034, -0.10186076954178985, -0.10051877333261232, -0.10905576115178363, -0.08171220654714675, -0.12448368036947077, -0.060065226098571685, -0.13565470771558766, -0.07704399752122343, -0.12405570711271688, -0.10748558650109728, -0.0980358721980859, -0.12921399504462597, -0.06462437370532219, -0.1350486222479979, -0.04982256617537219, -0.13731307882238977, -0.04221414309588198, -0.1405050682002591, -0.02671401185068402, -0.14058546798873936, 0.012436485116118643, -0.12969352678074153, 0.04951123379336872, -0.13865261907363668, 0.002745296783092609, -0.14017656346369542, 0.01960401686432688, -0.13854650378595348, 0.03657028103067196, -0.13701284043639897, 0.043243757452829316, -0.1360601686842426, 0.04653596935898088, -0.13378972452680613, 0.053006467320928154, -0.1260698620765264, 0.0682941270297706, -0.11567936446872455, 0.0818639389414504, -0.12927584594123132, 0.05629274156479857, -0.14174304287943798, 0.018129097647411555, -0.1426368888733405, -0.02244249636909499, -0.13965143430074486, -0.03854894938247572, -0.13745078064442443, -0.046460519926717826, -0.13166641412283683, -0.06185858202295175, -0.10964383546682561, -0.09661372847562996, -0.07841741329811215, -0.12360117788273568, -0.13911920012968523, 0.001464332897988165, -0.14150787578280374, 0.018131900734150084, -0.14030154074593362, 0.03497835902299195, -0.13881000693780268, 0.041590760180726064, -0.13785163096363012, 0.044844856520623394, -0.13551792182146769, 0.05121818827427983, -0.1273622530887237, 0.06609023987319007, -0.11621587188956145, 0.07890336322235161, -0.1033052920910506, 0.09676917183192907, -0.10542020966923345, 0.10012858259111455, -0.1062388490281275, 0.10238681013066676, -0.10620011977669382, 0.10296715288236855, -0.10610247876707808, 0.10318657255045768, -0.10575150825680278, 0.10348251299834671, -0.1039796942100132, 0.10338094437193264, -0.10097523461165225, 0.10207519488337082, -0.1309213349292946, -0.04795819580207707, -0.1244951462994256, -0.07176042910686903, -0.1128041740482592, -0.09395038503537749, -0.10675318559462922, -0.10208861218122492, -0.10345420473081479, -0.105961364894165, -0.09634174041675043, -0.11326989582113679, -0.07591360414114476, -0.12862157072684283, -0.052584917537939986, -0.13914756725393382, -0.07096297740360887, -0.12782307109174246, -0.10398919151692222, -0.10189835161431145, -0.12773176971032774, -0.0675370598092051, -0.13412932625158194, -0.05214378827932085, -0.13661494421737413, -0.04420848943555316, -0.14012220813470402, -0.02801167853491232, -0.14022837122823775, 0.012944199272880435, -0.12833502361185675, 0.05152427173773769, -0.13809656596824377, 0.00280832145847365, -0.13977507546758405, 0.0204366561036138, -0.13799594748279898, 0.03819028558082654, -0.13631785310210356, 0.04516234900357255, -0.1352754095619964, 0.04859733727141874, -0.13279163134566174, 0.05533672022367951, -0.12435854455306039, 0.07116754823209226, -0.11304714432020253, 0.08503609392838836, -0.12787458694317705, 0.05863418791998958, -0.14149844334134237, 0.01891228336950966, -0.14245982798565776, -0.023567610369582482, -0.13917603324422007, -0.040417353032361464, -0.13675828203615045, -0.048678982587100725, -0.1304106525503241, -0.0647130631504398, -0.10633033132157248, -0.10050552478039494, -0.07243691243678779, -0.12742893008377615, -0.13862430016392874, 0.0014623809012585783, -0.14124009204356494, 0.018865799150271905, -0.13993095392765229, 0.03647581594193023, -0.13830533179460727, 0.04337635468441642, -0.13726067210143686, 0.04676726383776149, -0.13471749347976875, 0.053395435077867905, -0.12584398340960878, 0.06875792090648346, -0.11376353811730197, 0.08178357389024515, -0.09977436471775887, 0.10004194194956932, -0.1020014951262213, 0.1037466251810325, -0.10285284747131983, 0.10620574659247156, -0.1028045554400275, 0.10682340112554903, -0.10269733097152647, 0.10705200687091979, -0.10231775447579576, 0.10734720189439567, -0.10042181989748873, 0.1071318270377905, -0.09722576639929051, 0.10555492058588366, -0.12967671611416165, -0.04994917361623463, -0.12264945042008632, -0.0747345263836307, -0.10989071181509526, -0.09767599025298337, -0.10330139143901473, -0.10601065324453104, -0.09971347642377687, -0.10995434180696913, -0.09198978909252223, -0.11734486369849567, -0.06990517176177233, -0.13251287314273866, -0.04489559349431803, -0.1422487596962705, -0.06468962556315, -0.1313052598494041, -0.10034889272299685, -0.10564854521199002, -0.12617915185429043, -0.0704260234777634, -0.13316462919173871, -0.054457504839981026, -0.13588175932055724, -0.046200460079000395, -0.13971975073885443, -0.029313019414298806, -0.13985637103638715, 0.013440114560690298, -0.12692629294576385, 0.05349145075504431, -0.13751430408023263, 0.002861985381151754, -0.1393556964046428, 0.021254996549736636, -0.13742249373864937, 0.03979314906350273, -0.1355942389453623, 0.0470612480389313, -0.13445844584297237, 0.05063715424523964, -0.13175293782420164, 0.05764021577504449, -0.12258080912903994, 0.07398988733423177, -0.11032251775921727, 0.08811262120412135, -0.12642079002916481, 0.060930281854829724, -0.14124411825239866, 0.019684094509881525, -0.14227232591954875, -0.02470085963914902, -0.13867490397894205, -0.04229025524055851, -0.13602947971933158, -0.05089797939060388, -0.12909258790841513, -0.06755394468883, -0.10287626307174873, -0.10429765478846584, -0.06626271411170397, -0.13098125594028373, -0.13810562591594452, 0.0014512760319769715, -0.14095953917072526, 0.019587064302937808, -0.13954482243535954, 0.03796019359506277, -0.13778002503417885, 0.04514729383060733, -0.1366457752159159, 0.04867361101821225, -0.13388519923722522, 0.05555221246949254, -0.1242691592312629, 0.07138187691833757, -0.11123091220753951, 0.08457512254027046, -0.09613623366562751, 0.10317550236206247, -0.09846632737423368, 0.10724668438643369, -0.09934445965904717, 0.10991763768560048, -0.09928517121160632, 0.11057374988124491, -0.0991678586394235, 0.11081139533956576, -0.09875911331822025, 0.11110410225525978, -0.09674053462520539, 0.11076221811937566, -0.09335925561929194, 0.1088903705706719, -0.12837739715059, -0.0519142231031999, -0.12072182564106725, -0.0776684747250215, -0.10685179267879506, -0.10132585318113477, -0.09970489336137826, -0.10983353222151912, -0.09581858292796713, -0.11383414701317085, -0.0874658950459587, -0.12127379098902952, -0.06369543686057137, -0.1361471977564584, -0.0370158177827866, -0.14494564014461203, -0.058236024224816274, -0.13449237971660372, -0.09656732384400432, -0.10928139077961786, -0.12455594108240117, -0.07329001091026081, -0.1321541526566006, -0.05676329227606519, -0.1351131529539458, -0.048189908766142694, -0.13929743841038747, -0.03061822758744941, -0.13946971128470512, 0.013923691635836058, -0.12546903468582962, 0.05541118945594308, -0.13690578145803117, 0.0029058839439273744, -0.13891852610560046, 0.022058335479074716, -0.136826519499108, 0.04137804362045567, -0.13484251449601456, 0.04893954015026629, -0.13360987685355868, 0.05265444332094195, -0.13067445043804973, 0.05991580240774937, -0.12073842033743575, 0.07675921960329657, -0.1075093517039728, 0.09109044146026919, -0.12491612905985333, 0.06317940846095949, -0.14098030870691422, 0.02044396717053509, -0.1420740617110821, -0.02584267669141615, -0.1381475236857285, -0.04416784410075076, -0.13526378627658528, -0.05311746106056311, -0.12771167648483386, -0.07038040171303088, -0.09928358082653234, -0.10798541997846885, -0.0599061632419458, -0.13424832972865705, -0.13756294131612448, 0.0014306191934685634, -0.14066609914320075, 0.020295015222191286, -0.13914328813485125, 0.039430755909235775, -0.1372343531973105, 0.046902791647060044, -0.13600728016314725, 0.050563068323895184, -0.13302156416490693, 0.05768755326954413, -0.12263921168083965, 0.07396045713492969, -0.10862153176846745, 0.08727533255835838, -0.09239689324042319, 0.10616610525814295, -0.09481912892147067, 0.11062502473266295, -0.09571727459866824, 0.11351877730252792, -0.09564544394284892, 0.11421447884728182, -0.0955175316902241, 0.11446100316124332, -0.09507914089117005, 0.11474943584461794, -0.09294020499136826, 0.11426817454334127, -0.08938173555112384, 0.11207748365087161, -0.1270234896291072, -0.053852054967920504, -0.11871235629777695, -0.08056013297189964, -0.10368813462318248, -0.10489600705688125, -0.09596509321331279, -0.11355221288806105, -0.09177140681432554, -0.11759514436787684, -0.08277324292975982, -0.12504974223145437, -0.0572933846507615, -0.13951429550075067, -0.028964886853544675, -0.1472262777335263, -0.05161473351591743, -0.13737495091181262, -0.09264725431862168, -0.11279183298978067, -0.12286192741231979, -0.07612774292242674, -0.13109749701921336, -0.05906071505502862, -0.13430873266609514, -0.05017668378137134, -0.13885499871867824, -0.03192750027097659, -0.13906864923193418, 0.014394390315689504, -0.12396500940290232, 0.057281972293755194, -0.13627094254523878, 0.0029396157350643436, -0.1384636670738139, 0.02284596235864261, -0.13620842017526508, 0.04294413356046821, -0.13406322214874528, 0.050796307181050014, -0.13273033180506733, 0.05464822686344177, -0.1295570145901437, 0.06216233651915375, -0.11883321421396548, 0.07947367261794022, -0.10461163546011117, 0.09396663625240104, -0.12336234133070664, 0.06538001178277938, -0.14070727013027898, 0.021191330472396, -0.14186469517059674, -0.026993503424263696, -0.13759333912350014, -0.04605030531751816, -0.1344605811548874, -0.05533736753834637, -0.12626734732261388, -0.07319157938781237, -0.09555434467678442, -0.11156410045246337, -0.05337906879910096, -0.13722069283277805, -0.13699599914850347, 0.0014000119982337227, -0.14035964758372607, 0.020988953481929633, -0.13872650344836812, 0.04088674409043065, -0.13666860114609225, 0.04864204214631944, -0.13534554922956316, 0.05243478849972359, -0.13212714475346804, 0.059800480458970545, -0.12095563414542655, 0.07649204406283754, -0.10593904155652456, 0.08988167176560531, -0.08856249040805918, 0.10901027788218484, -0.09106446620544564, 0.11387808637281162, -0.09197501664618962, 0.11700558511874844, -0.09188898505266097, 0.11774198645905705, -0.09174995497569385, 0.11799721349255547, -0.09128153051376808, 0.1182795463781251, -0.08902534795986983, 0.11764591979750666, -0.0852994045198453, 0.11511246644566134, -0.1256151167195518, -0.05576135858559523, -0.11662114654742697, -0.08340730709538409, -0.10040052965745004, -0.10838239905919575, -0.0920835119916888, -0.11716157008949941, -0.08757397876164252, -0.12123161260738692, -0.07791523702728546, -0.12866572038007965, -0.05070846773099194, -0.1426040714122198, -0.020762815110534575, -0.14907949218388744, -0.04483878332974884, -0.13994392656372862, -0.08859159193931132, -0.11617482398399101, -0.12109689113596502, -0.0789379133592087, -0.12999424073088264, -0.061349324932977616, -0.13346808396140683, -0.0521606276229267, -0.13839214383747597, -0.033241039128396266, -0.13865345586908354, 0.014851669416508029, -0.12241603641809012, 0.05910235213532259, -0.1356097279335388, 0.0029627827741857274, -0.13799122417753576, 0.02361715832604612, -0.1355686098829353, 0.04449057470316304, -0.13325693059943278, 0.05263062678628321, -0.1318204702914245, 0.05661752629046626, -0.1284015151097116, 0.06437868266304562, -0.11686709749061232, 0.08213142840929659, -0.10163347457091793, 0.09673845325667568, -0.12176122615555536, 0.06753059722644782, -0.14042527277210642, 0.02192560605423964, -0.1416438660736474, -0.028153791766315904, -0.137011765493272, -0.04793782204057891, -0.13361920956087783, -0.0575576272665346, -0.12475900171892114, -0.07598659109192701, -0.0916907279443571, -0.1150289542095246, -0.04669369805750689, -0.13988927141731436, -0.13640454083375642, 0.0013590569929547145, -0.14004005349110604, 0.021668162333759143, -0.1382946319205308, 0.042327375372746404, -0.13608307298358563, 0.050364218257855004, -0.13466096819286813, 0.05428790587291207, -0.13120253012962163, 0.06189000676304, -0.11921998245460592, 0.07897505515363616, -0.10318718818659145, 0.09239175718630688, -0.0846393126410994, 0.11170483006929656, -0.08720704396460792, 0.11700249193610215, -0.08812154300316488, 0.12037461286559716, -0.08801953848214053, 0.1211527961053196, -0.0878688663027064, 0.12141653367563034, -0.08737011055009777, 0.12169090588836753, -0.08500062612263631, 0.12089185110099528, -0.08111861478322072, 0.11799180152109753, -0.12415241408554686, -0.057640800941837725, -0.11444832274690457, -0.08620774748133654, -0.096989850025902, -0.11178088681771496, -0.08806179814899545, -0.1206563869808475, -0.08322848693306456, -0.12473774334604669, -0.07289551250822321, -0.13211466732730168, -0.04395061595429032, -0.14540659895191127, -0.012430319027043031, -0.15049489099326815, -0.03792166475231742, -0.14219071186613327, -0.08440338565409386, -0.1194253239917238, -0.11926060266418866, -0.0817191874275805, -0.12884393955154577, -0.06362866015269084, -0.13259076945987847, -0.05414157665397394, -0.13790856992120945, -0.03455905062104821, -0.13822441628156948, 0.015294986565005506, -0.12082399181294234, 0.06087095278802557, -0.13492207408539653, 0.002974990763601434, -0.13750130430907875, 0.024371195642739218, -0.13490752169394687, 0.046016513674560396, -0.1324242353117606, 0.05444157194926596, -0.1308809828238374, 0.05856136176370358, -0.12720887679391057, 0.06656371371783412, -0.1148420467769835, 0.08473072558689335, -0.09857908447242542, 0.09940331131391308, -0.1201146433967775, 0.06962973394138168, -0.14013460222434054, 0.02264620753371864, -0.141411193276159, -0.029324004358486668, -0.1364021852043991, -0.04983057468429662, -0.13273898126289363, -0.05977815642740764, -0.12318601267864958, -0.0787645164458665, -0.08769502062192999, -0.11837521643557102, -0.0398627704954708, -0.14224539431522823, -0.1357882961831099, 0.0013073579135070824, -0.13970717893566895, 0.022331905822773494, -0.13784784880431547, 0.043751841722783534, -0.13547809301870947, 0.052068470724658304, -0.1339539474381322, 0.05612153542529872, -0.130248343338632, 0.0639551342306845, -0.11743387507403427, 0.08140794450265193, -0.10036981465699828, 0.09480335966252937, -0.08063377540282696, 0.11424686132086775, -0.08325169935898229, 0.11999505332545533, -0.08416084103866867, 0.12362255074090563, -0.08404097848424127, 0.12444356251120806, -0.08387813429089871, 0.12471560164486002, -0.08334884206656103, 0.12498012125590366, -0.08087084270575928, 0.1240025466000518, -0.0768458610410318, 0.12071225516631753, -0.12263553085125996, -0.059489025539826754, -0.11219403600803869, -0.08895914614595113, -0.09345705484134424, -0.11508723496578765, -0.08390173643012108, -0.12403135244177005, -0.07873728692034958, -0.1281076393353225, -0.06771794729282542, -0.13538946490450074, -0.03703024651422843, -0.14791213539749684, -0.0039887999809674335, -0.1514629072737881, -0.030877321041636867, -0.14410718337092485, -0.08008582853876847, -0.12253830198409908, -0.11735282235177594, -0.08447019994124788, -0.12764612571165662, -0.06589824459490189, -0.1316763279810333, -0.05611936073270667, -0.13740395641917333, -0.03588174638239483, -0.13778183002863942, 0.0157237979801267, -0.11919080636935793, 0.0625864714798335, -0.13420791302310067, 0.00297584935671338, -0.13699401600718605, 0.025107337118791817, -0.13422560789911536, 0.047521087150515104, -0.1315657590153009, 0.056228210452205246, -0.12991259140431796, 0.06047875183959836, -0.12598006499498052, 0.06871631102913026, -0.11276010773275796, 0.08726986144930747, -0.09545278396229559, 0.1019588052544418, -0.1184245119442422, 0.07167605717147746, -0.13983555996458, 0.023352539925791605, -0.1411662737463667, -0.0305046152728191, -0.13576394653464938, -0.051728740729702606, -0.13181916929201593, -0.061998858131198806, -0.12154772431911236, -0.08152439923316271, -0.08356963301284631, -0.12159809880745129, -0.032899451336310795, -0.14428081113808874, -0.1351469831195151, 0.001244519972882751, -0.13936087871311267, 0.022979427884469515, -0.13738634166557745, 0.04515930849592276, -0.1348540067765361, 0.05375392696115796, -0.1332249231299552, 0.05793477183603451, -0.12926524269460257, 0.06599485380817256, -0.11559899331078267, 0.08378920458311574, -0.0974908546940117, 0.09711440830931553, -0.07655240928520585, 0.11663376740699279, -0.07920339583685741, 0.12285277846368457, -0.08009702542628493, 0.12674623396525966, -0.0799573072371697, 0.12761107829756585, -0.07978175605363465, 0.12789119251575723, -0.07922181630198372, 0.12814394091478015, -0.07664093631191979, 0.12697477259026624, -0.07248776857696891, 0.12327088479223808, -0.12106463062331742, -0.0613046512699651, -0.10985846494303875, -0.09165913387815583, -0.08980319716648266, -0.11829711174698525, -0.07960525726106389, -0.12728105868645329, -0.07410291228025871, -0.13133531301173615, -0.062386674542344124, -0.13848293640218307, -0.029958274217725775, -0.15011113837098958, 0.004539674271533012, -0.15197483824597852, -0.02372013814905303, -0.1456857084255936, -0.07564226094910204, -0.1255087363624244, -0.11537330030083089, -0.08718955346815455, -0.12640030699956137, -0.06815758687733887, -0.13072427354513053, -0.05809380281836127, -0.13687796532120391, -0.037209343617029426, -0.13732601154024138, 0.016137558221062213, -0.11751846344190878, 0.06424768128914314, -0.13346717198034766, 0.002964972445391572, -0.136469469038457, 0.025824835507325578, -0.1335233402823444, 0.04900342104387367, -0.130682152236228, 0.057989604296846256, -0.12891605013996282, 0.06236871307640476, -0.12471608625589543, 0.07083536452450125, -0.11062339423470849, 0.08974719407935076, -0.09225898849184119, 0.1044027104974145, -0.11669280814554801, 0.07366827057306463, -0.13952846392481, 0.024043999013332415, -0.14090868150527258, -0.03169611077087028, -0.13509636217482057, -0.05363249450577382, -0.13085900853368262, -0.06421962154780335, -0.11984345122192488, -0.08426524520397301, -0.07931709958168605, -0.12469278880882463, -0.0258173447182269, -0.14598771061807467, -0.1344803073620254, 0.001170150185309071, -0.13900099995131912, 0.023609951422072034, -0.1369103110042512, 0.046548913040720244, -0.13421118205398086, 0.055419689869011024, -0.1324743584414631, 0.05972668849170077, -0.12825392320032014, 0.06800814490562238, -0.11371708153126925, 0.08611736801689114, -0.0945543269208373, 0.09932299480473827, -0.07240184681773093, 0.11886324648292708, -0.07506721674437668, 0.12557287798798078, -0.07593433508543222, 0.12974264949188133, -0.07577265226961502, 0.13065228072581303, -0.07558385469004135, 0.13094022536532873, -0.07499325193813451, 0.1311792617411147, -0.07231597539136098, 0.1298054907659655, -0.06805108104412036, 0.12566504594028685, -0.11943989257120571, -0.06308627123697372, -0.10744181861422769, -0.09430527730428213, -0.08602943156966167, -0.12140608568540048, -0.07517444671686667, -0.13039999909047043, -0.06932808568904346, -0.1344146853627148, -0.056906095794062334, -0.14138784865334036, -0.02274612191114305, -0.1519942835686039, 0.013132389569321981, -0.15202288439486927, -0.016464934772118668, -0.14691916476180517, -0.07107617386371343, -0.12833161568154883, -0.11332177614053027, -0.08987581637063301, -0.12510596576777758, -0.07040617939526816, -0.1297340942840593, -0.06006471854950581, -0.13633024032772897, -0.0385420655256753, -0.13685729053144874, 0.016535719897100495, -0.11580899676566414, 0.06585343352103037, -0.13269977301216196, 0.0029419784685127226, -0.1359277739331512, 0.026522932866745112, -0.13280121040504092, 0.050462629630877276, -0.12977409386172695, 0.05972480907098768, -0.1278921458998716, 0.06423025959380052, -0.12341798899759968, 0.07291977279794812, -0.10843408754201615, 0.09216114442358625, -0.08900220329101538, 0.10673298741865189, -0.11492156419050069, 0.0756051484963931, -0.13921364908563238, 0.02471997066411852, -0.14063796646639373, -0.032898990103876403, -0.13439870764766662, -0.05554200694609984, -0.12985769420061657, -0.0664403209747268, -0.11807247772795396, -0.0869860197483592, -0.07494008302776707, -0.12765444905484666, -0.01863048648229566, -0.14735873919098938, -0.1337879620688591, 0.001083857730299709, -0.1386273816640167, 0.02422267736364082, -0.13641997088992344, 0.04791976324735193, -0.13355001002061595, 0.05706483660699705, -0.13170274484072866, 0.06149633646058933, -0.12721511803839258, 0.06999397495459707, -0.11178994739272734, 0.08839100938286816, -0.09156432885658848, 0.10142737750915617, -0.06818880896484258, 0.12093330470752417, -0.07084835867472668, 0.12815277189259514, -0.07167712991574028, 0.13260894287843403, -0.07149126368523333, 0.13356425863793298, -0.07128867657519795, 0.13385977021363185, -0.07066749215767702, 0.13408313613355743, -0.06790115243344273, 0.1324918654975908, -0.0635426479057428, 0.12789239888919066, -0.11776151257006201, -0.064832451538683, -0.10494433970373483, -0.0968950758701894, -0.08213702218346047, -0.12440962233137087, -0.07061155709805127, -0.13338256625896613, -0.0644157307427065, -0.13733958514207684, -0.05128089476015681, -0.1440969147274256, -0.015405731023382737, -0.1535524837622806, 0.02176600685593818, -0.15160018929210672, -0.009126951928709437, -0.1478009602423341, -0.06639121242977443, -0.13100193940772778, -0.11119797878119664, -0.09252752072686504, -0.12376255785099678, -0.07264349729645, -0.1287052512535738, -0.062031915790381045, -0.13576040593628727, -0.03988014175739841, -0.1363760124345076, 0.016917733334413865, -0.11406448820306271, 0.06740266002640426, -0.1319056325585149, 0.0029064907442286907, -0.13536904147010437, 0.027200859888895174, -0.1320597298997324, 0.05189781461201778, -0.12884229173903572, 0.06143287325640286, -0.1268416990165404, 0.066062402581044, -0.12208686426100758, 0.0749684431614069, -0.10619443546383542, 0.09451019835599872, -0.08568701633668176, 0.10894778548149216, -0.11311286645324423, 0.07748553822724655, -0.13889146809597933, 0.02537983008777017, -0.14035365316453202, -0.034113766356878274, -0.13367021958988212, -0.05745744531636411, -0.1288143801769806, -0.06866081483302322, -0.11623405717102603, -0.08968564542517046, -0.07044137859545661, -0.13047821662213246, -0.011353336568307308, -0.14838701983023764, -0.13306962743413714, 0.000985254360885144, -0.13823985424438562, 0.024816783698455185, -0.13591554960895227, 0.04927093603572383, -0.13287090636401205, 0.058688417310873445, -0.13091060343497776, 0.06324274342751615, -0.12614960013534113, 0.07195129895471498, -0.1098194620892518, 0.09060874706401999, -0.08852503075107986, 0.1034259854081981, -0.06392009133022994, 0.12284226135247132, -0.0665521245534382, 0.13059009611989567, -0.06732988731255111, 0.1353424253293284, -0.0671175111731067, 0.13634425960141755, -0.066900588434851, 0.13664705521645493, -0.06624900147591253, 0.13685277929466785, -0.0634017778705972, 0.13503127113795146, -0.058969411543675215, 0.12995091484837676, -0.11602970441041924, -0.06654172999005348, -0.10236630792053694, -0.09942595873576995, -0.07812735129706012, -0.12730308109574223, -0.06591901814697905, -0.1362230503629408, -0.059368984432571485, -0.14010374846981843, -0.04551605181051363, -0.14660279728609543, -0.00794957218658957, -0.1547769091455393, 0.030416585319243523, -0.15070088008546395, -0.001721842042368343, -0.14832505277434016, -0.06159117972526957, -0.13351471871041828, -0.10900162614064574, -0.09514316012095811, -0.12236951138800235, -0.07486899738241819, -0.12763717713771291, -0.06399519414035644, -0.13516806643573284, -0.04122380889012669, -0.13588253884849347, 0.017283046194358834, -0.11228706543385789, 0.06889437546044784, -0.13108466095652313, 0.0028581378289461792, -0.13479338210481517, 0.027857835191280326, -0.13129943077139905, 0.05330806410217987, -0.12788748330988037, 0.0631128374732869, -0.12576556403347874, 0.06786414974926797, -0.12072384650701413, 0.07698029166026166, -0.10390675153331749, 0.09679290872562547, -0.08231809117496726, 0.11104544712554426, -0.11126885379596624, 0.0793083621850408, -0.1385622919181394, 0.02602294102551188, -0.14005523936212422, -0.035340967338890535, -0.1329100938847714, -0.0593789729072278, -0.12772817722275112, -0.07088094458177796, -0.11432741104592717, -0.0923629993307418, -0.0658239186371233, -0.1331592023798924, -0.004000771008741598, -0.14906617114255938, -0.13232497023275178, 0.0008739548608827008, -0.1378382388908222, 0.02539142449234953, -0.1353972903196994, 0.05060147577853348, -0.1321743124786201, 0.0602894537586448, -0.1300984863726575, 0.06496491258513196, -0.12505818380021264, 0.07387905900685536, -0.10780756061358229, 0.09276924513399544, -0.08544066926175328, 0.10531742187420304, -0.05960255008700419, 0.12458875339207558, -0.062183916456158124, 0.1328827091002652, -0.06289719845099354, 0.13794058091740774, -0.06265588079020498, 0.13898969726931437, -0.06242407419033242, 0.13929947407935234, -0.06174236233201876, 0.13948557672248707, -0.058823273686320246, 0.13742129935834976, -0.05433839404746084, 0.1318388817271646, -0.1142447010802765, -0.06821261478514472, -0.09970804366421676, -0.10189528157648839, -0.0740019285159665, -0.13008171218745965, -0.06109944893794506, -0.13891563777315805, -0.05419121032774542, -0.1427008188541326, -0.03961685916059209, -0.1488981126560071, -0.000390655891728034, -0.15565900909976665, 0.0390596072589973, -0.14932010865468195, 0.005734342470712701, -0.14848597039799918, -0.05668004075343113, -0.13586497728717464, -0.10673242484083274, -0.09772118728743422, -0.12092622553903616, -0.07708211692687884, -0.1265292748353795, -0.06595434440075515, -0.1345528047983764, -0.042573310940415346, -0.13537724800648232, 0.01763110303728661, -0.11047889959270635, 0.0703276794766085, -0.13023676189559635, 0.002796553906514162, -0.13420090533400425, 0.02849306457154252, -0.13052086570459592, 0.05469245154452741, -0.12691043628082446, 0.06476373365592965, -0.12466463050066519, 0.06963450472309433, -0.11933011447780256, 0.0789542430495223, -0.10157341419254896, 0.09900789738793656, -0.07890015960899009, 0.11302451140871111, -0.10939171583865771, 0.08107262007353926, -0.1382265104977487, 0.026648654864872542, -0.1397421945204427, -0.03658113652103613, -0.13211748363202855, -0.06130674868622647, -0.1265981510263485, -0.07310053354031419, -0.11235172810613735, -0.0950169102897015, -0.06109077744681959, -0.13569249031756325, 0.0034119264880857984, -0.14939032673746377, -0.13155364330723543, 0.0007495775567826651, -0.1374223469560735, 0.02594572888190835, -0.13486545171172362, 0.05191039265421434, -0.13146069669672558, 0.06186693797625714, -0.1292669783030804, 0.06666182147724475, -0.12394172643911798, 0.07577618383013614, -0.10575624203589747, 0.09487121528397366, -0.08231554097950423, 0.10710046824106768, -0.05524308765335981, 0.12617173956435992, -0.05774922815509166, 0.13502869824162508, -0.05838376432544456, 0.14040107399419682, -0.05811097150118142, 0.14149815896582674, -0.0578637315586549, 0.14181459370355992, -0.05715227142484224, 0.14197909192183417, -0.05417116671867447, 0.13965976651569695, -0.049656683697955575, 0.13355490946960605, -0.11240675612581902, -0.0698435830888505, -0.09696991196705601, -0.10430032328635269, -0.06976240052563455, -0.13274065367117593, -0.05615567047742785, -0.1414544100242739, -0.048886012498297396, -0.14512434767723614, -0.033588936786489026, -0.1509754356785239, 0.007257456867222915, -0.1561905354608347, 0.047670004784728166, -0.14745409343019342, 0.01322516112212038, -0.14827883156081234, -0.05166192668712962, -0.13804775222057847, -0.10439006987295697, -0.1002600115942158, -0.11943206908945628, -0.07928227240073392, -0.12538091591811332, -0.06790914799235011, -0.13391418145924514, -0.043928899903174584, -0.13486053526002262, 0.017961344825232522, -0.10864220285955768, 0.07170175885229756, -0.1293618318093376, 0.002721379211716764, -0.1335917189890821, 0.029105740222486524, -0.1297246083738911, 0.056050034542180584, -0.12591194932974417, 0.06638458415384546, -0.12353982381925321, 0.07137246636629253, -0.11790689212273033, 0.08088923072692965, -0.09919686599311142, 0.1011538572197056, -0.07543801426375019, 0.11488371739833662, -0.10748369120001469, 0.08277739098007296, -0.13788453345816704, 0.02725630967061121, -0.13941395812148344, -0.03783483402433745, -0.1312914969397437, -0.06324092690114183, -0.12542332009254076, -0.0753193856057189, -0.11030616338670962, -0.09764615584802055, -0.0562451763853894, -0.13807313686368045, 0.010869073373780238, -0.14935415488379286, -0.13075528498987415, 0.0006117448906648014, -0.13699197920983405, 0.02647880004773508, -0.13432030866394098, 0.05319666092432734, -0.13073055555942303, 0.06341983077824266, -0.12841669789291085, 0.06833242078916914, -0.1228011303468961, 0.07764158825938763, -0.10366756980100857, 0.09691341879033133, -0.07915399581066435, 0.10877408718772111, -0.05084863813396507, 0.12759050389532428, -0.053253637390171006, 0.1370263863697173, -0.05379439153056982, 0.1427217567982185, -0.053487491460143984, 0.14386741350824025, -0.05322426839206833, 0.14419016207463, -0.052483535777667165, 0.14433107434512737, -0.04945108165065065, 0.14174472105189953, -0.04493142115993448, 0.13509793494560823, -0.11051614509825275, -0.07143307954923528, -0.0941523267386495, -0.10663828257648257, -0.06541056149884361, -0.13527492866374977, -0.051090719053814286, -0.14383334314524868, -0.043457250215450674, -0.1473677951906603, -0.02743824909051637, -0.1528273054012681, 0.014980644010492742, -0.15636356737014856, 0.0562221884508937, -0.1451001618690088, 0.020733797787423187, -0.14769936558961425, -0.0465411393835072, -0.1400580948659597, -0.10197424422942589, -0.10275799634627703, -0.1178863789298232, -0.0814688580917579, -0.12419143894709339, -0.06985937631573103, -0.13325173297047804, -0.045290836321783774, -0.13433281358056176, 0.01827320835616882, -0.10677922600864512, 0.07301588954236204, -0.12845975919739927, 0.0026322604928816426, -0.13296592844998428, 0.02969503990609597, -0.128911253754507, 0.05737985360130029, -0.12489285284824082, 0.06797440075207978, -0.12239210613667129, 0.0730770280356908, -0.11645544959202545, 0.08278419661880673, -0.09677961281721348, 0.10322955411703862, -0.07193650104046155, 0.11662200730784773, -0.10554706571522665, 0.08442183541890366, -0.13753679081838166, 0.02784522912225504, -0.1390699378248016, -0.03910263765853287, -0.13043119452235408, -0.06518165662596889, -0.12420265345157783, -0.07753728385146343, -0.10818983714778317, -0.10024945904599916, -0.05129048932071088, -0.14029617019019983, 0.018354597521541484, -0.1489528784687677, -0.1299295184526308, 0.0004600840615366004, -0.13654692500362317, 0.02698971416740223, -0.13376215289576585, 0.054459217129576666, -0.12998441512485684, 0.06494706023731242, -0.12754829939820017, 0.0699756330795641, -0.12163734457681309, 0.07947417271932429, -0.10154367204544895, 0.0988946685234585, -0.07596043022288859, 0.11033742592573817, -0.046426152547920846, 0.1288446586793965, -0.04870279786086652, 0.13887433812065028, -0.04913398776951442, 0.1449006772712125, -0.048790254018363004, 0.1460954192762758, -0.04851049874068063, 0.14642411640494, -0.04774106851576604, 0.14653946757279618, -0.04466873367863882, 0.14367445092698047, -0.040169785398946854, 0.13646722638981434, -0.10857316709556718, -0.07297951472023496, -0.09125575534015781, -0.10890627446325342, -0.06094836419035162, -0.13767944269102442, -0.045907860379118, -0.14604630739602872, -0.03790905346780601, -0.14942453207025858, -0.021171122341870432, -0.15444623168212562, 0.022764211905250874, -0.1561705377989128, 0.06469007794117027, -0.14225679357991988, 0.0282430736657215, -0.14674393337444835, -0.04132215619203531, -0.14189107176855537, -0.09948461850143583, -0.10521345588996413, -0.11628845840182571, -0.08364124460526323, -0.12296014763634014, -0.07180479004545316, -0.1325649705175801, -0.04665938988863166, -0.13379451407730003, 0.018566125621771862, -0.10489225592256837, 0.07426943865630893, -0.1275304238698381, 0.0025288515192499928, -0.13232363576972309, 0.030260126085202194, -0.12808141842927034, 0.058680930778733355, -0.12385400971929963, 0.06953218360384729, -0.12122247729288878, 0.07474717675698037, -0.11497710430140433, 0.08463809101396512, -0.0943242231245797, 0.10523382897610949, -0.06840051147309263, 0.11823852937579889, -0.10358417063710293, 0.08600519731410394, -0.1371837337332311, 0.02841472134765878, -0.13870950744180427, -0.04038514401284971, -0.12953558708674554, -0.06712908123902617, -0.12293506817440485, -0.07975398899079629, -0.10600183373441113, -0.10282548494613732, -0.04623024841025636, -0.14235658949598384, 0.02585204691955316, -0.1481822952773022, -0.12907595097672683, 0.0002942277436453673, -0.1360869613253248, 0.02747751934920406, -0.13319129360408705, 0.0556969581982436, -0.1292228323101213, 0.0664475200763286, -0.12666247428999708, 0.07159035144762071, -0.12045136688883529, 0.08127282267103675, -0.09938674193606087, 0.10081383099780342, -0.07273928036322667, 0.11178981918693731, -0.04198258386471539, 0.129934146910356, -0.044102430934449384, 0.14057136628761585, -0.04440755707423194, 0.14693608709242756, -0.04402417344123076, 0.14818033254030405, -0.04372733862109882, 0.14851459154155477, -0.04292988433995526, 0.14860241774364616, -0.039829920850213904, 0.1454474910876191, -0.03537897933842976, 0.13766238738066358, -0.10657814640965309, -0.07448126338330384, -0.08828072351868516, -0.11110132663987035, -0.05637793176648565, -0.13994898122919028, -0.04061060456877074, -0.14808706745495037, -0.032245839335630924, -0.15128784158638683, -0.014794262918366786, -0.15582470278267532, 0.030592885072310717, -0.15560426183968848, 0.07304713491888609, -0.1389236640882967, 0.03573546076922034, -0.1454095482811786, -0.03600963508250869, -0.14354176560876697, -0.09692085044144297, -0.10762465249558073, -0.11463757549873596, -0.08579877723016453, -0.12168630884796282, -0.07374513834739894, -0.1318533782828532, -0.04803484007564161, -0.1332460865307365, 0.018839523079846744, -0.10298361307871992, 0.07546186635518026, -0.12657369610581634, 0.0024108136397557357, -0.1316649386987412, 0.030800145011783037, -0.1272357408870476, 0.05995226822690715, -0.12279631612886781, 0.07105692006805489, -0.12003197581814339, 0.07638189231542934, -0.11347322207052744, 0.08644987234040633, -0.09183332723049872, 0.10716559965599856, -0.06483497500036389, 0.11973264048478906, -0.10159738082775222, 0.08752680591705533, -0.13682583525432426, 0.02896407764093561, -0.13833200470809257, -0.04168296959909865, -0.12860363248711124, -0.06908333782092742, -0.12161942667767489, -0.081969237686185, -0.10374120034874812, -0.1053728368877581, -0.041068150257156794, -0.14424936426278714, 0.033344599800537646, -0.1470387986124259, -0.12819417313295742, 0.0001138148916511089, -0.1356118517291599, 0.027941234548466632, -0.13260805807756876, 0.05690873946043288, -0.128446396262197, 0.067920067975471, -0.12575995293072348, 0.0731754381287908, -0.11924424577652672, 0.08303640802576402, -0.09719903803176039, 0.10266982846292105, -0.06949501505717909, 0.11313079200717578, -0.03752487187014246, 0.1308592441583622, -0.03945831706640616, 0.14211653812411784, -0.03962019472236275, 0.14882644994150043, -0.03919426031715235, 0.1501205160601961, -0.03887980147341599, 0.15045992865124938, -0.03805509467882241, 0.1505182822458199, -0.03494051606243023, 0.14706263097304031, -0.030566215273845534, 0.13868336035306672, -0.10453143429110176, -0.07593666275534534, -0.0852278207361079, -0.11322037572521455, -0.051701570421921784, -0.14207820745844182, -0.03520272200949696, -0.14994928310643427, -0.026472329268562494, -0.15295092245062716, -0.008314776376719043, -0.15695519403518696, 0.03845079613003448, -0.15465796686528294, 0.0812663981661862, -0.13510168922916224, 0.04319309594852314, -0.14369389731306736, -0.03060842012333479, -0.14500527617434794, -0.09428258449050522, -0.10998979299311948, -0.11293296090837596, -0.08794077415263428, -0.1203691504041223, -0.07568015800704854, -0.1311164116397782, -0.049417476793716705, -0.1326879999409068, 0.019092820831704646, -0.10105564901610929, 0.0765927276639261, -0.12558943571774372, 0.0022778164010152477, -0.13098992959672806, 0.031314225771278834, -0.1263748818067372, 0.06119284662815749, -0.12172070240924304, 0.07254758344358984, -0.118821679981809, 0.07798014625382287, -0.11194521833790935, 0.0882185068788924, -0.08930961662062417, 0.10902386292280299, -0.061244851166915, 0.12110390851828932, -0.09958911294883017, 0.0889860776533744, -0.13646359110951167, 0.029492571051971457, -0.13793672883232402, -0.04299675204671028, -0.1276342326274657, -0.07104455645798843, -0.12025453380113203, -0.08418274068331573, -0.10140694573120808, -0.10789005243677996, -0.03580806247556634, -0.14596943347682192, 0.04081507521045607, -0.14551939828144772, -0.12728375786300847, -8.150835586774808e-05, -0.13512134512503243, 0.028379848468988687, -0.13201279227816656, 0.058093372561151886, -0.12765572975206996, 0.06936352378676257, -0.12484150629748399, 0.07472972301153018, -0.11801708257200363, 0.08476378252016802, -0.09498288467022324, 0.10446164103493343, -0.06623212869809071, 0.11436006230295548, -0.03305992788468165, 0.13162055989015092, -0.034776286928646545, 0.14350918160650236, -0.034777081834553546, 0.15057045000077215, -0.03430561664047358, 0.151914547966912, -0.03397299328829836, 0.15225868419482239, -0.03312190250179597, 0.15228563867928904, -0.030006458711875458, 0.14851892206045778, -0.025738700061379495, 0.1395304296392474, -0.10243341084626967, -0.07734401056889727, -0.0820977059310986, -0.11526026338391884, -0.04692178284107388, -0.14406166026062317, -0.029688260169657307, -0.15162651048441889, -0.020593567315741385, -0.1544068924071898, -0.001740187380478601, -0.1578301776754621, 0.046321476043889344, -0.15332532466180576, 0.08932052114064246, -0.13079307015603536, 0.05059779545834641, -0.14159536254568916, -0.025123547344880988, -0.14627672135874462, -0.09156945127142097, -0.11230702513300828, -0.11117380588589806, -0.09006652449703063, -0.11900785869915188, -0.07760957245436345, -0.13035349516044012, -0.05080760107927691, -0.13212074308899108, 0.01932543169385434, -0.09911074379151733, 0.07766167419506234, -0.12457749101115666, 0.0021295382337156456, -0.13029869421792747, 0.031801479282871914, -0.12549952431956188, 0.06240162351018108, -0.12062813391118762, 0.07400313159154145, -0.11759270889129789, 0.07954090076918467, -0.11039455945447192, 0.08994296840672025, -0.08675584330827345, 0.11080769637390571, -0.05763512176780565, 0.12235211445399795, -0.0975618236592297, 0.09038251789376567, -0.1360975204981421, 0.029999454833508295, -0.13752293779774558, -0.044327151348398756, -0.12662623008892387, -0.07301285943415287, -0.11883913363879842, -0.08639418074499552, -0.09899803874802782, -0.11037559899515638, -0.030454030706412567, -0.14751170480895134, 0.048245944017803, -0.14362174197715646, -0.12634425945119185, -0.00029208766126690046, -0.13461517440913115, 0.028792318453193338, -0.13140586137788024, 0.05924962326487859, -0.12685149058471923, 0.07077666764742604, -0.12390794774724699, 0.07625200206674237, -0.11677103362759499, 0.08645378304650095, -0.09274067238125346, 0.10618830886737368, -0.06295513403678206, 0.11547754323788931, -0.028594619357315772, 0.13221903823098693, -0.030062212241096575, 0.1447488916590569, -0.029883479635626705, 0.15216700070822267, -0.029363430550017347, 0.1535612309392537, -0.029012107385402188, 0.15390963920313708, -0.02813559677478419, 0.1539032941010944, -0.02503374598784507, 0.14981568545257348, -0.020903620099503736, 0.14020422403349037, -0.10028448708385641, -0.07870156300911807, -0.0788911137581414, -0.11721773231195638, -0.04204128256727699, -0.1458937524972537, -0.024071561411278027, -0.15311220393377814, -0.014614939361416104, -0.15564879264489376, 0.004921539483509083, -0.1584421339430437, 0.054187844755902756, -0.15160048565049491, 0.09718181208484541, -0.12600133895230253, 0.05793107006737507, -0.13911304286462134, -0.019560251027706515, -0.14735123818550727, -0.08878106704983675, -0.11457443364037233, -0.10935925994307702, -0.09217528617089706, -0.11760157609402799, -0.07953309066867037, -0.1295640204162642, -0.052205525805099004, -0.13154482511058121, 0.019536760152392398, -0.09715130343484063, 0.07866845577937419, -0.12353769762979433, 0.001965667218192955, -0.12959131035413274, 0.032260997256388466, -0.12461037424083789, 0.06357753143379201, -0.11951961190049322, 0.07542250543574794, -0.11634622363890913, 0.08106310749899209, -0.10882276405735501, 0.09162223776418002, -0.08417481924007325, 0.11251626034090374, -0.05401078295093575, 0.12347725419291194, -0.09551800782997824, 0.09171572264297119, -0.13572816689858314, 0.030483960730476205, -0.1370898453900049, -0.045674851153947676, -0.12557840445697865, -0.07498836029161496, -0.11737190610430069, -0.08860321035666648, -0.09651340688382655, -0.11282786903015311, -0.025010286130691325, -0.1488710537468023, 0.05561934036339597, -0.14134413708905125, -0.12537521237514335, -0.0005182593455820494, -0.13409305491535836, 0.02917756936583667, -0.1307876502365658, 0.06037620914396048, -0.12603437301590054, 0.07215823798282112, -0.12296013481732956, 0.07774103568076765, -0.11550731257187294, 0.08810522893013023, -0.09047485832856683, 0.10784893435986481, -0.05966855488187451, 0.11648334537654179, -0.024135754358208333, 0.1326559581685669, -0.025321996302274493, 0.14583553634543134, -0.02494472336259513, 0.15361525377250926, -0.024372970704343116, 0.15505960168849808, -0.024002418823900036, 0.15541180886761455, -0.023101546539747626, 0.155370294564803, -0.020028423800188773, 0.15095251950994074, -0.016068126122485406, 0.14070571887780497, -0.09808510713138512, -0.08000753249061161, -0.07560886135313673, -0.11908942208260007, -0.037063009349406616, -0.1475687696098764, -0.018357281868328978, -0.15439971855985707, -0.008542193423472256, -0.15666959311458042, 0.011661977967445553, -0.15878356356089168, 0.062032202274767134, -0.14947811532181776, 0.10482227683225274, -0.12073140483171153, 0.06517414071512037, -0.13624677604150537, -0.013923970461285273, -0.14822398385976152, -0.08591703316709835, -0.11679003592757689, -0.10748842834029101, -0.09426628348756404, -0.1161493980741112, -0.08145040594426338, -0.12874734355034625, -0.05361157641149507, -0.13096077607841974, 0.019726201187423978, -0.09517975741448059, 0.07961292199939576, -0.122469877274445, 0.001785901941890168, -0.12886784631746512, 0.032691851107403955, -0.12370816026052377, 0.06471947604367097, -0.1183961744732608, 0.07680462733122835, -0.11508342849330495, 0.08254570618667316, -0.1072314045248217, 0.09325530233521684, -0.08156941575582968, 0.11414879976921387, -0.05037683729236222, 0.12447954012385529, -0.09346019678703547, 0.0929853801406214, -0.1353560988835674, 0.03094529709486467, -0.13663661792207107, -0.04704056010813071, -0.1244894683220849, -0.07697116273693941, -0.11585146320964362, -0.09080944917108306, -0.09395193463930654, -0.11524517487878075, -0.019481253534409753, -0.15004232267272055, 0.06291707354909304, -0.138685572986493, -0.12437613002312514, -0.0007603491011898668, -0.1335546826645385, 0.02953449247768214, -0.13015856380406524, 0.061471797142930364, -0.1252051091645644, 0.07350692938896496, -0.12199897105281649, 0.07919554688185804, -0.11422719263649307, 0.08971692114585449, -0.08818796678162122, 0.1094426844024648, -0.056376918721815245, 0.11737777862364601, -0.019690065994064105, 0.13293293320075694, -0.020561564214489916, 0.1467692630306192, -0.01996621580218309, 0.15491460846185784, -0.019339580274470084, 0.15640894076387388, -0.018949278425537286, 0.15676445245813947, -0.018025194599298782, 0.1566859349658743, -0.014996577333652828, 0.1519293075313058, -0.011239317825693835, 0.1410362376668501, -0.095835750645678, -0.0812600852555678, -0.07225185568183812, -0.12087186484854469, -0.031990145542786716, -0.1490808685912591, -0.012550411461696711, -0.1554823135454489, -0.0023814610771491066, -0.1574621988471821, 0.018472217469159724, -0.15884700171875493, 0.06983622031472991, -0.14695343301559766, 0.1122136644614766, -0.11498960091506168, 0.07230795471800747, -0.13299716119149754, -0.008220357225426793, -0.14889013684932126, -0.08297693545067455, -0.11895177742568079, -0.10556036936699595, -0.09633870453616075, -0.11465037014982526, -0.08336119449435732, -0.12790278259753493, -0.05502609165242121, -0.13036914759185098, 0.019893138953737906, -0.09319855612468309, 0.08049502362138825, -0.12137383628322507, 0.0015899524636029346, -0.12812835924267055, 0.03309309083329975, -0.12279363407963789, 0.06582633397232329, -0.11725889748238563, 0.07814839928917841, -0.11380557213077705, 0.08398762321516696, -0.1056221085120913, 0.09484115543272008, -0.07894256310844426, 0.11570464607175268, -0.046738285859839974, 0.12535940242372132, -0.09139095659363748, 0.09419127236739687, -0.1349819109378291, 0.03138264680796068, -0.1361623706240786, -0.048425013226939505, -0.12335806292488799, -0.07896135936555317, -0.11427634503584283, -0.093012481154947, -0.09131246183630046, -0.11762574307729742, -0.01387155998721658, -0.15102031988262724, 0.07012064036258912, -0.13564574382397826, -0.12334650326466982, -0.0010186705384773946, -0.1329997323854307, 0.02986194435747857, -0.12951902742690205, 0.06253500101066398, -0.12436447040724787, 0.07482139038388223, -0.12102540785035605, 0.08061421944912604, -0.11293200904875951, 0.09128764146329728, -0.08588258961892842, 0.1109687926527708, -0.05308474928014777, 0.11816135394720347, -0.01526419677034693, 0.13305191043081077, -0.015786852799407596, 0.14755050451820956, -0.014953420440272987, 0.15606472117876333, -0.01426867053453698, 0.15760878269202883, -0.013858106390387141, 0.1579670835815099, -0.012912050787265749, 0.1578497692047767, -0.009944321220915637, 0.15274622548532898, -0.006424228343335606, 0.1411974531718527, -0.0935369354457682, -0.08245733877311269, -0.0688211015349749, -0.12256148089736768, -0.026826133649269408, -0.1504240773838216, -0.00665629512774914, -0.1563531563252823, 0.0038607199285953277, -0.15801945737971318, 0.025342839346520256, -0.15862503369843478, 0.07758093457990303, -0.1440222531927167, 0.11932751596158356, -0.10878373157136935, 0.07931320252666287, -0.12936558166402112, -0.0024552830541041994, -0.14934489800024617, -0.07996034361057211, -0.12105752649086098, -0.10357409139632047, -0.09839169826461268, -0.11310348447873447, -0.08526511386746763, -0.12702961452612818, -0.056449424349345786, -0.1297705133695249, 0.020036945302801663, -0.09121016840784185, 0.08131481392153532, -0.12024936406001904, 0.0013775414020142747, -0.12737289318597728, 0.03346374385448973, -0.12186757047700425, 0.06689695058703674, -0.11610889546557948, 0.07945270104627196, -0.11251394889958896, 0.08538776999623034, -0.10399656056663797, 0.0963787955776274, -0.07629725004951457, 0.11718321895330666, -0.04310012028021094, 0.126117490094142, -0.0893128863847945, 0.09533327644946517, -0.13460622427116845, 0.03179516499025172, -0.13566616366263864, -0.0498289733040176, -0.12218275341547961, -0.08095903017292609, -0.11264501537311267, -0.09521185139485391, -0.08859378183504457, -0.11996770815968864, -0.008186044205797277, -0.15179981854262833, 0.0772112378345039, -0.1322250719286738, -0.12228579886044061, -0.0012935235421889604, -0.13242785527826892, 0.030158745782957637, -0.1288694870362743, 0.06356437859227848, -0.1235132687378093, 0.07610022101628289, -0.12004044630515259, 0.08199569589195645, -0.11162316148295238, 0.09281615151040457, -0.08356138686396672, 0.11242656184199938, -0.04979655901609648, 0.11883478488448222, -0.01086468292483432, 0.13301516911553152, -0.011003800199888692, 0.1481799851680552, -0.009911854205582413, 0.1570655153325563, -0.009165714030736282, 0.15865892646370686, -0.00873438548535634, 0.15901948079363132, -0.007767684806138438, 0.1588616206797565, -0.004877789327003373, 0.1534037497973207, -0.0016298086000266698, 0.14119138808466675, -0.09118922040179797, -0.08359735891817598, -0.065317710242635, -0.1241545740594764, -0.02157469509030954, -0.15159229477101693, -0.000680655344421772, -0.15700532772068945, 0.010177381789031392, -0.1583341674104868, 0.03226389220153933, -0.1581103122952614, 0.0852467378005192, -0.14068102935755344, 0.1261352160832536, -0.102123120313792, 0.08617033503669197, -0.12535422842932342, 0.003365151650096557, -0.1495834916947037, -0.07686681063341182, -0.12310506883685728, -0.1015285496994939, -0.10042437123641418, -0.11150767618636352, -0.08716180114620216, -0.12612707197261702, -0.05788194214357217, -0.12916546984106209, 0.020156978129926343, -0.08921707912594126, 0.08207244990207418, -0.11909623133686521, 0.001148405169061499, -0.1266014769945239, 0.03380281382687321, -0.1209307672876753, 0.06793013756927944, -0.1149473225626547, 0.08071638796503625, -0.11120990010837978, 0.08674504120199016, -0.10235650381984392, 0.0978672256596335, -0.07363652348592817, 0.11858402820123606, -0.0394673148264982, 0.1267546717356679, -0.08722861676750565, 0.09641136595365758, -0.13422968761849433, 0.0321819764777122, -0.13514699775064587, -0.05125323233641391, -0.12096202369415272, -0.08296424081547492, -0.11095585700786874, -0.09740706251370669, -0.08579463967198944, -0.12226910586238446, -0.0024297666833813596, -0.15237555558287202, 0.0841697764235769, -0.12842473184217207, -0.12119345769631747, -0.001585192409150343, -0.13183867648785644, 0.03042368068447309, -0.12821040918996437, 0.0645584289728184, -0.12265235807233804, 0.07734197031934822, -0.1190451390448209, 0.08333857528684246, -0.11030211656114186, 0.09430119174268271, -0.08122708725433407, 0.1138153661052151, -0.046516841583022314, 0.11939898883042822, -0.006497938757237336, 0.1328253186737128, -0.006218335164271162, 0.14865872699986885, -0.00484707978989485, 0.1579171915218734, -0.004036237308877145, 0.15955944638079428, -0.003583653785535972, 0.15992169857857863, -0.0025977186124609528, 0.15972159312107595, 0.00019687586160157294, 0.1539026651947815, 0.0031370884416029774, 0.1410204151845438, -0.08879320861943603, -0.08467815690666966, -0.06174290919044299, -0.12564732697042888, -0.016239850316748697, -0.1525792908385856, 0.00537038395364045, -0.1574318281519409, 0.016561101416982936, -0.1583990888212636, 0.03922486609455989, -0.1572955772087746, 0.09281337363932281, -0.1369269008059997, 0.13260804856526884, -0.09501865824342842, 0.09285958145637757, -0.12096612403587803, 0.009234608573085924, -0.14960116706307752, -0.07369587218988383, -0.12509210143899852, -0.09942264300626603, -0.1024357840165384, -0.10986181936214728, -0.08905087089374035, -0.12519433963833237, -0.0593240282351234, -0.1285546367323769, 0.020252579529216743, -0.08722178679651715, 0.0827681933930874, -0.11791418825514975, 0.0009022953722183635, -0.12581412191692418, 0.03410927943385673, -0.11998404527070601, 0.06892467031573025, -0.11377537340664633, 0.08193828875106503, -0.10989481532680831, 0.08805831282396528, -0.10070374174982316, 0.09930545196571777, -0.0709634882122288, 0.11990667543694511, -0.03584481854071603, 0.12727203606078688, -0.08514080830117879, 0.0974256120652802, -0.13385297801649262, 0.03254217304158324, -0.13460380930484148, -0.05269861295536066, -0.11969427079934673, -0.08497704057810453, -0.10920716663373317, -0.09959757064167932, -0.08291373013081821, -0.12452786566513836, 0.003391979321656015, -0.1527422305318679, 0.09097689362618515, -0.12424667510240459, -0.12006889282599634, -0.001893943734437998, -0.1312317922491009, 0.030655495138465515, -0.12754228093597636, 0.06551558946517393, -0.12178263547487017, 0.07854513359675905, -0.11804059202998486, 0.08464141095757041, -0.10897041039137717, 0.09574148030429963, -0.07888248884410047, 0.11513465332964312, -0.04325006425776075, 0.11985508810847215, -0.0021702409798185322, 0.13248529616407223, -0.001436366009602702, 0.148988055788517, 0.0002353024726291272, 0.15862023803884565, 0.0011141868188565688, 0.16031070327661887, 0.0015885030512683338, 0.1606740787073666, 0.002592181668420393, 0.1604300817782579, 0.005273534249061224, 0.15424407261555095, 0.007869723614274916, 0.14068725703155902, -0.08634955096634411, -0.08569768596236807, -0.05809805223145468, -0.1270357961932048, -0.010825940369941467, -0.15337870809599838, 0.011490271971200063, -0.1576255850631887, 0.023003973786453934, -0.15820695422324188, 0.04621466564790173, -0.15617367659724854, 0.100259931600162, -0.13275774239196664, 0.1387172549433526, -0.0874828530377922, 0.09936096773701876, -0.11620514722841367, 0.015146501429317703, -0.14939319926764238, -0.07044704607630317, -0.12701622584941286, -0.09725520979837925, -0.10442494713572716, -0.10816472270616458, -0.09093191280787698, -0.12423055031416455, -0.06077608209318296, -0.1279386576381495, 0.02032307373765558, -0.08522680130975849, 0.08340241203567082, -0.1167029622495896, 0.0006389804139126573, -0.1250108189216624, 0.0343820931691148, -0.11902824783960862, 0.06987928515004367, -0.11259428396955772, 0.08311720297181725, -0.10857013368319124, 0.089326440043429, -0.09904014000763317, 0.10069248306093524, -0.06828130672275934, 0.1211508558210615, -0.0322375474084635, 0.12767089214719515, -0.08305215007360872, 0.09837618463979189, -0.1334768015442905, 0.03287481032714808, -0.1340354651043975, -0.054165969843639104, -0.11837779880689876, -0.08699745999822524, -0.10739714936416674, -0.10178278087777771, -0.07994969576482391, -0.12674180258993697, 0.009273655831982934, -0.15289450429955873, 0.0976129680079256, -0.11969365586808886, -0.11891148730575474, -0.002220024007695339, -0.13060676666325718, 0.03085289643226943, -0.12686560946010078, 0.06643423243538579, -0.12090504227455422, 0.07970814952755881, -0.11702796629697025, 0.08590270798365834, -0.10762965112767311, 0.09713571176552818, -0.07653045963837513, 0.11638394751353294, -0.04000066035424136, 0.1202044108241274, 0.0021122868859121987, 0.1319983632437718, 0.003336230739197823, 0.14916960715688513, 0.005329663184137411, 0.15917544170634373, 0.006279947486959454, 0.16091335612184723, 0.006776459996028877, 0.161277261988713, 0.007796314316269635, 0.16098778497132088, 0.010346059548419734, 0.15442939718218623, 0.012561487436579205, 0.14019498519193424, -0.08385894999539098, -0.08665383768970003, -0.05438463110065672, -0.12831590721093494, -0.00533765002082029, -0.15398406336446838, 0.017672004051504858, -0.1575794617155602, 0.02949758375523864, -0.1577504822063241, 0.053221581998056065, -0.15473759101585013, 0.1075648430875309, -0.12817221752605062, 0.1444340971695567, -0.07952987848522189, 0.10565433557546536, -0.11107605833359946, 0.021093984984060274, -0.1489548908821126, -0.06711983171715537, -0.12887494085659038, -0.09502502432466216, -0.10639081657551268, -0.1064151248019142, -0.09280448903631947, -0.123234780496745, -0.06223852011934089, -0.1273182005734898, 0.020367764848429646, -0.08323464174463176, 0.08397558014217509, -0.11546225571819044, 0.0003582473211096965, -0.12419153568563651, 0.034620180124740045, -0.11806424062370009, 0.07079267633456579, -0.11140533233896456, 0.0842518983607493, -0.1072373451397431, 0.09054825489555307, -0.09736762829586405, 0.10202732850393315, -0.06559319910649977, 0.12231635970343731, -0.028650376601309188, 0.12795276943259282, -0.08096535838863161, 0.09926335311881665, -0.13310189401277353, 0.03317890448544333, -0.13344075639959102, -0.055656191116068274, -0.11701081220347141, -0.0890255080879141, -0.10552391282545412, -0.10396204216891987, -0.07690112489565047, -0.12890860817100788, 0.01520946711140203, -0.15282699792422916, 0.10405813365807226, -0.11476925750730828, -0.1177205918046235, -0.0025636568750690507, -0.12996312805799332, 0.0310145522270552, -0.12618092147305937, 0.06731266195962526, -0.12002056503899691, 0.08082939707607978, -0.11600847961252642, 0.08712092052099518, -0.1062815215319905, 0.09848255571924844, -0.0741739382578317, 0.11756285112629751, -0.0367730216351118, 0.12044849150209659, 0.006343690041231818, 0.13136810262043613, 0.008093622036664484, 0.1492053326720511, 0.010430352936193826, 0.1595838990587883, 0.011455404487772384, 0.1613683740274002, 0.011974561364469814, 0.16173220042313838, 0.013008951095692637, 0.1613957160160645, 0.015408351109710944, 0.15446039624572183, 