{
"fixed_weights": [1.0, 0.0, 1.0, 0.0, 1.0, 0.0, 1.0, 0.0, 1.0, 0.0, 1.0, 0.0, 1.0, 0.0, 1.0, 0.0, 1.0, 0.0, 1.0, 0.0, 1.0, 0.0, 1.0, 0.0, 1.0, 0.0, 1.0, 0.0, 1.0, 0.0, 1.0, 0.0, 1.0, 0.0, 1.0, 0.0, 1.0, 0.0, 1.0, 0.0, 1.0, 0.0, 1.0, 0.0, 1.0, 0.0, 1.0, 0.0, 1.0, 0.0, 1.0, 0.0, 1.0, 0.0, 1.0, 0.0, 1.0, 0.0, 1.0, 0.0, 1.0, 0.0, 1.0, 0.0, 1.0, 0.0, 1.0, 0.0, 1.0, 0.0, 1.0, 0.0, 1.0, 0.0, 1.0, 0.0, 1.0, 0.0, 1.0, 0.0, 1.0, 0.0, 1.0, 0.0, 1.0, 0.0, 1.0, 0.0, 1.0, 0.0, 1.0, 0.0, 1.0, 0.0, 1.0, 0.0, 0.9997367171293513, -0.02294550987508026, 0.9999158978210341, -0.012969089588534967, 0.9999955258185654, -0.002991378085586329, 0.9999995001543246, 0.0009998455385256196, 0.9999955136135547, 0.0029954553515331214, 0.999975593194097, 0.00698663124215767, 0.9998561019321421, 0.01696394497343729, 0.9996370639293785, 0.026939569756247117, 0.999525416303927, 0.030804904844219855, 0.9997138044283131, 0.023922985504915516, 0.9998548098134336, 0.01703993230452052, 0.9998979432279996, 0.014286466617611675, 0.9999166664560403, 0.012909691841400431, 0.9999484257761541, 0.010156071474315955, 0.9999946478794239, 0.0032717292838615863, 0.9999934739324865, -0.003612767974468131, 0.999603920682296, -0.02814252576763674, 0.9997507596350481, -0.022325290796407365, 0.9998637452431353, -0.016507299850994635, 0.9998994596543436, -0.014179935929042814, 0.9999152853632847, -0.013016224370416746, 0.999942873680663, -0.010688749938953506, 0.9999881422682014, -0.004869838086766565, 0.9999995494728752, 0.000949238666827671, 0.9999099286308638, 0.013421424120446866, 0.9998454616883723, 0.017579895937283496, 0.9997637003750987, 0.021738063673889436, 0.9997261537327068, 0.02340122951488391, 0.9997063428650347, 0.024232788436698193, 0.9996646461052718, 0.02589585540625505, 0.999548300592238, 0.03005319921687448, 0.9994146658484304, 0.03421002319598958, 0.9995022402677325, -0.03154792702831746, 0.9995950528368633, -0.02845576117534603, 0.9996782991775455, -0.02536332299778544, 0.9997089189883208, -0.024126278105064933, 0.9997236548570733, -0.023507741686847407, 0.9997519784931025, -0.02227064209059014, 0.9998160900784159, -0.01917774805103756, 0.999870633319931, -0.01608467047844481, 0.9999611790384502, -0.00881137991648249, 0.9999814806179894, -0.006085919902012508, 0.999994353790656, -0.003360414678016034, 0.9999974230825234, -0.0022702044649664083, 0.99999851201688, -0.001725098265595244, 0.9999997984608212, -0.000634884491029785, 0.9999978145880389, 0.002090650412224123, 0.9999884021870464, 0.004816169784988535, 0.9989470071531452, -0.045878937430743706, 0.9996636054304892, -0.025935997719682732, 0.9999821033142982, -0.0059827294032360695, 0.9999980006177982, 0.001999690077514302, 0.999982054494474, 0.0059908838255256685, 0.9999023739677723, 0.013972921441610052, 0.9994244491418763, 0.033923007789064735, 0.9985485191626966, 0.0538595848293111, 0.9981021156750771, 0.061580570677243415, 0.9988553815290632, 0.047832277704804964, 0.9994192814141147, 0.034074916547140295, 0.9995917937431678, 0.02857001717389078, 0.9996666797131202, 0.025817232062055717, 0.9997937084244172, 0.020311095365624685, 0.9999785915749863, 0.006543423546343933, 0.9999738958151253, -0.007225488794600839, 0.9984159964868358, -0.05626275819046445, 0.9990031627817118, -0.04463945286556322, 0.9994550181032587, -0.03301010130573389, 0.9995978588340965, -0.028357020546766244, 0.9996611558062779, -0.0260302434113956, 0.999771501249485, -0.02137627866002236, 0.9999525693540173, -0.00973956068306526, 0.9999981978919068, 0.0018984764783398075, 0.9996397307491581, 0.02684043046880116, 0.9993818945176686, 0.03515435833969351, 0.9990549131754198, 0.04346585395519443, 0.9989047649143834, 0.04678964235106237, 0.9988255439291644, 0.0484513446109473, 0.9986588093455566, 0.05177434226057449, 0.9981936104336617, 0.060079248409173724, 0.9976593486258597, 0.06837999780217395, 0.9980094566004319, -0.06306444748121251, 0.9983805393118633, -0.05688847619116636, 0.99871340369302, -0.05071032719183374, 0.9988358454095941, -0.04823851080725212, 0.998894772161569, -0.047002490873222134, 0.9990080370017457, -0.04453023698475851, 0.9992644279593819, -0.03834844214579467, 0.9994825667511997, -0.03216517931605002, 0.9998447191679348, -0.0176220757004831, 0.9999259231578925, -0.012171614389073911, 0.9999774152263835, -0.0067207914088225585, 0.9999896923433745, -0.004540397229673694, 0.999994048071948, -0.003450191397356289, 0.9999991938433661, -0.0012697687261513722, 0.9999912583617078, 0.004181291686583412, 0.9999536090172043, 0.00963222785590443, 0.9976312859056007, -0.06878820670970899, 0.9992431652650449, -0.03889854330298674, 0.9999597326073077, -0.008974027185252162, 0.9999955013919197, 0.00299953261743011, 0.9999596227635235, 0.008986258544678237, 0.9997803458951207, 0.020958529572299392, 0.9987051658572078, 0.05087230769413863, 0.996735155844275, 0.08074050473020858, 0.9957314490639965, 0.0922977862405904, 0.9974252226559149, 0.0717141911325688, 0.9986935412709427, 0.05110000610277864, 0.9990816140347608, 0.042847736202712365, 0.9992500814358022, 0.03872046939982508, 0.9995358639036441, 0.03046402419897553, 0.9999518312585574, 0.009815047766442682, 0.9999412659034526, -0.010838115306678164, 0.9964371684380291, -0.08433842158353973, 0.9977575821026158, -0.06693136302767215, 0.9987739299624043, -0.049503907193818156, 0.9990952581853602, -0.04252840311519456, 0.9992376543859661, -0.03903985216714605, 0.9994859022862184, -0.03206136508484928, 0.9998932821010759, -0.014609052301167123, 0.9999959452583126, 0.0028477125792216455, 0.9991894550290695, 0.040254601708514394, 0.9986094417656647, 0.052717955351735186, 0.9978739733732626, 0.06517310230652815, 0.9975362834135537, 0.0701524288494292, 0.9973581204981734, 0.07264144461910907, 0.9969831643434042, 0.07761810366024578, 0.995937153349756, 0.09005102207962255, 0.9947361032265223, 0.10246992211236261, 0.9955231350932956, -0.09451818604911985, 0.996357443052613, -0.08527511755288912, 0.9971059343617656, -0.07602470427795295, 0.9973812875341009, -0.07232266088038396, 0.997513810028901, -0.07047126223948033, 0.9977685445529091, -0.06676774296596795, 0.9983452165551722, -0.057505030922575966, 0.9988359006995735, -0.04823736594873134, 0.9996506294306222, -0.026431403272637325, 0.9998333296774892, -0.018256858054582204, 0.9999491844984598, -0.010081092245638582, 0.9999768078223963, -0.006810566593923035, 0.9999866081784888, -0.005175274261464214, 0.9999981861478784, -0.0019046524494566667, 0.9999803313496626, 0.006271914685252972, 0.999895621297523, 0.014448062501266332, 0.9957902462004518, -0.09166125447561567, 0.9986546480445693, -0.051854545981789964, 0.9999284138977753, -0.011965244664416601, 0.9999920024791877, 0.003999372158739104, 0.9999282186219781, 0.011981552632173743, 0.9996095149327732, 0.027943114641462156, 0.9976984590850861, 0.06780696674564321, 0.9941982902440285, 0.10756281734805248, 0.99241566663013, 0.12292739575487054, 0.9954241464191408, 0.09555505599247413, 0.9976778001246108, 0.06811025721957777, 0.9983675082373672, 0.057116709428245184, 0.9986669410573079, 0.0516172533097167, 0.999174918810097, 0.040613810715519796, 0.9999143672165863, 0.013086566923903217, 0.9998955846233581, -0.01445060035821107, 0.9936690040816026, -0.1123472755676609, 0.9960146384957264, -0.0891899091950856, 0.9978206664235704, -0.06598422279622533, 0.9983917587714205, -0.05669123404292403, 0.998644852855887, -0.052042846429108953, 0.9990861094212982, -0.04274278841411577, 0.9998102819154018, -0.01947819745882095, 0.9999927915741224, 0.003796946114159962, 0.9985591825844989, 0.05366152137404778, 0.9975283421794489, 0.07026525847615181, 0.9962214390798915, 0.0868495498986045, 0.9956214587373193, 0.09347679338623208, 0.9953049344107825, 0.09678888127025766, 0.9946388349669698, 0.1034098059931893, 0.9927809678211776, 0.1199414437633879, 0.9906483518011494, 0.13643988813270916, 0.9920457509277788, -0.12587782992306273, 0.9935274025532942, -0.11359269508073354, 0.9948569254321943, -0.10129016694428597, 0.9953460921501972, -0.09636470744692303, 0.9955815317034253, -0.0939010848236669, 0.9960341159881625, -0.08897212927473226, 0.9970587939699813, -0.07664046820790192, 0.9979308024791327, -0.06429707196563654, 0.9993789248960129, -0.03523867865981123, 0.9997037036063274, -0.02434142550863324, 0.9999096619256782, -0.013441279242540134, 0.9999587695859935, -0.009080700857636214, 0.9999761923586432, -0.006900341724130653, 0.9999967753747642, -0.00253953540503778, 0.9999650335996634, 0.008362510270487787, 0.9998144403730639, 0.01926356201477537, 0.9934248574661357, -0.11448603656511114, 0.9978981527602235, -0.06480182649998048, 0.9998881474659521, -0.014956355074229965, 0.9999875038831001, 0.004999207701910343, 0.9998878423516201, 0.014976739211918607, 0.9993898894196062, 0.03492633570627416, 0.9964046185518302, 0.08472211121414379, 0.9909397638020223, 0.1343070531133498, 0.9881579156060434, 0.15344032659349874, 0.9928532982170561, 0.11934122598462482, 0.9963723529264125, 0.08510073045447128, 0.9974496221096519, 0.07137402435979495, 0.9979173557679463, 0.06450543432231279, 0.9987109103747018, 0.050759407980533904, 0.9998661998500971, 0.016357945999595547, 0.9998368525710806, -0.01806289679855688, 0.9901136962428557, -0.1402671326872766, 0.9937752007848448, -0.11140399591146347, 0.9965954872601401, -0.08244655707016449, 0.9974875020524261, -0.07084266545812078, 0.9978828516539733, -0.06503702310941413, 0.9985721683321142, -0.05341932826702168, 0.9997035707653829, -0.024346880681992006, 0.9999887368421778, 0.0047461762278438475, 0.9977490269544504, 0.067058774306181, 0.9961389299016306, 0.08779084425174645, 0.9940980912817736, 0.10848495245855304, 0.9931613396208605, 0.11674996138114026, 0.9926671915324796, 0.12087947243026559, 0.9916273935762272, 0.12913215056374702, 0.9887279051421947, 0.14972351048892515, 0.9854008797507658, 0.17025012830073494, 0.9875807659075041, -0.15711215996716377, 0.9898927098476504, -0.14181827452932597, 0.9919678239203507, -0.12649045935059391, 0.9927314440713456, -0.12035065414039446, 0.993099005136602, -0.11727900919044033, 0.9938056116586785, -0.1111323815803474, 0.9954056333755628, -0.0957477156082313, 0.9967675062689813, -0.08034014218506502, 0.9990296266597694, -0.04404321804820651, 0.9995370497455965, -0.030425091386368924, 0.999858847954344, -0.01680131445488878, 0.9999355777271323, -0.011350788320915912, 0.9999628006434083, -0.008625388651613077, 0.9999949615245922, -0.0031744173369871336, 0.9999453651785741, 0.010453069304662664, 0.9997100681268694, 0.024078614697906273, 0.9905363652353247, -0.1372505342298945, 0.9969738066578113, -0.07773820706855177, 0.9998389336721567, -0.017947331649150924, 0.999982005608154, 0.005999038247416881, 0.9998384943147364, 0.01797179140878388, 0.9991214800763341, 0.041907851890493196, 0.9948240166197457, 0.10161287298642725, 0.9869619417918223, 0.16095379913041974, 0.9829622373101725, 0.18380761687748415, 0.9897141495804028, 0.14305908611598256, 0.994777578752592, 0.10206649210750156, 0.9963281430046056, 0.08561677088628304, 0.9970014504989144, 0.07738286440201539, 0.9981438864592085, 0.06089976949140905, 0.9998073296746849, 0.019629149975889146, 0.9997650705131983, -0.0216749574795347, 0.9857740612895942, -0.16807587598647017, 0.991040385286516, -0.13356254988264515, 0.9950987263450917, -0.0988864238729278, 0.996382669856943, -0.08497985178117277, 0.9969517798855347, -0.07802018061414778, 0.997944137737792, -0.06408976482071689, 0.9995731511817235, -0.029214986507600543, 0.9999837810661323, 0.0056954020649654736, 0.9967591340825778, 0.0804439470870855, 0.9944416343670649, 0.10528929592964702, 0.9915049334714856, 0.1300690851113548, 0.9901572734530516, 0.13995918629378673, 0.9894464410472978, 0.14489906935117355, 0.9879508599683747, 0.1547678851950524, 0.9837816268448306, 0.1793703171724306, 0.9789998301245727, 0.20386106203995366, 0.982132625011968, -0.18819008179790236, 0.9854563086526819, -0.1699289961620152, 0.9884404886788996, -0.1516093675872904, 0.9895388654463619, -0.14426653725353902, 0.9900676023967487, -0.1405921145880997, 0.9910841369984609, -0.13323750744447316, 0.9933863428371872, -0.11481974509882195, 0.9953463130526563, -0.096362425729552, 0.9986027618420784, -0.05284433783645302, 0.9993333742679497, -0.03650763035632443, 0.9997967431582698, -0.020161159939760094, 0.9999072323653395, -0.013620817284106015, 0.9999464330726372, -0.010350409910230066, 0.9999927445980935, -0.0038092979893975605, 0.9999213261723618, 0.012543582650312163, 0.999582506979919, 0.028893108862498285, 0.9871262904890715, -0.15994276046537761, 0.9958817652163753, -0.09066151173191626, 0.999780772956772, -0.02093814762483575, 0.9999755076598459, 0.00699886279573677, 0.9997801749541159, 0.020966682348846397, 0.9988043000049865, 0.048887322401098415, 0.992957108179961, 0.11847439096652625, 0.9822677116036085, 0.1874837132686736, 0.976833563310936, 0.21400044296510137, 0.986008497330058, 0.16669506049346833, 0.9928939406942691, 0.11900261565446928, 0.9950032998313028, 0.0998420418702396, 0.9959193779014764, 0.09024739730505325, 0.9974739055512536, 0.07103384928559636, 0.9997377573205103, 0.022900143837027792, 0.9996802393866205, -0.02528673525604079, 0.980653536901121, -0.19575147652909727, 0.9878115552535653, -0.15565452549647357, 0.9933307915600141, -0.11529934318440706, 0.9950774843453929, -0.09909995029688093, 0.9958517953013849, -0.09099011921636703, 0.9972020893924842, -0.07475287894966934, 0.9994190262573847, -0.03408239948626006, 0.9999779242504514, 0.006644622770220866, 0.9955896822908933, 0.09381462847508427, 0.9924369801701245, 0.1227552051474967, 0.9884431911734632, 0.15159174721211038, 0.986610905538506, 0.1630917566049533, 0.9856445745479567, 0.16883356498095187, 0.9836117000231412, 0.18029981580019977, 0.9779466013910406, 0.2088550809238623, 0.9714526964284741, 0.2372333420955979, 0.9757067519714774, -0.21908065673917868, 0.9802217919845453, -0.19790209326484354, 0.9842771892011377, -0.17663073010749755, 0.9857702148732784, -0.16809843386745316, 0.9864889989107126, -0.16382751608975854, 0.9878710419760021, -0.1552765417738556, 0.9910016650899837, -0.13384954160877768, 0.9936675905402543, -0.11235977709983892, 0.9980983635855455, -0.06164135468868498, 0.9990926847172747, -0.04258881712877418, 0.9997233482387692, -0.023520777756372135, 0.9998737336467025, -0.015890776047851905, 0.9999270896950395, -0.01207540036637659, 0.9999901245961619, -0.00444417710636241, 0.9998929166860968, 0.014634041170170545, 0.9994317598910735, 0.033706932833345825, 0.9831964288559129, -0.18255076632263117, 0.9946222121220448, -0.10356956673391078, 0.9997136658402414, -0.023928776238377823, 0.9999680100446718, 0.007998680347354058, 0.9997128847930449, 0.02396138515962993, 0.9984383646882682, 0.055864406544925714, 0.9908044305215105, 0.1353018124747238, 0.976860480648299, 0.213877538202529, 0.9697777107458508, 0.24399014681035133, 0.9817384625485502, 0.19023562009468356, 0.9907219857229659, 0.13590418317749947, 0.9934753630081788, 0.11404693374118977, 0.9946713183215211, 0.10309688893718996, 0.9967010367583279, 0.08116060204849627, 0.9996574835322924, 0.026170892569504386, 0.9995823602985745, -0.028898182986663933, 0.9747561793450481, -0.22327201084919795, 0.9840903201955448, -0.17766891032881968, 0.9912921646839562, -0.1316808423279418, 0.9935722079653808, -0.11320012172607431, 0.9945830842711124, -0.10394464142879807, 0.9963461080771723, -0.08540745236495334, 0.9992411996475103, -0.03894900418501527, 0.9999711664004123, 0.007593837488310674, 0.9942408822476452, 0.10716840983901954, 0.9901255869025591, 0.14018317360105237, 0.9849143113648197, 0.17304276716685724, 0.9825241781964553, 0.18613500277857478, 0.9812638249249039, 0.19266890224877362, 0.9786128240489019, 0.20571081791445237, 0.9712281001359081, 0.23815116524257116, 0.9627683138526676, 0.2703279005972031, 0.968309543867721, -0.249753132622368, 0.9741933992485909, -0.2257149105851791, 0.9794806041607974, -0.20153844812541205, 0.9814276863173379, -0.1918324699569837, 0.982365172537877, -0.18697237171471912, 0.9841679204246406, -0.17723855225948493, 0.9882524772657472, -0.15283010560133076, 0.9917317730732915, -0.12832805724745244, 0.9975164710526211, -0.07043358558759644, 0.9988149900084153, -0.04866842646407636, 0.9996386640246481, -0.026880129966513882, 0.9998350817438683, -0.01816065291316077, 0.9999047705681804, -0.01380035488653929, 0.9999871015198531, -0.005079054431975652, 0.9998601368439519, 0.0167244357272117, 0.9992578303570058, 0.03851997495078889, 0.9787488496663527, -0.20506264720029163, 0.9931953592371396, -0.11646020088343152, 0.9996376129230633, -0.026919190728547097, 0.9999595127701271, 0.008998489902759784, 0.9996366244353028, 0.026955872970346278, 0.9980236919888037, 0.06283876374529816, 0.9883666031767059, 0.1520902946441358, 0.9707441738842056, 0.24011611538976552, 0.9618013768000958, 0.273748263164244, 0.9769064893659705, 0.21366729051180236, 0.9882623445317775, 0.15276628679310827, 0.9917446444078337, 0.12822854708831158, 0.9932574797695041, 0.11592919771107396, 0.9958253598006475, 0.09127898322128115, 0.9995665091693013, 0.029441361162435755, 0.9994714345265915, -0.0325092535343007, 0.9680866602640897, -0.2506156783178596, 0.979878535076422, -0.1995947306330639, 0.9889834012621365, -0.1480264571891663, 0.9918671433989218, -0.12727753079653434, 0.9931458617515053, -0.11688155237615484, 0.9953762915899801, -0.09605226775344222, 0.999039675569341, -0.04381468519007958, 0.9999635075221044, 0.008543045363940942, 0.9927129769293667, 0.12050288559215011, 0.9875081689619951, 0.15756781471267417, 0.980919961791505, 0.19441200723965718, 0.9778993296969559, 0.2090763042007492, 0.9763067650549059, 0.2163910823209328, 0.972957584830711, 0.23098384818075432, 0.9636321925655091, 0.2672321040806842, 0.9529568489285671, 0.303105994794125, 0.9599483647653491, -0.2801769744007031, 0.9673760128058924, -0.2533449226800764, 0.9740538196885833, -0.2263164959742902, 0.976513807833751, -0.21545482846765823, 0.9776984024770189, -0.21001388952610994, 0.9799766092519514, -0.19911264479949078, 0.9851397905703121, -0.17175445564841016, 0.9895393615123258, -0.1442631346456143, 0.9968571294225607, -0.07922034788747209, 0.9985003004268401, -0.05474623318101546, 0.9995426914721963, -0.030239178634973666, 0.9997912768560422, -0.020430436181461873, 0.9998794757584808, -0.015525268337311748, 0.9999836753703859, -0.005713929710331974, 0.9998229867892022, 0.018814757184689095, 0.9990607224121204, 0.04333212357330305, 0.9737858948632241, -0.22746654911311667, 0.9916014465645329, -0.12933124591963804, 0.9995526148857871, -0.029909364336029583, 0.9999500158447063, 0.009998290462452986, 0.9995513945651564, 0.029950118912136395, 0.9975603021482653, 0.06981005355865075, 0.9856443277428365, 0.16883500581446934, 0.9639232309680157, 0.2661803989781771, 0.9529121323497609, 0.30324654659308453, 0.9715153435609735, 0.2369766596642036, 0.9855157313522308, 0.16958403007735592, 0.9898114972933748, 0.14238398725224513, 0.9916780978857795, 0.1287421849031706, 0.9948469650029315, 0.10138794910863984, 0.9994648352053487, 0.03271151460793739, 0.9993474635184894, -0.03611989976677071, 0.9606502629753799, -0.27776081841277306, 0.9751782993899173, -0.22142105681029725, 0.9864051304545522, -0.16433173343252305, 0.9899626335015775, -0.14132934681311318, 0.9915403712501311, -0.12979866016701505, 0.9942927507350003, -0.10668610891688966, 0.9988144588021137, -0.048679327109572255, 0.9999549476224285, 0.009492245541823882, 0.9910062415771054, 0.13381565362550038, 0.9845855353311312, 0.17490375529619084, 0.976462030180131, 0.21568936834368307, 0.9727388930350045, 0.23190309609195398, 0.9707763062899614, 0.2399861728225591, 0.9666497753815635, 0.25610195578084277, 0.9551657408137454, 0.29607162575250073, 0.9420297876271666, 0.33552925241044995, 0.9506315383809046, -0.3103218945475078, 0.9597751540190494, -0.280769752159505, 0.9680003273865515, -0.25094893141738844, 0.9710314400959583, -0.23895175735944973, 0.9724912680066172, -0.2329393347008654, 0.9752991875285602, -0.2208879689030856, 0.9816647499116106, -0.19061563099854947, 0.9870909231073671, -0.1601608863582053, 0.9961203898879163, -0.08800095936718913, 0.9981486276282622, -0.060822012165142714, 0.9994354316651759, -0.033597885829967526, 0.9997423192089875, -0.022700114154666877, 0.9998512053412173, -0.017250135585409766, 0.9999798461491413, -0.0063488026855268945, 0.9997814666842239, 0.020904996406175703, 0.9988404406284596, 0.048143267080089036, 0.9683101777685018, -0.24975067493388756, 0.9898407422072824, -0.1421805368766641, 0.9994586724890061, -0.03289927030366681, 0.9999395192779036, 0.010998081026941688, 0.9994571959473539, 0.032944096118311464, 0.9970482177863846, 0.07677793569114878, 0.9826383876802526, 0.18553112692255594, 0.9564026030321691, 0.29205146963042544, 0.9431184147758193, 0.33245699828811803, 0.9655681109776704, 0.26015038547542674, 0.9824829437468857, 0.18635252948767234, 0.9876763162463105, 0.15651036491593165, 0.989933435901327, 0.14153371501021705, 0.9937659532850842, 0.11148645698643331, 0.9993524627287769, 0.03598131790149822, 0.9992104488923547, -0.03973007455743182, 0.952452878285247, -0.3046859278768029, 0.9699919561129465, -0.24313700885751574, 0.9835580548645276, -0.18059222771511182, 0.987859061233515, -0.15535274422693207, 0.9897668847840787, -0.1426937762651909, 0.9930956093096349, -0.11730776091088352, 0.9985655546869483, -0.05354281457625492, 0.9999454867090977, 0.010441437166678637, 0.9891209836468413, 0.1471043157405828, 0.9813585893277009, 0.19218563721762588, 0.971542623345833, 0.23686479481403927, 0.967045694543236, 0.25460287638868173, 0.964675696747422, 0.2634403160203007, 0.9596936263983914, 0.28104829380429414, 0.9458363934631014, 0.32464367666830224, 0.929999921912778, 0.367559716566202, 0.9403683397964011, -0.3401578832080191, 0.9513969787804685, -0.3079671878096705, 0.9613240220816066, -0.2754199059052245, 0.9649837747302549, -0.26230957761269186, 0.9667466470593109, -0.2557360365681384, 0.9701379754568353, -0.24255372307287462, 0.9778286334785526, -0.2094066941371895, 0.984387091351111, -0.17601719910650612, 0.9953063096505622, -0.09677473828318628, 0.9977599846382075, -0.0668955383771141, 0.9993168858148096, -0.03695621362356757, 0.9996882090550239, -0.024969675135230105, 0.9998199594005215, -0.018974951497686646, 0.9999756138576626, -0.006983673101656855, 0.999735576710494, 0.022995144255603922, 0.9985969901155969, 0.05295329387366189, 0.9623245817072171, -0.27190329060537244, 0.9879135423235339, -0.15500591244777445, 0.9993557865733508, -0.03588888187669522, 0.9999280230802121, 0.011997860596743916, 0.9993540294271184, 0.03593777772459397, 0.996487463899849, 0.08374207001529872, 0.9793496480868884, 0.20217385288925924, 0.948187749090969, 0.31771054825705997, 0.93242951995564, 0.3613518926410857, 0.9590681957593198, 0.28317520351005854, 0.9791648623777387, 0.20306691578094188, 0.9853395370860114, 0.17060479669436232, 0.9880237845938786, 0.15430165610514032, 0.9925824361517865, 0.12157346520924993, 0.9992293929424481, 0.039250736042355266, 0.9990603924365207, -0.043339730785795165, 0.9435009998227614, -0.3313696777519778, 0.9643220905376918, -0.2647317617910923, 0.9804429503472473, -0.19680350889754264, 0.9855568495824998, -0.16934490320354445, 0.9878257028338715, -0.15556471586053106, 0.9917850040904505, -0.1279160101836564, 0.9982929691267214, -0.05840503225026762, 0.9999351247906367, 0.011390619383232064, 0.9870575427541004, 0.16036647808141608, 0.9778283283252784, 0.20940811905127146, 0.9661640661965902, 0.25792827916006167, 0.9608228523439623, 0.2771632125907271, 0.9580085194023276, 0.2867397369611685, 0.9520938034245021, 0.3058061305478774, 0.9356525786349232, 0.3529224448711341, 0.9168813347678844, 0.3991598902122592, 0.9291689862257977, -0.3696552380747816, 0.9422482725267396, -0.3349152025817505, 0.9540291993195638, -0.2997136747725605, 0.9583743324577465, -0.28551469119148465, 0.9604677146312933, -0.2783913956122577, 0.964495533219968, -0.2640991601628634, 0.9736328522708831, -0.22812073333843355, 0.9814285658150331, -0.19182797033344004, 0.9944149519172536, -0.10554100342239565, 0.997334385851532, -0.07296658686102545, 0.9991870552597668, -0.04031412409213025, 0.999628946673026, -0.027239107426208848, 0.9997857380293804, -0.02069971094114846, 0.9999709784976559, -0.007618540702819332, 0.9996853170685895, 0.025085191597305535, 0.9983303765205196, 0.057762092382439505, 0.9558322584891971, -0.29391273131907847, 0.9858201710767067, -0.16780521534890583, 0.9992439580594817, -0.03887817230298563, 0.9999155272631245, 0.012997628172388675, 0.9992418959301392, 0.038931136869358764, 0.9958780678610809, 0.09070211658655108, 0.9757790554492902, 0.21875839400235825, 0.9392846320780359, 0.34313900964773564, 0.9208555934396445, 0.3899038035604682, 0.9520193183998251, 0.3060379345661781, 0.9755624507504956, 0.219722335427436, 0.9828016367807536, 0.18466440572311613, 0.9859494622394568, 0.1670438801923794, 0.9912965356809934, 0.13164793331784969, 0.999095627163731, 0.042519734033868314, 0.9988972961095447, -0.04694882133814027, 0.93380171889575, -0.3577909302754091, 0.9581715289828837, -0.28619455104282265, 0.9770606657983284, -0.21296115925146356, 0.9830564614788425, -0.18330301018995032, 0.985717154292557, -0.16840929823909145, 0.9903610848175515, -0.13850964471473715, 0.9979967085859259, -0.0632658648218641, 0.9999238618763824, 0.012339791336219489, 0.9848162906127752, 0.17359975156576063, 0.9739958434450137, 0.22656587773059841, 0.9603289006344766, 0.2788698667948501, 0.9540737746413996, 0.29957174857037466, 0.950778689983073, 0.3098707515627629, 0.943855403720363, 0.33035886073763876, 0.9246234963754643, 0.38088238335529756, 0.902689383706638, 0.4302927800269604, 0.917044626843564, -0.39878459395687343, 0.9323364447431506, -0.361591971431477, 0.9461205526013873, -0.32381460736854595, 0.9512069610447198, -0.30855358895995494, 0.9536579410275231, -0.3008928904363567, 0.9583746597120102, -0.2855135927095042, 0.9690789495801878, -0.24675086520731765, 0.9782161119683864, -0.20758910926504112, 0.9934463858947192, -0.11429907415513346, 0.9968718470318886, -0.0790349327527446, 0.9990459414661486, -0.04367157931672464, 0.9995645323684225, -0.029508399331323647, 0.9997485413296356, -0.022424408782969335, 0.9999659400709896, -0.008253405233112935, 0.9996306879781867, 0.027175129296051623, 0.9980406060274969, 0.06256955106333059, 0.9488366267494297, -0.31576740765754063, 0.9835609805809672, -0.18057629268153177, 0.9991231879480812, -0.04186711483328258, 0.999902031839133, 0.013997382754416969, 0.9991207964625651, 0.041924146693874044, 0.9952200594169022, 0.0976577356598944, 0.9719276373702214, 0.23527997729500796, 0.9296997145179795, 0.36831839599073424, 0.9084076208214807, 0.4180856305034374, 0.9444255136141578, 0.32872549221901565, 0.9716767549347893, 0.23631395202018302, 0.9800631333503627, 0.19868632224556698, 0.9837108145593277, 0.17975826356255203, 0.9899083845113423, 0.14170882214648586, 0.9989511668244869, 0.04578827688389454, 0.9987211620401818, -0.05055729910812991, 0.9233627188733565, -0.383928755623752, 0.9515433373849354, -0.3075146778258546, 0.9734121229224887, -0.22906077566343358, 0.9803583997023114, -0.1972242584803475, 0.9834415964099826, -0.1812253471526123, 0.9888240141774721, -0.14908745415342742, 0.997676780090518, -0.06812519701414643, 0.9999116979764829, 0.01328895217038549, 0.9823976309681638, 0.1868017523154947, 0.9698623192183919, 0.2436536101934915, 0.9540398843543593, 0.2996796607397987, 0.9468021578550213, 0.32181621133975713, 0.9429904546716454, 0.33281977465013024, 0.934983952844828, 0.35469001666618744, 0.9127591103445739, 0.4084982331454838, 0.8874406827963061, 0.46092193972301443, 0.9040073316854603, -0.4275169520135244, 0.9216695229627864, -0.3879758889951151, 0.9376031703633847, -0.3477071971135049, 0.9434858330626189, -0.3314128585467618, 0.9463210899437198, -0.32322808468282915, 0.9517783911495041, -0.3067863982331379, 0.9641686004222402, -0.26529023721165945, 0.974750560980149, -0.22329653796887397, 0.9924006867842875, -0.12304827048794534, 0.9963723853111437, -0.08510035128824012, 0.9988935460274707, -0.04702854138356063, 0.999494966473194, -0.031777539155018554, 0.9997083694119834, -0.024149039890506718, 0.9999604985796946, -0.008888266436637513, 0.9995716896780595, 0.029264948217092492, 0.9977276853579367, 0.06737555840432205, 0.9413413701479278, -0.33745581169691224, 0.9811363508420021, -0.19331699629478954, 0.9989934773198438, -0.04485568272144371, 0.9998875368217285, 0.014997123343382794, 0.998990732110994, 0.044916780342542414, 0.9945134706870813, 0.10460858770643937, 0.967796502272922, 0.25173384791938097, 0.919439953835433, 0.39323043027097593, 0.8950974173108563, 0.44587062419880796, 0.9362911280289217, 0.35122489031150594, 0.9675089032604204, 0.252836947679366, 0.977124585760479, 0.21266768419863988, 0.9813082146623812, 0.19244268714640725, 0.9884181258284717, 0.15175509393009337, 0.9987960134710538, 0.04905632960516306, 0.9985319925273578, -0.054165116997425, 0.9121922690995937, -0.4097624484929462, 0.9444408197696322, -0.32868151446782795, 0.969498315982373, -0.24509797083481308, 0.9774632067810339, -0.21110584878050578, 0.9809994147322669, -0.1940106911872378, 0.9871739677845891, -0.15964822995708758, 0.99733319122775, -0.07298291358579898, 0.9998986331018989, 0.014238101030484668, 0.9798019995242374, 0.19997010208605256, 0.9654290332211236, 0.260666035021302, 0.947299989540614, 0.32034782630190045, 0.9390119845950555, 0.3438844177726801, 0.9346483876097806, 0.3555733279345305, 0.9254854009491034, 0.3787832792377157, 0.9000701388145393, 0.43574504611570275, 0.8711530832077082, 0.4910115127140134, 0.8900700796325813, -0.45582370862302724, 0.9102561462650754, -0.4140455870875253, 0.9284825327032983, -0.37137607147589435, 0.9352154434589324, -0.35407919215327016, 0.9384612163862063, -0.3453846339067824, 0.9447099995653873, -0.3279070245072009, 0.9589036109208974, -0.2837320302025561, 0.9710328095039727, -0.23894619240913095, 0.9912779357760484, -0.13178791311640245, 0.9958360191887419, -0.09116261781190614, 0.9987298706646465, -0.05038497238441704, 0.9994202493458717, -0.03404651520252144, 0.9996652223959739, -0.02587359913131666, 0.9999546540259641, -0.009523124057494255, 0.9995083224260791, 0.03135463922619762, 0.9973916217702297, 0.07218000292706549, 0.9333504354300401, -0.35896652306664245, 0.9785466896931, -0.20602518314680818, 0.9988548273354673, -0.0478438492246791, 0.9998720422254017, 0.015996848939854123, 0.9988517040424637, 0.047909010963141783, 0.9937583361627665, 0.11155433342999244, 0.9633868390821093, 0.2681152705150938, 0.9085127973048515, 0.4178570295367948, 0.8809376165189264, 0.4732324120365732, 0.9276208176943824, 0.37352325038744943, 0.9630601059897134, 0.26928652445133994, 0.9739865938084653, 0.22660563779699644, 0.9787420629829454, 0.20509503686800434, 0.9868259133502513, 0.1617857124113326, 0.9986301687642309, 0.05232385721564945, 0.9983297900401386, -0.05777222791629929, 0.9002992183427112, -0.4352715445001007, 0.9368675166051397, -0.3496845097085634, 0.9653203115276074, -0.2610683744773443, 0.9743714648824039, -0.22494498977065105, 0.9783910230364772, -0.20676316413141765, 0.9854111341610564, -0.17019076552921547, 0.9969659501459913, -0.07783889933382113, 0.9998846672644023, 0.015187237061282404, 0.9770298638651519, 0.21310242869484802, 0.9606973556782744, 0.2775978940712106, 0.9401124014624737, 0.340864595721616, 0.9307075214812399, 0.36576428127722826, 0.9257573882125051, 0.37811804792942805, 0.9153661187859341, 0.40262248891334335, 0.8865680449872111, 0.4625982075273902, 0.8538456523174174, 0.5205262740906015, 0.8752467454906278, -0.4836766838581992, 0.8981055582790493, -0.4397799520081348, 0.9187645078544012, -0.39480600186301623, 0.9264006069404059, -0.3765393943008455, 0.9300826644307458, -0.3673502923986922, 0.9371729911859237, -0.34886499479258254, 0.9532859176437721, -0.30206946092260173, 0.9670638194461891, -0.25453402349813375, 0.9900782200425494, -0.1405173234778439, 0.9952627685310216, -0.09722150778488345, 0.9985549172259667, -0.05374083441706969, 0.9993403813715354, -0.03631531577990423, 0.9996191004100111, -0.027598081373169076, 0.9999484064121541, -0.010157977839785792, 0.9994405864992127, 0.03344419318969554, 0.9970324230595812, 0.07698277318946303, 0.9248680303482301, -0.38028821496305315, 0.9757924327265516, -0.21869871566517785, 0.9987072392356422, -0.05083158760379058, 0.9998555480656425, 0.01699655854441393, 0.9987037135044416, 0.05090081170706637, 0.9929546927048012, 0.1184946337836182, 0.9586999168818094, 0.2844195305720261, 0.8969261766447436, 0.44218031802585045, 0.8659416584668818, 0.5001450230999268, 0.918419545419386, 0.3956078090630271, 0.9583316549660795, 0.2856579057018641, 0.9706497980009802, 0.24049733811553176, 0.976012787214048, 0.21771320399705998, 0.9851319113109265, 0.17179964294747793, 0.9984536344792598, 0.055590824738950204, 0.9981145572176984, -0.061378584784254016, 0.8876929877855675, -0.4604358363945321, 0.9288272030371466, -0.3705131939596634, 0.9608792481041544, -0.27696763450409667, 0.9710837956960199, -0.23873889866674594, 0.9756168632605232, -0.21948060534292654, 0.9835357147152674, -0.18071385635730378, 0.9965750655545343, -0.0826930390962597, 0.9998698004765771, 0.016136359407555652, 0.9740817233710157, 0.2261963664486059, 0.9556687490407617, 0.29444395410139695, 0.9324805169686718, 0.3612202727891092, 0.9218933168060256, 0.38744381841550257, 0.9163226782906384, 0.40044069379905833, 0.9046328934366905, 0.4261916565494466, 0.8722650266381599, 0.489033458266334, 0.8355386513861852, 0.5494316718571608, 0.8595520861772672, -0.5110481495400485, 0.8852275996969783, -0.46515814164080416, 0.9084553484098664, -0.41798191341911944, 0.9170464551701026, -0.3987803895127605, 0.9211900648216136, -0.3891129199524879, 0.9291711046914648, -0.36964991303453987, 0.9473175868899246, -0.3202957845009049, 0.9628446177169323, -0.27005599814396736, 0.9888016327320273, -0.14923582380406178, 0.9946526545704786, -0.10327679679337616, 0.9983686876870786, -0.05709608958571948, 0.9992553629618114, -0.038583929194143225, 0.9995700035913526, -0.029322481484063037, 0.9999417557407827, -0.010792827527616304, 0.999368482193522, 0.03553360097451382, 0.9966500975578302, 0.0817837577882524, 0.9158986214464174, -0.40140966011364515, 0.9728740432203815, -0.23133546210649844, 0.9985507143410403, -0.05381887112341095, 0.9998380543589399, 0.017996251157661163, 0.9985467618248131, 0.05389215572956754, 0.9921025795419252, 0.12542914998618931, 0.95373708455012, 0.30064193578713766, 0.8846885022602576, 0.46618264014064503, 0.8501237768291197, 0.5265829128160097, 0.9086925779306901, 0.4174659253324476, 0.9533249232388916, 0.3019463375031422, 0.9671148794232414, 0.2543399496700615, 0.9731208422361335, 0.23029508550040376, 0.9833362944441781, 0.18179585261713913, 0.9982664125058061, 0.058857197204657104, 0.9978862968692851, -0.06498414053063237, 0.8743835635625583, -0.48523539006511224, 0.9203238870070294, -0.3911571845233994, 0.9561763359440478, -0.2927914182154514, 0.9676008603086745, -0.2524848017800536, 0.9726774054282803, -0.23216086011494, 0.981547923718842, -0.1912163001504583, 0.9961605467233885, -0.08754521775493984, 0.9998540327518193, 0.017085467214093673, 0.9709581091279303, 0.23924955656952443, 0.9503447675333447, 0.31119900838851156, 0.9244079428820949, 0.3814052374266686, 0.9125741980435116, 0.408911155466859, 0.9063497989839506, 0.42252815513495945, 0.8932929237592204, 0.44947497412170073, 0.8571740050972207, 0.515026916758328, 0.8162535118397278, 0.577693867380736, 0.8430017260313355, -0.5379108568417161, 0.8716327003044522, -0.49015960233373884, 0.8975616872998382, -0.44088889472458653, 0.907158433779944, -0.4207892299262412, 0.9117883324122298, -0.41066048857532567, 0.9207083093619036, -0.39025146901958635, 0.9410008139298366, -0.3384042969339855, 0.9583762959644427, -0.2855081002939757, 0.9874482729611758, -0.1579427371739241, 0.9940056999049798, -0.10932826055696356, 0.9981711841509643, -0.06045070000142023, 0.9991651945548704, -0.040852343753179296, 0.999517932086109, -0.031046794332242025, 0.9999347020145307, -0.011427672865091623, 0.9992920098241623, 0.03762285344821891, 0.996244654133256, 0.08658284536159083, 0.9064469317080496, -0.4223197366889954, 0.969792012060423, -0.24393329691494853, 0.998385254052303, -0.056805673052243294, 0.9998195611227821, 0.018995925780211767, 0.9983808504118701, 0.05688301618999477, 0.9912020382688597, 0.13235754353892384, 0.9484997703710081, 0.3167778174148956, 0.8718086571383029, 0.48984657326423037, 0.8334989854231033, 0.5525209872019863, 0.8984454828583374, 0.43908508780354755, 0.9480413646647766, 0.31814709001427, 0.9633825596000074, 0.2681306469960831, 0.9700667100412497, 0.242838584392485, 0.9814392479650987, 0.19177331032680606, 0.9980685048479389, 0.062122939648731584, 0.9976450119741836, -0.06858884809523391, 0.8603814888490141, -0.5096505603312468, 0.9113618072539689, -0.41160619076828714, 0.9512128566355936, -0.3085354134798041, 0.9639233590714233, -0.26617993507487336, 0.9695731475699533, -0.24480178004110514, 0.9794479882821471, -0.20169689697676316, 0.9957224034830598, -0.0923953202381952, 0.9998373641043363, 0.018034559625698863, 0.9676595838323189, 0.25225964762019204, 0.94472705667425, 0.32785787833695307, 0.9158984942952002, 0.4014099502351494, 0.902755269205473, 0.4301545349310572, 0.8958446075067708, 0.4443674596559023, 0.8813538155595189, 0.47245682532764566, 0.8413086135753787, 0.5405551005437598, 0.7960128101796335, 0.6052797750048508, 0.8256121412585029, -0.564238063415213, 0.8573318705333554, -0.514764085545775, 0.8860905335237939, -0.46351220738996557, 0.8967422992004694, -0.4425531028302206, 0.9018826634487671, -0.43198108913534394, 0.9117888031077404, -0.4106594434898024, 0.9343379221979476, -0.35638833755164023, 0.9536600102926216, -0.30088633197384845, 0.9860182458074501, -0.1666373875659326, 0.9933219284969265, -0.11537567493690731, 0.9979624088479163, -0.06380462778250658, 0.9990698766154257, -0.043120547765978214, 0.9994628860492429, -0.03277101478620922, 0.9999272452362414, -0.012062513596319333, 0.9992111697253809, 0.03971194147905613, 0.9958161021903725, 0.09137992459163827, 0.8965179380691402, -0.44300743415913163, 0.9665468576577482, -0.25649010107981285, 0.9982108598500293, -0.059791966663300146, 0.9998000683756568, 0.01999558141269968, 0.9982059807542978, 0.059873366252036396, 0.9902531128442766, 0.13927947624190845, 0.9429894816232562, 0.33282253161092107, 0.858295990399637, 0.5131549404067999, 0.8160830639587364, 0.5779346266834346, 0.8876841255487924, 0.4604529218592013, 0.9424825134854449, 0.33425545885468827, 0.959453600348305, 0.28186661522549106, 0.9668508996527156, 0.2553416100848711, 0.9794409675510877, 0.201730986917204, 0.9978599136241094, 0.06538801711387901, 0.9973907056816769, -0.07219266042892879, 0.8456978555093331, -0.5336620065049744, 0.9019454312020222, -0.43185001925876787, 0.9459901627741244, -0.32419532990866123, 0.9600520314587575, -0.2798215447243346, 0.9663046156376954, -0.2574012233795434, 0.9772361483283472, -0.21215444940037614, 0.9952606462243185, -0.09724323152359694, 0.9998197945491475, 0.018983635787187463, 0.9641867416895602, 0.2652242959271818, 0.9388173527665804, 0.34441541507945045, 0.906956192767006, 0.4212249570022857, 0.8924419080459319, 0.4511623219677552, 0.8848132737079616, 0.46594578082669647, 0.8688235764904545, 0.49512179606066165, 0.8246831848485423, 0.5655949474916347, 0.7748402415537692, 0.6321571007818363, 0.807400643528891, -0.5900035600139484, 0.8423366925445803, -0.5389516642455585, 0.8740492676409417, -0.48583729553867455, 0.8858041153096613, -0.46405933812441297, 0.8914785326982364, -0.45306293794372476, 0.902417010387739, -0.43086371321202643, 0.9273313624380497, -0.3742412914668698, 0.9486969809619081, -0.31618671432202994, 0.9845116623009087, -0.1753190999107102, 0.9926013656723665, -0.12141881594445333, 0.997742364135513, -0.06715783505502179, 0.9989694096347301, -0.04538852954259085, 0.99940486564457, -0.03449513771474276, 0.9999193854089204, -0.012697349465408877, 0.9991259622505155, 0.04180085593598954, 0.9953644516697104, 0.09617488420713949, 0.886116868797585, -0.46346185909129956, 0.96313912586147, -0.26900376249190916, 0.9980275332947616, -0.06277772523414261, 0.9997795761370507, 0.02099521705577779, 0.998022154421162, 0.06286317908396043, 0.9892558495886535, 0.14619461021060723, 0.9372078041466726, 0.3487714607684697, 0.8441603105125992, 0.5360908226739869, 0.7978925430607774, 0.6027997094624429, 0.87641466570767, 0.48155719674044223, 0.936649983882176, 0.3502667664702426, 0.9553288036219311, 0.29554505066112985, 0.9634739470402842, 0.2678020787346797, 0.9773416593216678, 0.2116678552694501, 0.9976406410671286, 0.06865239464992277, 0.997123381311005, -0.07579553049427178, 0.8303442953104642, -0.5572507077118599, 0.8920794527331967, -0.4518785788364395, 0.9405096775934048, -0.3397669000258115, 0.9559876559199096, -0.29340688766413847, 0.9628723634164975, -0.26995705541572423, 0.9749126565659931, -0.22258776261833874, 0.994775285897952, -0.1020888366406814, 0.9998013241020839, 0.01993269484339036, 0.9605402083069476, 0.27814116600324673, 0.932617482361664, 0.36086650106845797, 0.8975852644225062, 0.4408408931707445, 0.8816397631158022, 0.4719230107688247, 0.8732622764472797, 0.48725044539139706, 0.8557106106809745, 0.5174546847483301, 0.807312738309331, 0.5901238366338794, 0.7527605920171213, 0.658294380278332, 0.7883853627429677, -0.615181696584545, 0.8266593108477016, -0.5627027490503339, 0.8614456370215579, -0.5078497951722757, 0.8743502499027855, -0.4852954156953644, 0.8805816904226366, -0.4738943832674238, 0.892597580014205, -0.4508542559994138, 0.9199837118018546, -0.3919565920089649, 0.9434884920735576, -0.3314052886191839, 0.982928639415592, -0.18398720014341463, 0.9918440381200562, -0.12745745974912784, 0.9975110524985911, -0.07051028395314536, 0.998863794130574, -0.04765627739421346, 0.9993438710447566, -0.03621915798691101, 0.9999111225357359, -0.01333218021647165, 0.9990363877719931, 0.043889587688741856, 0.9948897130475861, 0.10096761298600496, 0.8752492007401352, -0.48367224088607197, 0.9595693898669271, -0.2814721762988541, 0.9978352760269725, -0.06576292204711962, 0.9997580844274496, 0.021994831710119008, 0.9978293730618949, 0.06585242785885537, 0.9882102971820116, 0.15310260789235508, 0.9311564018856929, 0.36462001484736134, 0.8294118781734174, 0.5586375715478187, 0.7789446885785085, 0.6270926344132344, 0.8646435538739737, 0.5023858325472412, 0.9305454695070924, 0.3661763634914533, 0.9510090113477638, 0.3091631613490663, 0.9599364150308133, 0.2802179135918868, 0.9751415398172243, 0.22158289041099885, 0.9974106895241427, 0.07191603731417855, 0.9968430423513218, -0.07939741126611632, 0.8143329707077034, -0.5803979779585442, 0.8817687898476406, -0.471681885650305, 0.9347728945777865, -0.35524588043025446, 0.9517310497223228, -0.306933232144135, 0.9592769724303593, -0.2824671488241486, 0.9724777784601499, -0.2329956445970857, 0.9942663340145056, -0.10693202067367683, 0.9997819527797887, 0.020881735939153864, 0.9567206405809898, 0.2910079309680416, 0.9261293616945102, 0.37720605165786925, 0.8877901379554062, 0.4602484882638084, 0.8703547506692193, 0.49242523085999673, 0.8611983997902481, 0.5082689408164892, 0.8420237130993904, 0.5394405125482471, 0.7892129663985736, 0.6141196086010964, 0.7297997095155465, 0.6836610154097014, 0.7685852289828793, -0.639747407801966, 0.8103124224652063, -0.5859981040912752, 0.8482877508623146, -0.5295355434122961, 0.8623873709853024, -0.5062489727051882, 0.8691981592008395, -0.4944639117689703, 0.8823353828469745, -0.47062115568287294, 0.9122976729010671, -0.40952772313885843, 0.9380358912374012, -0.3465381173124459, 0.9812693000604416, -0.19264101525607424, 0.9910499738904721, -0.13349138268702795, 0.9972684765492185, -0.07386193661962076, 0.9987530306472822, -0.049923779633247886, 0.9992799024313209, -0.03794307047208785, 0.9999024566200184, -0.01396700559362112, 0.9989424466813279, 0.045978127607834374, 0.9943918973358592, 0.10575799975789088, 0.8639206564384778, -0.5036279374487773, 0.9558382501192705, -0.29389324525910915, 0.9976340897670498, -0.06874753038960676, 0.9997355932683387, 0.0229944243764172, 0.9976276384062795, 0.06884108575487081, 0.9871165066615404, 0.16000313208283476, 0.9248370164105035, 0.38036363269497525, 0.8140613988582533, 0.5807788209714123, 0.7592574851975558, 0.6507903434835858, 0.8523775277278649, 0.5229269071529337, 0.9241707429913563, 0.38197963008360086, 0.9464951052539137, 0.3227181676484653, 0.9562388932144614, 0.2925870453454526, 0.9728408359766686, 0.23147506962136657, 0.9971700614566084, 0.0751789101718282, 0.9965496924616493, -0.08299825573222824, 0.797676565210099, -0.6030854809350152, 0.871018582212115, -0.49125006813352906, 0.9287813770552191, -0.37062805295256696, 0.9472830687873139, -0.3203978582776249, 0.9555190518437634, -0.29492938402877955, 0.969931792202066, -0.2433769062086379, 0.9937338026440089, -0.1117726687642286, 0.999761680599716, 0.021830758219340465, 0.952728726579076, 0.30382227296729286, 0.9193549960915461, 0.3934290166745625, 0.8775754425351261, 0.4794385702665958, 0.8585930514232532, 0.5126577533283846, 0.8486287290237784, 0.5289889226396773, 0.8277720636545235, 0.5610645333944496, 0.7704002204287757, 0.637560585641313, 0.7059844736264019, 0.7082273102602386, 0.7480199536671843, -0.6636762380225342, 0.7933092666492478, -0.608818862592506, 0.8345840749688102, -0.5508805876126472, 0.8499224428910079, -0.5269078107887388, 0.8573342305999704, -0.514760154869777, 0.8716355093772586, -0.4901546070299114, 0.9042760728133103, -0.42694822184585396, 0.9323405892231749, -0.3615812850341997, 0.9795337730697558, -0.20127987334984146, 0.9902192023947719, -0.13952036126910583, 0.9970146390266645, -0.07721275520618273, 0.9986371197557112, -0.05219102457336184, 0.9992129599946311, -0.039666870039967925, 0.9998933876652609, -0.014601825340972914, 0.9988441393891199, 0.04806646656462684, 0.9938710160816766, 0.11054593340677774, 0.8521372011159407, -0.5233184407932618, 0.9519463342124658, -0.30626488009474484, 0.9974239763152812, -0.07173152355424564, 0.9997121026822022, 0.023993994055388233, 0.9974169522644354, 0.07182912595545825, 0.9859745314191056, 0.16689584594253723, 0.9182514664158243, 0.39599778335893276, 0.7981200150523967, 0.6024984992286387, 0.7388496193694105, 0.673870343580779, 0.8396236082340739, 0.5431686630283401, 0.9175276554304317, 0.3976719772882356, 0.9417880066897506, 0.3362073027989521, 0.9523819978464221, 0.3049074124682078, 0.9704397851140306, 0.2413433725376235, 0.9969187594402668, 0.07844097829629385, 0.9962433354708295, -0.08659801689389936, 0.7803882733331008, -0.6252952445398746, 0.8598341885979687, -0.5105733719242248, 0.9225367577712297, -0.3859092258043949, 0.9426446075179643, -0.33379805858827727, 0.9515992383584645, -0.3073416495621612, 0.9672749886773895, -0.2537303613664635, 0.9931777044156904, -0.11661066611412317, 0.9997405075801327, 0.0227797608288296, 0.9485651854155254, 0.31658188359034367, 0.912296479350817, 0.4095303819792913, 0.8669460056190587, 0.4984020699607489, 0.8463611071727748, 0.5326094969724768, 0.8355606464948798, 0.5493982217199638, 0.8129652210386691, 0.5823122438877169, 0.7508914958123627, 0.6604255912036363, 0.6813427640914744, 0.7319645058472368, 0.726710009927753, -0.6869443656300015, 0.77566361415925, -0.6311465421511949, 0.8203434263086556, -0.57187119433678, 0.8369627222276623, -0.5472599031550375, 0.8449964616981189, -0.5347718950334427, 0.8605032672025404, -0.5094449206084533, 0.8959218620422705, -0.4442116805248492, 0.9264040595955056, -0.3765308996151136, 0.9777221931931878, -0.20990310368716056, 0.9893517544037048, -0.14554417218944654, 0.9967495427973686, -0.08056270187398488, 0.9985160620532469, -0.054458000529549105, 0.9991430439339059, -0.041390551560581905, 0.9998839156751189, -0.015236639202644934, 0.9987414663250529, 0.050154595431357404, 0.993327081367205, 0.11533130287354774, 0.839905039536411, -0.5427333825750355, 0.9478942967837292, -0.318584999842867, 0.997204937551838, -0.0747148748391826, 0.9996876126925234, 0.02499353974777093, 0.9971973165268011, 0.07481652164961154, 0.9847844271986435, 0.17378041301320377, 0.9114016471974954, 0.41151796739108754, 0.7815992981622452, 0.6237808406101344, 0.7177404615748604, 0.6963107279213112, 0.8263890956231622, 0.5630995139716709, 0.9106181358465635, 0.41324884835572084, 0.9368886764378447, 0.34962781348534566, 0.9483663717442147, 0.31717696156044184, 0.9679386348939795, 0.2511867812596424, 0.9966567861651149, 0.08170220676961157, 0.9959239753774758, -0.0901966477665609, 0.7624817901464107, -0.647009675117092, 0.8482211842098939, -0.5296421647278143, 0.9160407384439825, -0.40108523472075513, 0.9378165986192727, -0.3471311385545498, 0.9475181961056133, -0.31970184242316246, 0.9645076714329331, -0.2640548271609913, 0.9925980525176773, -0.12144589798801043, 0.9997184337401165, 0.02372874291251843, 0.9442307671220441, 0.32928446428599706, 0.9049559930948423, 0.4255051710164374, 0.855906850671116, 0.5171300252105383, 0.8336656172623336, 0.5522695343712274, 0.8220018272749022, 0.5694848513847597, 0.797613116316507, 0.6031693930231128, 0.7307044167080456, 0.6826939690691245, 0.6559034281790519, 0.7548448137882166, 0.7046766122283662, -0.7095286267504313, 0.757389756109048, -0.6529630597063487, 0.8055749673386239, -0.5924938581938002, 0.8235157536524692, -0.5672934015888125, 0.8321916714603064, -0.5544880719655758, 0.8489441783937787, -0.5284825275932139, 0.8872381134324433, -0.4613117493331802, 0.9202278383326519, -0.3913830930911742, 0.975834701085283, -0.21851003674384478, 0.9884476620464725, -0.15156259233353883, 0.9964731908549086, -0.08391173879402683, 0.9983898581638005, -0.05672469581818976, 0.9990701544572127, -0.04311410990431179, 0.9998740406534106, -0.015871446922757444, 0.9986344279378929, 0.05224250508118244, 0.9927601058093507, 0.1201139971585609, 0.8272306127371184, -0.5618625395508867, 0.9436828194034147, -0.3308515322056439, 0.9969769754367587, -0.07769755754830776, 0.9996621233237847, 0.025993060454328126, 0.9969687331641185, 0.07780324603210759, 0.9835462520934394, 0.18065649723424998, 0.904289530107018, 0.4269197181424496, 0.7645112401159424, 0.6446103968571899, 0.6959500479381596, 0.718090196824099, 0.8126815652129353, 0.5827080517403664, 0.9034441906286266, 0.42870572006842383, 0.9317981145178567, 0.3629769603996474, 0.944192684180548, 0.3293936476921374, 0.965337643306278, 0.26100428045509366, 0.9963841444353781, 0.0849625606828054, 0.9955916163499188, -0.09379410138039682, 0.7439713004253147, -0.6682115713929729, 0.8361853579067944, -0.5484469411185426, 0.9092950893005456, -0.41615194409483763, 0.9328000129106059, -0.36039441715150555, 0.9432766165332335, -0.33200786843328756, 0.9616301566419946, -0.2743491239947614, 0.9919948606966832, -0.12627824971612497, 0.9996954590995571, 0.024677703615322632, 0.9397262525126123, 0.3419277267765834, 0.897335806096327, 0.4413484463521481, 0.8444631947876451, 0.5356135851983627, 0.8205135349169764, 0.5716270978689234, 0.807960234651857, 0.5892370144698279, 0.7817260462642588, 0.6236219917482464, 0.7098572200991763, 0.7043456020115904, 0.6296962469133397, 0.7768414488319056, 0.6819416952453032, -0.7314065383122863, 0.7385024923925958, -0.6742507461841802, 0.7902882001095088, -0.6127353105278599, 0.8095893654798624, -0.5869966433480807, 0.8189269369697093, -0.573897788726712, 0.8369639767562227, -0.5472579845122492, 0.8782280210388803, -0.4782421385262198, 0.9138135234290936, -0.40613402270445814, 0.9738714432945587, -0.22710000426105967, 0.9875069588095383, -0.15757539878653926, 0.996185586319966, -0.08725982814758149, 0.9982585087378063, -0.05899109875711038, 0.9989942917814686, -0.04483753994190613, 0.999863762604116, -0.016506248245433203, 0.9985230246954857, 0.054330186388216524, 0.9921701025594666, 0.12489390532422977, 0.8141205946370059, -0.580695838962092, 0.9393126104603711, -0.3430624138988753, 0.9967400920099309, -0.0806795449914939, 0.9996356346014675, 0.0269925551758476, 0.9967312042274141, 0.08078927230374684, 0.9822600665432923, 0.18752376295916998, 0.8969171619842077, 0.44219860304866937, 0.7468682446587723, 0.6649720483752112, 0.6734990612093935, 0.7391880779274417, 0.7985088630723975, 0.6019830525810731, 0.8960079029495103, 0.4440381040541691, 0.9265173599824212, 0.37625201880017134, 0.9398616307717741, 0.341555434743793, 0.9626370786391708, 0.270794857464175, 0.9961008371694793, 0.08822200513626077, 0.9952462627261536, -0.0973903307809568, 0.7248714674140911, -0.6888841381022952, 0.8237327093161508, -0.5669783272777487, 0.9023016485944868, -0.4311052481049973, 0.9275958591304865, -0.3735852273899152, 0.9388752182890703, -0.3442576425914907, 0.9586427730682313, -0.2846120757171972, 0.9913681432576817, -0.13110760669700525, 0.9996715836791561, 0.025626642082177114, 0.9350524530428265, 0.3545093934701769, 0.8894382735769373, 0.4570553112003811, 0.8326204462318316, 0.5538440146076381, 0.8069120634340182, 0.5906715854725492, 0.7934441154534643, 0.6086431102479266, 0.7653146664635603, 0.6436563223458381, 0.6883687393184783, 0.725360929971479, 0.6027519002107605, 0.7979286602148825, 0.6585278920309456, -0.7525563204287632, 0.7190171196976163, -0.6949923608081918, 0.774492960152491, -0.6325825279552321, 0.7951916651241584, -0.6063581579537529, 0.8052095895162253, -0.592990317754946, 0.8245686049851987, -0.5657619779313235, 0.8688948989523528, -0.49499662077087014, 0.907162774482079, -0.42077987189738136, 0.971832572252125, -0.23567233929720777, 0.9865296795353874, -0.16358236884152846, 0.995886732440292, -0.09060693212662209, 0.9981220144522173, -0.06125719766564431, 0.998915456132438, -0.04656083654449531, 0.9998530815313783, -0.017141042914797528, 0.9984072570847554, 0.05641763022757223, 0.9915570853030472, 0.12967091649759266, 0.800581888522473, -0.5992233638383858, 0.9347844050427876, -0.35521559099904626, 0.9964942893910734, -0.08366081048483537, 0.9996081465520527, 0.027992022913143132, 0.996484731847981, 0.0837745736715937, 0.9809259333315644, 0.19438187497192044, 0.8892866645681211, 0.45735022490571287, 0.7286831183496254, 0.6848510152086116, 0.6504088111330865, 0.7595843458105526, 0.7838791015307318, 0.6209134836540214, 0.8883114321612052, 0.45924154808957385, 0.9210474907050614, 0.38945027906770047, 0.9353739333619522, 0.35366029574577673, 0.9598372194517113, 0.2805575024040659, 0.9958068674000076, 0.09148050524009825, 0.9948879190137822, -0.1009852890297691, 0.7051974212103946, -0.7090109992928242, 0.8108694458433217, -0.5852270856665337, 0.8950623221049323, -0.4459410718336296, 0.9222051837337542, -0.386700916852537, 0.9343147470988303, -0.35644908942743664, 0.9555458620280993, -0.2948425097589839, 0.9907179150635674, -0.13593385440021158, 0.9996468075004264, 0.026575557458036848, 0.9302102106637211, 0.3670271978708874, 0.8812658364793562, 0.47262091093638736, 0.8203842018777584, 0.5718126977511022, 0.7928686522378495, 0.6093925666584193, 0.7784619952036731, 0.6276917412420817, 0.7483899841546794, 0.6632589476342997, 0.666258387034036, 0.7457209677264042, 0.5751019309639478, 0.8180817618071794, 0.6344585114821318, -0.7729569180800944, 0.6989494191169003, -0.7151711050623812, 0.7581994101509404, -0.6520227407435771, 0.7803310343797282, -0.6253666738673108, 0.7910472105445396, -0.6117551067949517, 0.811764211718277, -0.5839853290737742, 0.8592421800803629, -0.5115690334360996, 0.9002773122622305, -0.4353168513001701, 0.9697182462598509, -0.24422637627971144, 0.9855158604212363, -0.16958328000776013, 0.9955766325906694, -0.09395301293424906, 0.9979803760105025, -0.06352298086469176, 0.9988336477447334, -0.048283994583606826, 0.9998419974395026, -0.017775830674978423, 0.9982871256117017, 0.05850482747540012, 0.9909210682594116, 0.13444491987288543, 0.7866216234123411, -0.6174353582198975, 0.930098964814549, -0.36730901928880577, 0.9962395697797174, -0.08664132735088666, 0.9995796592030196, 0.028991462667055466, 0.9962293182373602, 0.086759123349217, 0.9795439175821163, 0.20123049850328392, 0.8814002338864283, 0.4723702231353597, 0.7099690612650742, 0.7042328677691699, 0.6267012142216875, 0.7792596410010355, 0.768800654533874, 0.639488509348125, 0.8803570131677712, 0.4743116373928863, 0.9153896231601807, 0.402569047258557, 0.9307303399025411, 0.3657062132161558, 0.9569383545450283, 0.29029120827309546, 0.9955022382736863, 0.09473802611454692, 0.9945165898899552, -0.10457892920495326, 0.6849647467798189, -0.7285762112976641, 0.7976019795772721, -0.6031841196304963, 0.8875790826172235, -0.46065537237762455, 0.9166290706811444, -0.39973884822746675, 0.9295959756398338, -0.3685801433531458, 0.9523397773518568, -0.3050392572660375, 0.9900441915348035, -0.14075687836904227, 0.9996211305856928, 0.027524448887877594, 0.9252003976700978, 0.37947888498715293, 0.8728210207128457, 0.48804043459716145, 0.8077602445653277, 0.5895111426425814, 0.7783909927999425, 0.6277797880848983, 0.7630226731155001, 0.6463717199194877, 0.7309633508538749, 0.6824167199801563, 0.6435461377119143, 0.7654073220423736, 0.5467787081154813, 0.8372771610115525, 0.6097575151356976, -0.7925880220742296, 0.6783156433672894, -0.7347706362962663, 0.7414180334017297, -0.6710434410280095, 0.7650161245414341, -0.6440111250526694, 0.7764476274639345, -0.6301817847301104, 0.7985571484852836, -0.6019189983735791, 0.8492734148844522, -0.527953280859681, 0.8931589182683243, -0.44974119971129717, 0.9675286294780723, -0.25276145105668907, 0.9844655390176918, -0.1755779100189016, 0.9952552902728758, -0.09729803278511699, 0.9978335941426433, -0.0657884366767801, 0.9987488668618136, -0.05000700893118053, 0.9998305103329569, -0.018410611270106687, 0.9981626308013983, 0.06059176900892851, 0.9902620661813731, 0.1392158047141117, 0.7722471503039562, -0.6353222322943051, 0.9252570778871206, -0.37934066460081334, 0.9959759354551864, -0.08962106891890137, 0.9995501725828467, 0.029990873438453334, 0.9959649656873196, 0.0897428945569303, 0.9781140867561283, 0.20806929924720993, 0.8732601396234039, 0.48725427504016117, 0.6907396574178063, 0.7231035373100672, 0.6023987729531307, 0.7981952883502649, 0.7532821528513413, 0.6576974974831884, 0.872146955776363, 0.48924399590595136, 0.9095449121951752, 0.41560564565447267, 0.92593162432774, 0.37769117949694414, 0.953940782932537, 0.29999497105461315, 0.9951869530513392, 0.09799453289031781, 0.9941322802013105, -0.10817120440183248, 0.6641894716101313, -0.7475642753651719, 0.78393692409427, -0.6208404779342394, 0.8798539693853142, -0.47524413995009607, 0.9108686412213245, -0.4126963998384504, 0.9247197034101005, -0.38064874901296575, 0.9490248853431378, -0.31520115323304926, 0.9893469886490556, -0.145576564223248, 0.9995945529580914, 0.028473315516696712, 0.9200239165433874, 0.3918622117379604, 0.8641064363725468, 0.5033091163683983, 0.7947545403672949, 0.6069309850102974, 0.7634870144262896, 0.645823179208079, 0.7471352169231256, 0.6646720752621055, 0.7130464547398454, 0.701116790116267, 0.6202525095712482, 0.7844022082902168, 0.5178153887645925, 0.8554923863825872, 0.5844494933142992, -0.8114300892650327, 0.6571325036266931, -0.7537750809607029, 0.7241596270702628, -0.689632390858679, 0.7492558513681751, -0.6622806574184023, 0.7614189093221557, -0.6482601673145271, 0.7849539665576679, -0.6195540899593703, 0.8389922700742716, -0.5441433365902963, 0.8858094342663572, -0.46404918507063053, 0.9652638919128471, -0.2612769009485213, 0.9833787542273607, -0.18156603684126663, 0.9949227091156431, -0.10064195390586123, 0.9976816696051289, -0.06805355342612397, 0.9986611137359839, -0.051729874459583894, 0.9998186202163711, -0.019045384444316006, 0.99803377319799, 0.06267844570650344, 0.9895800943548977, 0.14398346035761153, 0.757466038302407, -0.6528745674465016, 0.9202595586869843, -0.3913085031598941, 0.9957033887765758, -0.09260000852507065, 0.9995196867210118, 0.030990254228234412, 0.9956916765698348, 0.09272586052203217, 0.9766365106488075, 0.2148979433771337, 0.8648687244667215, 0.501998097047495, 0.6710088648963671, 0.7414493261379964, 0.5775245544122183, 0.8163733147592275, 0.7373324791360549, 0.6755300253956733, 0.8636836440265101, 0.5040342875649321, 0.9035145507947135, 0.4285574133091469, 0.9209785864254998, 0.38961319708871284, 0.9508448138090964, 0.30966778982055104, 0.9948610151078552, 0.10124999070897703, 0.99373499496391, -0.11176206773354581, 0.6428880530149608, -0.7659601499364266, 0.7698810911611472, -0.6381873592233878, 0.8718890875760549, -0.48970339897308707, 0.9049250536654326, -0.4255709661720521, 0.9196867565928913, -0.39265286163180807, 0.9456015647371011, -0.3253270366365911, 0.9886263229408135, -0.15039279766174424, 0.9995670746415702, 0.02942215648951388, 0.9146816997890748, 0.4041749473569198, 0.8551247769327606, 0.518422237057494, 0.7813732357697071, 0.6240639922498155, 0.748164879914582, 0.6635128577973445, 0.7308089575562846, 0.6825820592100972, 0.6946513128143778, 0.719346615759928, 0.5963985460481098, 0.8026884665121958, 0.4882458793511998, 0.8727061139333067, 0.5585596406462688, -0.8294643620078629, 0.6354171559997996, -0.7721690474637831, 0.7064352952435623, -0.7077776300746874, 0.7330593898924709, -0.6801646351365811, 0.7459693623457296, -0.6659802628017633, 0.7709614136987908, -0.636881856067169, 0.828402527258893, -0.5601332456041859, 0.8782307618130203, -0.47823710542504116, 0.9629242094027551, -0.26977206479930227, 0.9822555463034082, -0.18754743868203874, 0.9945788928746169, -0.10398473853552437, 0.9975246031809536, -0.07031831943868551, 0.9985703886283943, -0.05345258604162726, 0.9998063270945381, -0.01968014994174304, 0.9979005533646906, 0.06476484844762846, 0.9888751685987484, 0.14874777621462806, 0.7422860706348913, -0.6700831212181166, 0.9151072478186483, -0.4032105219234476, 0.9954219321827323, -0.09557811951276195, 0.999488201647991, 0.03198960403732638, 0.9954094533370671, 0.09570799447904649, 0.9751112613859801, 0.22171609756227154, 0.8562284034332361, 0.5165974459423619, 0.6507910057333723, 0.7592569175559388, 0.552102168396094, 0.8337764662380025, 0.7209607628399894, 0.6929758859045388, 0.8549695354978357, 0.518678217559418, 0.8972997698372329, 0.44142170659138275, 0.9158720517042238, 0.4014702789835077, 0.9476507665191152, 0.3193086668346688, 0.9945244279321527, 0.10450436472331906, 0.9933247393631743, -0.1153514723316602, 0.6210773650969938, -0.7837492625605306, 0.7554414873397632, -0.6552161164118953, 0.8636866076955142, -0.5040292091609522, 0.8987995031541633, -0.43835995840157327, 0.9144979879167289, -0.40459044736159355, 0.9420702066571592, -0.3354157505677653, 0.9878822115009985, -0.1552054644653223, 0.9995386956608888, 0.03037097095137191, 0.9091747097687144, 0.41641487379412123, 0.8458788184144579, 0.5333751255521395, 0.7676226547670786, 0.6409020673147673, 0.7324329810835053, 0.6808391353477924, 0.7140534836600776, 0.7000911529743162, 0.6757902628424495, 0.7370939700250796, 0.5720057967848913, 0.820249576924293, 0.45810479596271203, 0.8888981920984889, 0.5321137309838714, -0.8466728868331761, 0.6131871876234454, -0.7899376386363987, 0.6882564417858801, -0.7254674839992757, 0.7164361690791048, -0.6976526468345521, 0.7301075253491907, -0.6833322774671785, 0.7565864308167427, -0.6538937013796525, 0.8175080815558575, -0.575917126495524, 0.870424861763703, -0.4923012898862225, 0.960509763605246, -0.27824628302817367, 0.9810959568480677, -0.19352189399748676, 0.9942238454323142, -0.10732634892598282, 0.9973623956796117, -0.07258272304223447, 0.9984766918090399, -0.05517513855057911, 0.9997936309724128, -0.020314907506527556, 0.9977629718837806, 0.06685096811300457, 0.9881473052641194, 0.153508641773873, 0.7267152405523372, -0.6869388321742764, 0.909801011923254, -0.4150447189200495, 0.9951315681922317, -0.0985553752327575, 0.9994557173952598, 0.032988921866687886, 0.9951182985213414, 0.09868926966996253, 0.9735384134205718, 0.2285234289838918, 0.8473416631739525, 0.5310481200885658, 0.6301007555095444, 0.7765133855293812, 0.5261557450045953, 0.8503882242826857, 0.7041763749885545, 0.7100250931537411, 0.8460071605964264, 0.5331715335795529, 0.8909018378436997, 0.4541958997246874, 0.9106128712551835, 0.41326044899601816, 0.9443589705236135, 0.3289166076554679, 0.9941771951271419, 0.10775762009773965, 0.9929015187538149, -0.11893937134678216, 0.5987746853810088, -0.8009175214383026, 0.7406253104943707, -0.6719182609924492, 0.8552487649974958, -0.5182176665941235, 0.8924932214174482, -0.4510608049076152, 0.9091542765109198, -0.4164594836258456, 0.9384312145702907, -0.34546614236438433, 0.9871146719765584, -0.16001445049935772, 0.999509416041618, 0.031319758047337505, 0.9035039385265683, 0.42857978611569997, 0.8363714185272764, 0.548163160264051, 0.7535092958736755, 0.657437252543509, 0.7162999341766044, 0.697792522386556, 0.6968786359634233, 0.717189073214141, 0.6564759550771939, 0.7543469496229742, 0.5470962981623843, 0.8370696748401626, 0.4274274238100747, 0.9040496653254636, 0.5051380917449331, -0.8630385323195526, 0.5904606024228914, -0.8070664637973728, 0.6696347630014335, -0.742690570951331, 0.6993958663359408, -0.7147345116560406, 0.7138421650157625, -0.7003066210208275, 0.7418361485213558, -0.6705811872898022, 0.8063129401584755, -0.5914891736397164, 0.8623937537651539, -0.5062380995804712, 0.9580207419825344, -0.28669889768053547, 0.9799000288110993, -0.19948918150117004, 0.9938575707980793, -0.11066674734237296, 0.9971950479370938, -0.07484675256640841, 0.9983800235567591, -0.056897526860181354, 0.999780531855113, -0.020949656882812518, 0.9976210293566046, 0.06893679558457004, 0.9873965212342564, 0.15826594660408982, 0.7107617471204293, -0.7034328246750465, 0.9043417435328034, -0.42680910358619256, 0.9948322994033564, -0.10153174904349276, 0.9994222339952926, 0.03398820671730953, 0.9948182147351236, 0.10166965934447507, 0.9719180435289724, 0.23531960535156113, 0.8382110612583766, 0.5453459606379294, 0.6089531327011156, 0.7932062040689656, 0.4997099117367475, 0.866192821554215, 0.686988922816703, 0.7266678883280491, 0.8367991218200498, 0.5475100270508235, 0.8843220607186872, 0.46687738532322864, 0.905201921610669, 0.42498174209294226, 0.9409697653662382, 0.33849062123876733, 0.9938193204096867, 0.11100972200860876, 0.9924653386597643, -0.12252571794916932, 0.5759976811273353, -0.8174513265852179, 0.7254399462036176, -0.688285467267828, 0.8465778588744103, -0.5322649047829653, 0.8860074765267785, -0.4636709517951822, 0.903656527756605, -0.42825795946237366, 0.9346850042409436, -0.35547706374266586, 0.986323722570049, -0.16481964171651736, 0.9994792358101404, 0.032268516922502016, 0.897670407610896, 0.4406674929010397, 0.8266055157862688, 0.562781770557395, 0.7390398290523231, 0.6736617334199064, 0.6997745751432302, 0.7143637336701183, 0.6792945014994577, 0.733865778077029, 0.6367213437752772, 0.7710939828458041, 0.5216925533921396, 0.8531335650032705, 0.3962496759204903, 0.9181427962647783, 0.47765957770338435, -0.8785450061483615, 0.5672558065305472, -0.8235416504083922, 0.6505822401089835, -0.7594358095683775, 0.6819484018801021, -0.7314002851880596, 0.6971822710520975, -0.7168939119079194, 0.7267178835871142, -0.6869360360868146, 0.7948212208618998, -0.6068436593288251, 0.854139515732931, -0.5200439285901857, 0.9554573377870461, -0.29512925247913085, 0.9786678064881994, -0.20544908017213498, 0.993480073108039, -0.11400589606351728, 0.9970225608158827, -0.07711039634277284, 0.9982803841592336, -0.05861974584466453, 0.9997670297479182, -0.021584397814744197, 0.997474726403568, 0.07102232174554027, 0.9866228339240649, 0.16301958035661546, 0.6944339909022634, -0.7195564135490387, 0.8987303609200308, -0.43850169710110726, 0.9945241284940718, -0.10450721431129481, 0.9993877514815623, 0.0349874575902149, 0.9945092046709975, 0.10464913676022443, 0.9702502308072889, 0.2421042949193644, 0.8288392254384563, 0.559486852727193, 0.5873634877783365, 0.8093232563227551, 0.4727897701151472, 0.8811752568442138, 0.6694082442698355, 0.7428947452389041, 0.8273480930024419, 0.5616895343561448, 0.8775617814838234, 0.4794635749240376, 0.8996401045979008, 0.4366322047204927, 0.9374835006382404, 0.34802972003992755, 0.9934508076105641, 0.11426063564464324, 0.9920162047741039, -0.1261104653293415, 0.552764395336582, -0.8333375806047528, 0.7098929640789798, -0.704309576501101, 0.8376762522306688, -0.5461670957214294, 0.8793435726402202, -0.47618786340722047, 0.8980056731333617, -0.439983875863989, 0.9308320036835331, -0.36544737092842666, 0.9855093820392018, -0.16962092415946375, 0.9994481549936499, 0.033217246721982216, 0.8916751678899305, 0.4526758166375405, 0.8165841286036779, 0.5772264381614653, 0.7242210925621861, 0.6895678422664686, 0.6828659547991567, 0.7305436932697702, 0.661311407681276, 0.7501114730962386, 0.6165396785083774, 0.7873238373279363, 0.4958175121870929, 0.8684267353142705, 0.3646080510951771, 0.9311610865347503, 0.4497055442548105, -0.8931768713230793, 0.5435915933789482, -0.839349855309296, 0.6311111315330987, -0.7756924259363448, 0.6641039329627989, -0.7476402652501686, 0.6801370512197527, -0.7330849824939122, 0.7112391353237195, -0.7029501350622019, 0.7830371505485197, -0.6219749358783316, 0.8456642833137757, -0.5337152048868365, 0.9528197500464123, -0.30353669287500074, 0.9773993355193598, -0.211401369263101, 0.993091356625055, -0.11734375738235037, 0.9968449352049484, -0.07937364270488133, 0.9981777739129866, -0.060341790378763055, 0.9997531246562713, -0.022219130046472253, 0.9973240636641357, 0.07310753748044757, 0.9858262612797063, 0.16776943276793954, 0.6777405695348958, -0.735301108666725, 0.8929678079439457, -0.450120532719609, 0.9942070582220034, -0.10748174441062078, 0.9993522698885408, 0.035986673486461514, 0.9941912711016401, 0.10762767518303644, 0.9685350566674841, 0.2488771665020989, 0.8192288528923252, 0.5734667266622581, 0.5653474920629958, 0.8248528433715198, 0.4454208718604135, 0.8953213093136503, 0.6514444023726467, 0.7586963757771256, 0.8176568185368771, 0.575705938044895, 0.8706223800036612, 0.49195189951534957, 0.8939283471887235, 0.44820989512999054, 0.9339005359424148, 0.3575329201157151, 0.9930716606744242, 0.11751032620727961, 0.99155412295899, -0.12969356669869192, 0.5290932324567168, -0.8485636990636016, 0.6939921139914546, -0.7199826009826015, 0.8285463708387693, -0.5599204509302234, 0.8725028497401741, -0.48860902283449004, 0.8922026700613825, -0.4516352461171956, 0.9268726531135397, -0.3753759247877625, 0.9846716696964803, -0.17441818396355793, 0.9994161736201522, 0.034165946590921106, 0.8855192993625719, 0.4646025941128825, 0.8063103543560142, 0.5914926985671749, 0.7090600897270131, 0.7051480618680875, 0.6655833338695166, 0.746323539542429, 0.6429399162364953, 0.76591661694326, 0.595944495276593, 0.803025627579548, 0.46949455002882046, 0.882935369941218, 0.3325395911813772, 0.9430892960355994, 0.4213038201836216, -0.9069195615371226, 0.5194871284800621, -0.8544782755246265, 0.611233965017065, -0.7914499605215212, 0.645872847956162, -0.7634449975427153, 0.6627159262461497, -0.7488708841313754, 0.6954075818561097, -0.7186155405340453, 0.77096506363323, -0.6368774377044689, 0.8369702493330502, -0.5472483912551701, 0.9501081835480175, -0.3119205660983045, 0.9760946628871774, -0.2173458283086371, 0.9926914257386766, -0.12068029360634466, 0.9966621720197442, -0.08163647998833568, 0.9980721931233829, -0.06206365533773055, 0.9997388165857769, -0.022853853322149863, 0.9971690417968276, 0.07519243367518118, 0.9850068217781817, 0.1725153936622625, 0.6606902732021239, -0.7506586194110496, 0.8870550538910714, -0.46166365610291266, 0.9938810914244108, -0.11045531272429591, 0.9993157892516986, 0.03698585340714191, 0.9938644168797972, 0.11060524788716228, 0.9667726048334024, 0.25563788949144034, 0.8093827094480648, 0.5872815590894281, 0.5429211263530449, 0.8397836927206559, 0.4176291946383288, 0.9086175519907926, 0.6331076794691394, 0.7740637352293425, 0.8077281125792509, 0.5895551680285408, 0.86350527270403, 0.5043398100609735, 0.8880676013451115, 0.4597128837014903, 0.9302212408560082, 0.3669992412257938, 0.9926818836597472, 0.12075875891104638, 0.9910790992455768, -0.13327497529009766, 0.505002943803825, -0.8631176204605435, 0.6777453222083993, -0.7352967280116463, 0.8191907026782501, -0.5735212224892072, 0.8654866833639296, -0.5009319324216663, 0.886248501739262, -0.46321009613879677, 0.9228074048972135, -0.3852615909571967, 0.9838106054086211, -0.17921130735955965, 0.9993832917184642, 0.035114615674488626, 0.8792039109638329, 0.4764456768047125, 0.7957873684267301, 0.605576142406931, 0.6935639856253698, 0.7203950290246677, 0.6479361779167709, 0.7616946299840945, 0.6241908170042009, 0.7812719270315734, 0.574949607429743, 0.8181888222876088, 0.44274744705015673, 0.8966463618007763, 0.3000818377086424, 0.95391346079055, 0.39248267995895697, -0.9197593956748878, 0.4949619339032478, -0.8689146586326859, 0.590963529562515, -0.8066982749002346, 0.6272657603055266, -0.7788052811507699, 0.6449285246178299, -0.7642428921058207, 0.6792310763157802, -0.7339244817874022, 0.7586094004691465, -0.6515456833713521, 0.828059663227379, -0.5606399862084043, 0.9473228488230994, -0.320280221209002, 0.974753836915114, -0.2232822371333275, 0.9922802849650909, -0.12401546705793617, 0.9964742722022011, -0.083898896530846, 0.9979636421046274, -0.06378533559735503, 0.9997241055422023, -0.02348856738593381, 0.9970096614792173, 0.07727700121702692, 0.9841645344269031, 0.17725735295405087, 0.6432920800058751, -0.7656208590429826, 0.8809930933124072, -0.473129125647361, 0.9935462310181633, -0.11342789264375197, 0.9992783096075054, 0.037984996353384544, 0.9935286449382575, 0.1135818281555183, 0.9649629613366838, 0.26238613387208126, 0.7993036287877101, 0.6009273741533152, 0.520100669322582, 0.854104966482576, 0.38944111740268506, 0.921051364515654, 0.614408571337102, 0.7889880274551073, 0.7975648582309041, 0.603233202762512, 0.8562119122829237, 0.5166247780205852, 0.8820588438605079, 0.4711392532653846, 0.9264459948925972, 0.37642770693383604, 0.9922814807388001, 0.12400589898393655, 0.9905911398339379, -0.1368546443585302, 0.4805126127080924, -0.8769878157810648, 0.6611606874424408, -0.7502443237910161, 0.8096117972576926, -0.586965704058737, 0.8582964843270724, -0.5131541142695706, 0.8801441769774128, -0.4747064648103633, 0.91863672349989, -0.39510323997328434, 0.9829262095961627, -0.18400018067632545, 0.9993495093182142, 0.03606325311788247, 0.8727301403650731, 0.4882029312676849, 0.7850184232247834, 0.619472416817468, 0.6777401037044298, 0.7353015380309691, 0.6299341521564918, 0.776648545963283, 0.6050751215979201, 0.7961683849684451, 0.5535690964026451, 0.8328032513793153, 0.4156003665522516, 0.9095473243991399, 0.2672727879401546, 0.963620909293015, 0.3632708155869003, -0.9316835914315698, 0.47003587246444395, -0.882647312688703, 0.5703128672009632, -0.8214275582819319, 0.6082935023506885, -0.7937121739005475, 0.6267846772588841, -0.7791925104577665, 0.6627176429452917, -0.7488693649289153, 0.7459747057143563, -0.6659742776071607, 0.8189348304626461, -0.5738865248941789, 0.9444639621304023, -0.32861500914739417, 0.9733769072657061, -0.22921037585992657, 0.9918579389470715, -0.1273492400749499, 0.996281236720724, -0.08616088067229086, 0.9978521211797641, -0.06550682603397416, 0.9997089915314772, -0.024123271981984596, 0.996845923407928, 0.0793612309947071, 0.983299418763253, 0.1819952006505908, 0.6255551512386475, -0.780179948959721, 0.8747829458561397, -0.48451501281101095, 0.9932024799997132, -0.11639945756926519, 0.999239830993429, 0.03898410132635489, 0.9931839582898265, 0.11655738927992579, 0.9631062145125632, 0.2691215702378401, 0.7889945116317267, 0.6144002446410751, 0.4969026857056159, 0.867806269243629, 0.3608833953572415, 0.9326109451188255, 0.5953577811804184, 0.8034607099217292, 0.7871700067014262, 0.616736070413979, 0.8487437874139858, 0.5288042958658363, 0.8759030761970243, 0.4824870994219326, 0.9225751874629424, 0.3858173447082398, 0.9918704561975925, 0.12725171166777974, 0.9900902510929853, -0.14043252718166552, 0.4556416393967806, -0.8901632976301674, 0.6442464768144224, -0.7648179372322566, 0.7998122649199546, -0.6002502318896781, 0.8509336984397953, -0.5252731107334275, 0.8738907300271439, -0.4861224043105044, 0.9143610854329238, -0.4048997474016565, 0.982018503232962, -0.18878469034350462, 0.999314826449842, 0.03701185806632885, 0.866099153769055, 0.4998722395177861, 0.7740068471793929, 0.6331772267852153, 0.6615959223189176, 0.7498605440820184, 0.6115871161637956, 0.7911770973318503, 0.5856040569383447, 0.8105972418515572, 0.5318173022705874, 0.8468591128432372, 0.38807783317547156, 0.9216266030219782, 0.23415085039053316, 0.9722002773407289, 0.3336973080470291, -0.9426802780381938, 0.44472913163938627, -0.8956651156940731, 0.5492952646025412, -0.835628333821457, 0.588967119019726, -0.8081569975652032, 0.6082944120974952, -0.7937114766783725, 0.6458754731179013, -0.7634427766537104, 0.7330656266603026, -0.6801579132886257, 0.8095981119374935, -0.5869845799910297, 0.9415317454393872, -0.33692428278451664, 0.9719639249387265, -0.235130024917503, 0.9914243924539268, -0.13068157501102515, 0.9960830665701857, -0.0884224207547773, 0.9977376306806757, -0.06722812152449054, 0.9996934745596938, -0.02475796685446654, 0.9966778282986299, 0.08144511389842037, 0.9824114948541306, 0.1867288268545396, 0.6074888265594853, -0.7943282228432901, 0.8684256560961348, -0.4958194024380226, 0.9928498414450696, -0.11936998091019425, 0.9992003534479362, 0.0399831673272563, 0.992830360027299, 0.11953190456135053, 0.9612024549955593, 0.2758438698077406, 0.778458324904195, 0.6276962931126445, 0.47334401427218736, 0.8808776556098419, 0.33198313456055817, 0.9432853218233316, 0.5759662135026486, 0.817473498593943, 0.7765465764516836, 0.6300598500151946, 0.84110242244265, 0.5408758775921755, 0.8696013243185313, 0.49375453085866117, 0.9186092178348217, 0.3951671860224443, 0.9914488144358301, 0.13049616221861418, 0.9895764395603868, -0.1440085770604939, 0.4304097256261694, -0.9026336289361291, 0.6270111217324037, -0.779010303669902, 0.7897947761308286, -0.6133711858218107, 0.8433998062161744, -0.5372864849170501, 0.8674892204054288, -0.4974559804448846, 0.9099809791992465, -0.4146499939654896, 0.9810875078456962, -0.19356472289423224, 0.9992792431445988, 0.03796042966508322, 0.8593121456998614, 0.5114514994138741, 0.7627560437112997, 0.6466863364737854, 0.6451390711968452, 0.7640651666024776, 0.5929051184733273, 0.805272326910673, 0.5657890586596004, 0.8245500234073633, 0.5097088141313293, 0.8603469793036028, 0.36020471074386984, 0.9328732852632907, 0.20075479986220665, 0.9796415213394568, 0.3037915983417343, -0.9527385080791971, 0.4190622072138855, -0.9079575246040018, 0.5279242445273332, -0.8492914647164684, 0.5692978613990636, -0.8221313429169652, 0.5894679485236012, -0.8077917662760478, 0.6287129212742892, -0.7776374879227141, 0.7198869115224189, -0.6940913733930952, 0.8000519233724781, -0.5999307625951502, 0.9385264264129968, -0.3452073969723848, 0.9705149422692939, -0.24104096504957215, 0.990979650381445, -0.13401243423604053, 0.9958797627719227, -0.09068350512270099, 0.9976201709480819, -0.06894921694638685, 0.9996775546331066, -0.02539265174754786, 0.9965053768860372, 0.08352864081988146, 0.9815007832954866, 0.19145812176647456, 0.5891026190760361, -0.8080582306973642, 0.8619222933562345, -0.5070403930807971, 0.99248831850977, -0.12233943608521845, 0.9991598770104924, 0.040982193357331165, 0.992467853323432, 0.12250534731014244, 0.9592517757150503, 0.2825527044420613, 0.7676981008789399, 0.640811693016653, 0.4494417556055743, 0.8933096374260043, 0.3027677661978075, 0.9530643628588731, 0.5562449678653876, 0.8310183726756191, 0.7656976523173158, 0.6432006726020667, 0.8332893770750017, 0.5528370592262748, 0.8631546385196632, 0.5049396696655845, 0.9145484950918459, 0.40447626645483165, 0.9910165599668681, 0.13373921590705884, 0.9890497119424796, -0.14758274731992946, 0.40483685907463984, -0.9143889312183193, 0.6094632136887661, -0.7928143484827714, 0.7795620607513132, -0.6263249902703596, 0.8356963225764664, -0.5491918211628525, 0.8609407327153914, -0.5087052729739342, 0.9054969052375526, -0.4243528656733861, 0.9801332455133526, -0.19834016496782034, 0.9992427594345471, 0.03890896705943113, 0.8523703387877108, 0.5229386250363642, 0.7512694901808484, 0.6599955705331726, 0.6283773278337066, 0.7779086924984002, 0.573898391075753, 0.8189265148477377, 0.5456417643929344, 0.8380185349681506, 0.48725846032007847, 0.8732578043433145, 0.3320061798032359, 0.9432772108836625, 0.16712373205297845, 0.9859359300607136, 0.27358345818712787, -0.9618482683907956, 0.39305588668440655, -0.9195145838662565, 0.5062135571248091, -0.8624081600860741, 0.5492971801835156, -0.8356270746226683, 0.5703156917407362, -0.8214255972115099, 0.6112385007783966, -0.7914464575485686, 0.7064434076936399, -0.7077695329174587, 0.7902987346850434, -0.6127217230972143, 0.9354482383899799, -0.35346370859408377, 0.9690300129259356, -0.2469429773222174, 0.9905237177518399, -0.13734178013653914, 0.995671326373729, -0.09294412212280631, 0.9974997423315389, -0.07067010717774125, 0.9996612317581325, -0.026027326405400817, 0.9963285699239047, 0.08561180265236107, 0.9805673052118459, 0.1961829756874402, 0.5704062103352728, -0.8213627427701797, 0.8552739515303931, -0.5181760973198077, 0.992117914428853, -0.12530779652257534, 0.9991184017215615, 0.04198117841786179, 0.9920964414309158, 0.12547769084627505, 0.9572542718907372, 0.2892477466583526, 0.7567169363068555, 0.6537426697916897, 0.425213259689456, 0.905093190662855, 0.273265020543989, 0.9619387862785725, 0.536205332534974, 0.8440875792007947, 0.754626384612961, 0.6561547223376293, 0.8253062460594204, 0.5646853993289603, 0.8565640932507689, 0.5160406516481896, 0.9103934380912623, 0.413743625788206, 0.9905736974176625, 0.1369808380186849, 0.9885100751141839, -0.15115499130941934, 0.37894329750926264, -0.9254198924125234, 0.5916114999775195, -0.8062231906205313, 0.7691169072937004, -0.6391081152003731, 0.8278247965424872, -0.560986725537592, 0.8542463764625432, -0.5198683759381936, 0.9009093758651242, -0.4340072539466506, 0.9791557388667045, -0.2031109033124463, 0.9992053753525606, 0.03985746939468892, 0.8452749835487087, 0.5343315470629919, 0.7395507368132173, 0.673100815390256, 0.6113186138168406, 0.7913845793298329, 0.5545773438137755, 0.8321321828462456, 0.5251740069317704, 0.8509948662848846, 0.46448129846401265, 0.8855829285714494, 0.30350771487302103, 0.9528289809890109, 0.1332970177879337, 0.9910761348397222, 0.24310296037472154, -0.9700004900292817, 0.36673123242239386, -0.9303269334841124, 0.48417717108695535, -0.8749699806268973, 0.5289767190101271, -0.848636335979836, 0.5508482270151762, -0.8346054341988416, 0.5934608796944301, -0.8048628356883633, 0.6927400599614357, -0.7211873607632252, 0.7803410693504709, -0.6253541520490319, 0.9322974203667742, -0.3616925766137016, 0.967509191908599, -0.2528358431321989, 0.9900565997136936, -0.1406695751161531, 0.9954577584498515, -0.09520426010424632, 0.9973763451894384, -0.07239078709724253, 0.999644505941351, -0.026661990572201796, 0.9961474081850245, 0.08769459029072561, 0.9796110822558166, 0.2009032790214924, 0.5514094452255238, -0.8342347533614745, 0.8484817488986786, -0.529224642081073, 0.9917386325168286, -0.12827503566029863, 0.9990759276226061, 0.04298012151017147, 0.9917161276823451, 0.12844890849958485, 0.9552100410279963, 0.2959286696474228, 0.7455179915246715, 0.6664855019526081, 0.40067611331404174, 0.9162197619673749, 0.2435029006432558, 0.9699001687690959, 0.5158587780211877, 0.8566736374714042, 0.7433359882174664, 0.6689182376200866, 0.8171546588610699, 0.5764184794935435, 0.8498307869388361, 0.5270556266381364, 0.9061444754207506, 0.42296830810883784, 0.9901202315287209, 0.14022099385438766, 0.9879575361189122, -0.15472526240355267, 0.35274955273843345, -0.9357177742475746, 0.5734648793339446, -0.8192301460337652, 0.7584621621616799, -0.6517170770886931, 0.8197868109261333, -0.5726688263137433, 0.8474072858668, -0.5309433979812381, 0.8962189152192972, -0.44361205574594814, 0.9781550110877755, -0.20787682478783864, 0.9991670909323244, 0.04080593581620454, 0.838027358159577, 0.5456282131415862, 0.7276034056011257, 0.6859980205202081, 0.5939709910816943, 0.8044864584027688, 0.5349525586807402, 0.8448820982604195, 0.5043978072821387, 0.8634713961730118, 0.44139260538301006, 0.8973140854311819, 0.2747350614326872, 0.9615199665215369, 0.09931425692926124, 0.9950561182016765, 0.21238044883337584, -0.977187057299335, 0.3401095646159747, -0.9403858165969604, 0.46182926466079677, -0.8869688440429392, 0.50834830767969, -0.8611515534905545, 0.5310763138255651, -0.8473239928701711, 0.5753888764871306, -0.8178799672414514, 0.6787819086890201, -0.734339921587061, 0.7701815037489715, -0.6378247810198134, 0.9290742169789503, -0.36989336212610024, 0.9659525355466149, -0.2587193442150506, 0.9895783015418986, -0.14399578159602822, 0.9952390601009841, -0.09746390741864291, 0.9972499798890059, -0.07411125158420531, 0.999627377189504, -0.02729664399213141, 0.9959618924612225, 0.08977699463147709, 0.978632136607589, 0.20561892227824097, 0.5321223267924912, -0.8466674845114492, 0.8415468279391736, -0.5401841689512152, 0.9913504761676489, -0.13124112694645576, 0.999032454756087, 0.043979021635625413, 0.9913269154901885, 0.13141897361001062, 0.9531191829131196, 0.30259514728929043, 0.7341044895454201, 0.6790365221615537, 0.3758481273103115, 0.9266812748714263, 0.21350965572933928, 0.9769409536457866, 0.49521695051163067, 0.8687693433391633, 0.7318297416403501, 0.6814875121751083, 0.8088362793293024, 0.5880339048394495, 0.8429558418044197, 0.53798275880162, 0.9018020453542146, 0.43214936190506537, 0.9896561671540514, 0.1434596487307576, 0.9873921021684784, -0.15829351400266903, 0.32627637436326645, -0.9452744191674509, 0.5550323974987452, -0.8318287310058452, 0.7476007288746667, -0.6641484398732463, 0.8115839820111092, -0.584235774446406, 0.8404246196703126, -0.54192846267013, 0.8914260591975771, -0.4531661736973291, 0.9771310859092887, -0.21263781636795998, 0.9991279062083349, 0.04175436546935829, 0.8306287682273991, 0.5568265882597865, 0.7154311891853617, 0.6986831996984177, 0.5763426581017582, 0.817208137778987, 0.515034784024958, 0.8571692780567703, 0.48332536760256845, 0.8754407969884898, 0.4180078668433688, 0.9084434067442266, 0.24571421266327242, 0.9693423160552046, 0.06521523201795208, 0.9978712209062073, 0.18144650842133003, -0.983400815833355, 0.3132124440028619, -0.9496830865724387, 0.43918421652608847, -0.8983970302457405, 0.4874239552698832, -0.8731654412704748, 0.5110108799162559, -0.8595742438016706, 0.5570314556474342, -0.8304913951506665, 0.664574087961405, -0.7472223776161061, 0.759822666499091, -0.6501303834418225, 0.925778878482218, -0.37806542840652163, 0.9643601014966109, -0.26459326265316413, 0.9890888286375983, -0.14732036201524826, 0.9950152324542618, -0.09972305242014677, 0.9971206468063003, -0.07583149551858535, 0.9996098455094955, -0.027931286409374593, 0.9957720235633554, 0.09185900657279276, 0.9776304909744199, 0.2103297960753889, 0.5125550109719902, -0.85865438956981, 0.8344703551358053, -0.5510528344900542, 0.990953448854678, -0.13420604383938559, 0.9989879831654639, 0.04497787779563181, 0.9909288083467589, 0.13438785952783266, 0.9509817996084431, 0.3092468541691039, 0.7224797151308657, 0.6913921182834115, 0.3507473236216283, 0.9364701356542369, 0.18331375441229616, 0.9830544580252247, 0.4742916652055522, 0.8803677733291606, 0.7201109860697865, 0.6938588961320592, 0.8003528053580445, 0.5995293045010461, 0.8359404036746052, 0.5488202269453432, 0.8973665958065749, 0.44128584016544126, 0.989181509261111, 0.14669676798045192, 0.9868137806430025, -0.16185969953346677, 0.299544733340618, -0.9540822567933532, 0.5363232427089206, -0.8440126653849385, 0.7365355672765641, -0.6763988158894056, 0.8032179592279238, -0.5956852440456532, 0.8332995609411412, -0.55282170881334, 0.886531355396411, -0.4626685162176074, 0.9760839876141044, -0.21739376514368788, 0.9990878212158997, 0.04270275749956359, 0.8230805465544249, 0.5679246551116347, 0.7030378497134728, 0.7111524322325393, 0.5584419460139738, 0.8295436052023581, 0.4948349286629127, 0.8689869926386529, 0.4619690640375856, 0.8868960389314168, 0.3943427671713817, 0.9189634279880878, 0.21647138596518015, 0.9762889628887106, 0.031039861701637642, 0.9995181474018084, 0.15033193447837886, -0.9886355797137732, 0.2860616544084333, -0.9582112136043441, 0.41625659654404895, -0.9092471863215001, 0.4662158431440434, -0.8846710052903783, 0.49066301525765155, -0.8713494163986509, 0.5383977232456998, -0.8426908636053003, 0.6501218236969822, -0.7598299904274047, 0.7492672377775982, -0.6622677754451958, 0.9224116607329952, -0.38620814096002404, 0.9627319487403762, -0.2704573808838606, 0.9885881865281253, -0.15064327883125916, 0.9947862766632555, -0.10198168346549742, 0.9969883463262127, -0.07755151378099481, 0.9995919109083923, -0.028565917568120724, 0.9955778023213067, 0.09394061701456505, 0.9766061685901068, 0.21503579114126997, 0.49271780124218095, -0.8701891566430087, 0.8272535207821382, -0.561828810540681, 0.9905475541306602, -0.1371697598079359, 0.9989425128951944, 0.0459766889916428, 0.990521809824181, 0.1373555396139119, 0.9487979954473659, 0.31588346559302577, 0.7106470138461639, 0.7035487344253631, 0.32539192222211244, 0.9455792388544699, 0.152943857657033, 0.9882348791684016, 0.4530948995509342, 0.8914622886027928, 0.7081831244023908, 0.7060287970838497, 0.7917059685392341, 0.6109023321115686, 0.8287856417920362, 0.55956622482005, 0.892838584287567, 0.4503768004764157, 0.9886962629307524, 0.14993231695256556, 0.9862225790908152, -0.16542377244961076, 0.27257580537076276, -0.9621343099206472, 0.5173467411176061, -0.8557758757145428, 0.7252696927291784, -0.6884648667931597, 0.794690424822222, -0.6070149328442228, 0.8260333168728093, -0.5636212907760892, 0.8815353630486238, -0.4721179976390766, 0.9750137410346441, -0.22214455832549224, 0.9990468359911374, 0.04365111105226777, 0.8153840528979756, 0.5789204144609787, 0.6904272176769737, 0.7234018641742865, 0.5402773146814449, 0.841487030940232, 0.4743640559045863, 0.8803287695320144, 0.44034143944902704, 0.8978303941747343, 0.37041317873373697, 0.9288670933025718, 0.18703299927341208, 0.9823536314295336, -0.0031718459969045107, 0.999994969683834, 0.11906770216851326, -0.9928861376312543, 0.2586791851031347, -0.9659632908109801, 0.3930611563830889, -0.9195123312619515, 0.44473631785963724, -0.8956615474478358, 0.47004396591688635, -0.8826430026376038, 0.5194969224147062, -0.8544723211442538, 0.635430431725327, -0.7721581226907897, 0.7385179486260337, -0.6742338166817169, 0.9189728251685436, -0.3943208675707456, 0.9610681375826764, -0.2763114817074488, 0.9880763808669402, -0.15396449452029298, 0.9945521939079655, -0.10423978891408324, 0.9968530788424645, -0.0792713012527174, 0.9995735733934235, -0.02920053721256372, 0.9953792295839832, 0.0960218168584412, 0.9755591932144485, 0.21973679831738308, 0.4726211431981102, -0.8812657119178706, 0.8198975387811611, -0.5725102845369632, 0.9901327956276887, -0.14013224833170076, 0.998896043990735, 0.04697545422515547, 0.9901059235743604, 0.1403219872399289, 0.9465678770292565, 0.3225046576040822, 0.6986097910970193, 0.7155028719602593, 0.2998003278912702, 0.9540019724278808, 0.12242879157925278, 0.9924772999884903, 0.43163878638870545, 0.902046538757777, 0.696049620255085, 0.7179936811301002, 0.7828975338093785, 0.6221506662820454, 0.8214927486200401, 0.570218961421568, 0.8882184778545504, 0.45942130511954443, 0.9882004333571691, 0.15316626101300201, 0.9856185052283591, -0.1689856862323401, 0.24539095412287953, -0.9694242000459153, 0.49811235214516597, -0.867112498260987, 0.7138061752905045, -0.7003433044708441, 0.7860030935165172, -0.6182225626604589, 0.8186271185797702, -0.5743253787930521, 0.876438652959524, -0.4815135383335501, 0.9739203715523016, -0.22689008324611037, 0.999004950570978, 0.044599425272952846, 0.8075406737254935, 0.5898118855016199, 0.6776031907274312, 0.735427709510598, 0.521857348695312, 0.8530327705385647, 0.4536333774941647, 0.8911883969303217, 0.4184551960494384, 0.9082374408155756, 0.34623515129179816, 0.9381477602222081, 0.1574256471916367, 0.9875308428632973, -0.03737984051587587, 0.999301129551552, 0.08768493564354142, -0.9961482580726566, 0.2310872129934961, -0.972933039829, 0.36961282002756185, -0.9291858604559549, 0.42299788398056476, -0.9061306694665867, 0.4491651278422351, -0.893448760663122, 0.500338428764661, -0.8658299236578223, 0.6205053158319301, -0.7842022398745854, 0.7275775802440989, -0.6860254111373293, 0.9154626387866696, -0.40240297835099054, 0.9593687296490203, -0.28215534829526967, 0.9875534174335667, -0.1572839715777916, 0.9943129853948157, -0.10649735712800143, 0.9967148447576076, -0.08099085281572364, 0.9995548329719803, -0.029835145086902135, 0.9951763062193114, 0.09810259700786321, 0.9744895891326942, 0.2244327085609244, 0.4522756190514186, -0.8918782228598566, 0.8124036464411032, -0.5830954598084255, 0.9897091770571734, -0.1430934829012579, 0.99884857649854, 0.04797417249771286, 0.9896811533289498, 0.14328717578862282, 0.9442915532142497, 0.32911010699797677, 0.6863715111496236, 0.7272510905335119, 0.2739911168544759, 0.9617322225468152, 0.09179752008464567, 0.995777693717985, 0.40993560700801107, 0.9121144654630654, 0.6837139969593301, 0.7297500739033174, 0.7739292990893074, 0.6332720110751251, 0.8140629396438844, 0.5807766612893095, 0.8835067530643317, 0.4684184211682136, 0.9876940258478407, 0.15639856554484427, 0.9850015669400879, -0.17254539439107508, 0.21801171431163688, -0.9759461524197435, 0.47862966376385446, -0.8780168819363894, 0.7021481388781051, -0.7120308919351837, 0.777157712165394, -0.6293058798564102, 0.8110822208888194, -0.5849321592783734, 0.8712418074416877, -0.49085406483571176, 0.972803905096841, -0.23163022736321875, 0.9989621649931626, 0.04554769930713625, 0.7995518219647801, 0.6005971062141413, 0.6645697324717915, 0.7472262513338055, 0.5031907533176817, 0.8641753674894836, 0.43265424746945036, 0.9015599270967203, 0.3963231879418829, 0.9181110666469405, 0.3218249012369042, 0.9467992041314023, 0.12767607696665484, 0.9918159201033249, -0.07154407564037912, 0.9974374392616129, 0.05621487705838972, -0.9984186935335847, 0.20330808466117978, -0.9791148158982186, 0.3459266741756496, -0.9382615499389144, 0.4010131967974781, -0.9160722766213739, 0.42803804056468103, -0.9037607182377139, 0.48093174573249364, -0.8767580372866257, 0.6053519657705787, -0.7959579119134982, 0.7164489632700666, -0.6976395079331781, 0.9118813741249943, -0.41045384579013544, 0.9576337878833775, -0.2879887641977277, 0.9870193021335268, -0.16060167251883029, 0.9940686523566472, -0.10875437647211801, 0.9965736444830217, -0.08271016335268616, 0.9995356896516169, -0.03046974093533928, 0.9949690331142337, 0.10018294836810739, 0.97339738115498, 0.22912341294731664, 0.4316919420581104, -0.9020211012842754, 0.8047731042673141, -0.5935825558824576, 0.9892767022098067, -0.14605343701840579, 0.9988001104660623, 0.048972842810904936, 0.9892475028993162, 0.14625107865403025, 0.9419691351179327, 0.3356994913388668, 0.6739356961336537, 0.7387900090532137, 0.24798302329900912, 0.9687643780380671, 0.06107911737729438, 0.9981329277307761, 0.387997784116512, 0.9216603059265798, 0.6711798365380222, 0.7412945615777806, 0.7648030949171933, 0.6442640964737075, 0.8064974531681952, 0.5912375648021824, 0.8787038959240092, 0.4773672205838688, 0.9871770458234751, 0.15962919594872507, 0.9843717722783631, -0.17610285046402424, 0.19045977463828237, -0.9816950006212392, 0.4589083877183964, -0.8884835911156165, 0.690298760417814, -0.7235244442074016, 0.7681560594042496, -0.6402626557909926, 0.8033999021264909, -0.5954398351329417, 0.8659454202484282, -0.5001385099657623, 0.9716643681457819, -0.23636487826210206, 0.9989184792962433, 0.046495932300371634, 0.7914189367494673, 0.6112741337193507, 0.6513308712473217, 0.7587938429904428, 0.48428635036752554, 0.874909555810029, 0.41143815594333993, 0.9114376796215657, 0.37395841357054493, 0.9274454727474825, 0.2971988007139098, 0.9548156224393345, 0.09781116432497076, 0.9952049920159131, -0.10562455638325234, 0.994406080577166, 0.02468885546893016, -0.9996951837513444, 0.17536429826461086, -0.9845036124332711, 0.32201795853255494, -0.9467335603972882, 0.37879505496035026, -0.9254805812860609, 0.4066743808201313, -0.9135731760425997, 0.4612864998677435, -0.8872512412162444, 0.5899759552441161, -0.8074208148380824, 0.7051349770483999, -0.7090731021149742, 0.9082293092397932, -0.41847284480334945, 0.9558633765458464, -0.29381151335230776, 0.9864740409982743, -0.1639175598785409, 0.9938191960527124, -0.11101083531412782, 0.9964294784389139, -0.08442922774699482, 0.9995161434400492, -0.031104324502083284, 0.9947574111747043, 0.10226286184632423, 0.9722825946157536, 0.2338088026727356, 0.4108809508773205, -0.9116890062988304, 0.7970071957502409, -0.6039698087837978, 0.9888353749555305, -0.14901208419640097, 0.9987506459417532, 0.049971464166369634, 0.9888049761765064, 0.14921366924172388, 0.9396007361059207, 0.3422724889751031, 0.6613059250286157, 0.7501163066632046, 0.22179492577542836, 0.9750933344558727, 0.030302740363387478, 0.9995407665155379, 0.365837874729736, 0.9306785961937827, 0.6584507786653409, 0.7526237918608514, 0.7555207840749127, 0.6551246788442862, 0.7987975501105721, 0.601599928471861, 0.8738104018408411, 0.4862667803117418, 0.9866494988179513, 0.16285811764319755, 0.9837291294633499, -0.1796580080187905, 0.1627569606097503, -0.9866661906506558, 0.4389583546848696, -0.8985074083458368, 0.6782612689779935, -0.7348208291851572, 0.7589999452916438, -0.6510906872681267, 0.7955814639024708, -0.6058466260488719, 0.860550096505958, -0.5093658129513468, 0.9705017877237715, -0.24109392365831933, 0.9988738935195832, 0.04744412339824963, 0.7831434831597679, 0.6218410446282767, 0.6378906988765447, 0.7701269092083417, 0.46515307405149614, 0.8852302625308532, 0.3899967228107753, 0.9208162445335417, 0.35137400808655633, 0.9362351768872972, 0.27237336664025946, 0.9621916384718019, 0.06785788919329047, 0.9976949969175104, -0.1395813858059348, 0.9902106022137386, -0.006861744356705819, -0.9999764579550776, 0.14727848531784654, -0.9890950650784185, 0.29790205600524994, -0.9545964409256117, 0.35635639302758876, -0.9343501063029676, 0.38508595609579677, -0.9228807108276703, 0.4414124360573758, -0.8973043303661768, 0.5743829398543223, -0.8185867323651819, 0.6936385488847706, -0.7203232354304765, 0.9045067276844072, -0.426459352780128, 0.9540575612102751, -0.2996233800915782, 0.9859176401851261, -0.16723159621253506, 0.9935646177686677, -0.11326672202461441, 0.9962823470543178, -0.08614804088277206, 0.9994961943451562, -0.031738895531347254, 0.9945414413256852, 0.10434232835157817, 0.9711452553731864, 0.23848876905663394, 0.3898536038640467, -0.9208768471159512, 0.7891072271495393, -0.6142554713312413, 0.9883851992435014, -0.1519693979601948, 0.9987001829750617, 0.05097003556579382, 0.9883535771312122, 0.15217492096905125, 0.9371864717883236, 0.3488287790549307, 0.6484858326338285, 0.7612267236988006, 0.19544583349415814, 0.9807144977870847, -0.0005023990235650146, 0.9999998737976026, 0.3434685629835541, 0.9391641742751968, 0.6455305196098613, 0.763734474966413, 0.7460842612078283, 0.6658515413949035, 0.7909645137914347, 0.6118620252333685, 0.8688267755711461, 0.4951161823760615, 0.9861113904782595, 0.16608529606510516, 0.983073646882909, -0.18321082065297745, 0.1349252172493982, -0.9908557845368834, 0.4187895093703021, -0.9080833369473209, 0.6660389448895823, -0.7459169684960734, 0.7496912109453326, -0.6617877969797575, 0.7876282308890667, -0.6161507688111401, 0.8550564526442509, -0.5185349195487512, 0.9693161914019434, -0.2458172514003666, 0.9988284077033566, 0.048392271746398624, 0.7747269519585517, 0.6322959353886533, 