{"fixed_weights":[0.0,0.0,0.0,0.0,0.0,0.0,0.0,0.0,0.0,0.0,0.0,0.0,0.0,0.0,0.0,0.0,0.0,0.0,0.0,0.0,0.0,0.0,0.0,0.0,0.0,0.0,0.0,0.0,0.0,0.0,0.0,0.0,0.0,0.0,0.0,0.0,0.0,0.0,0.0,0.0,0.0,0.0,0.0,0.0,0.0,0.0,0.0,0.0,0.0,0.0,0.0,0.0,0.0,0.0,0.0,0.0,0.0,0.0,0.0,0.0,0.0,0.0,0.0,0.0,0.0,0.0,0.0,0.0,0.0,0.0,0.0,0.0,0.0,0.0,0.0,0.0,0.0,0.0,0.0,0.0,0.0,0.0,0.0,0.0,0.0,0.0,0.0,0.0,0.0,0.0,0.0,0.0,0.0,0.0,0.0,0.0,0.1442684829235077,0.0,0.1442459225654602,9.174776641884819e-05,0.14420491456985474,0.00016901892377063632,0.14420078694820404,0.00019386167696211487,0.1441819667816162,0.0002160267613362521,0.1441761702299118,0.00024735278566367924,0.14414921402931213,0.0003368541074451059,0.14411023259162903,0.0004165717982687056,0.14413809776306152,0.00045125692849978805,0.14418533444404602,0.0004012786375824362,0.14424103498458862,0.00035114921047352254,0.14426828920841217,0.0003297114744782448,0.1442711055278778,0.00031860428862273693,0.14429962635040283,0.0003027856582775712,0.14435097575187683,0.00025016244035214186,0.1443929225206375,0.00020158308325335383,0.14433346688747406,-0.00022375682601705194,0.14437617361545563,-0.0003208763664588332,0.14439694583415985,-0.0004179161915089935,0.14441168308258057,-0.0004620034887921065,0.14441221952438354,-0.0004835930885747075,0.144422248005867,-0.0005151431541889906,0.1444443166255951,-0.0006156914751045406,0.14446845650672913,-0.0007133639883249998,0.1444423794746399,-0.0006133030401542783,0.14438049495220184,-0.0004322993918322027,0.14432063698768616,-0.0002546098839957267,0.1442977637052536,-0.00017689111700747162,0.14428722858428955,-0.0001442256907466799,0.14426584541797638,-7.522045052610338e-05,0.1442030370235443,0.00011236892169108614,0.14414501190185547,0.0002895381476264447,0.14433902502059937,-5.875900387763977e-05,0.14435604214668274,-2.737894465099089e-05,0.1443675458431244,2.226244760095142e-06,0.14438247680664063,1.524409708508756e-05,0.1443810909986496,1.9055627490160987e-05,0.1443934291601181,3.180109342793003e-05,0.14441236853599548,6.608192052226514e-05,0.14443007111549377,9.715196210891008e-05,0.14445754885673523,-3.4702461562119424e-05,0.144479438662529,-0.0001556220231577754,0.14447195827960968,-0.00028741854475811124,0.1444789320230484,-0.0003360403934493661,0.14447525143623352,-0.000366642780136317,0.14447905123233795,-0.00042017383384518325,0.14448373019695282,-0.0005503196152858436,0.14449883997440338,-0.0006800857372581959,0.14522685110569,0.0,0.14587250351905823,0.0012515300186350942,0.1464633196592331,0.0025254501961171627,0.14663340151309967,0.0030936182010918856,0.14673039317131042,0.003323999932035804,0.146950826048851,0.00384612032212317,0.14748457074165344,0.005153575912117958,0.14787589013576508,0.0064610568806529045,0.14730413258075714,0.00629345141351223,0.14627669751644135,0.004846142139285803,0.1451335847377777,0.003433632431551814,0.14465944468975067,0.002854487393051386,0.14441236853599548,0.002555898390710354,0.14392238855361938,0.001974534709006548,0.14253883063793182,0.0005186994094401598,0.1410713642835617,-0.0009166342788375914,0.14434626698493958,-0.0029321161564439535,0.1443038284778595,-0.003976814914494753,0.1441732496023178,-0.005087723024189472,0.14414864778518677,-0.0054958234541118145,0.14407065510749817,-0.005710524506866932,0.14401575922966003,-0.006157948635518551,0.14382347464561462,-0.007198085077106953,0.14360688626766205,-0.008286422118544579,0.1446804404258728,-0.006849449593573809,0.1456306427717209,-0.004561890382319689,0.14645792543888092,-0.0022124359384179115,0.1467699259519577,-0.0012744569685310125,0.14690260589122772,-0.0007985889678820968,0.14714623987674713,0.00014449282025452703,0.14770245552062988,0.0025893845595419407,0.1480976641178131,0.004991157446056604,0.14363281428813934,-0.0017411992885172367,0.14297987520694733,-0.0018565392820164561,0.14234039187431335,-0.0020013973116874695,0.14205676317214966,-0.0020412590820342302,0.14189830422401428,-0.0021018132101744413,0.14161470532417297,-0.0021762396208941936,0.14088153839111328,-0.0023351525887846947,0.14008298516273499,-0.002500101923942566,0.14016203582286835,-0.00377062289044261,0.14097054302692413,-0.004620764870196581,0.1416061818599701,-0.0055028595961630344,0.1418638378381729,-0.00586329959332943,0.14195899665355682,-0.006030490156263113,0.1421656757593155,-0.006445219274610281,0.1426021158695221,-0.007365706376731396,0.1429220736026764,-0.008338515646755695,0.1461150050163269,0.0,0.14748045802116394,0.0016147213755175471,0.14865967631340027,0.0032193397637456656,0.14906476438045502,0.003950378857553005,0.1492886245250702,0.0042633116245269775,0.1497347354888916,0.0049068983644247055,0.15082226693630219,0.0065928916446864605,0.1517096310853958,0.008267856203019619,0.1514076143503189,0.007870110683143139,0.15004712343215942,0.005917812697589397,0.1484593003988266,0.003960671368986368,0.14776752889156342,0.0031367773190140724,0.14741626381874084,0.0027420460246503353,0.14667612314224243,0.0019403251353651285,0.14463230967521667,-5.383235838962719e-05,0.14238134026527405,-0.0020920743700116873,0.1434350609779358,-0.0036337124183773994,0.14254480600357056,-0.004921554122120142,0.14161057770252228,-0.006283853203058243,0.14124009013175964,-0.0067780823446810246,0.1409894973039627,-0.0070729563012719154,0.1406230628490448,-0.0076119666919112206,0.13954360783100128,-0.008886058814823627,0.1384306102991104,-0.010227125138044357,0.1405591070652008,-0.00847432017326355,0.14321249723434448,-0.00564705953001976,0.14559721946716309,-0.002675657393410802,0.14649319648742676,-0.0015099437441676855,0.14690040051937103,-0.0009088643710128963,0.1476929932832718,0.0002733952132984996,0.14960713684558868,0.0033432915806770325,0.15115046501159668,0.006399382837116718,0.14375226199626923,-0.0023438746575266123,0.143149271607399,-0.002646466251462698,0.1425311118364334,-0.0029524543788284063,0.14228756725788116,-0.0030764546245336533,0.14209814369678497,-0.0031688627786934376,0.1418539583683014,-0.003307057311758399,0.14113448560237885,-0.0036774221807718277,0.14029188454151154,-0.004058700520545244,0.13939574360847473,-0.005564687307924032,0.13945963978767395,-0.006420579738914967,0.1392698585987091,-0.007381059229373932,0.139190673828125,-0.007738054729998112,0.139108806848526,-0.007910088635981083,0.13895636796951294,-0.008340919390320778,0.138507679104805,-0.009339830838143826,0.13785311579704285,-0.01043777447193861,0.14517554640769958,0.0,0.14585474133491516,0.0028170584701001644,0.14624281227588654,0.005609596613794565,0.14633363485336304,0.006788171827793121,0.14639005064964294,0.007377284578979015,0.14649051427841187,0.00848052091896534,0.146688312292099,0.011286749504506588,0.14664040505886078,0.014061651192605495,0.14677700400352478,0.014135640114545822,0.1466885209083557,0.011454182676970959,0.14620263874530792,0.008739013224840164,0.14589731395244598,0.007566450163722038,0.14573054015636444,0.007076254580169916,0.14536789059638977,0.005963878706097603,0.14409847557544708,0.00324442470446229,0.14247721433639526,0.0004846529336646199,0.14399665594100952,-0.006318117957562208,0.14364571869373322,-0.008604022674262524,0.1431800276041031,-0.01097661629319191,0.1429612636566162,-0.01186444517225027,0.14280594885349274,-0.01238797977566719,0.1426469087600708,-0.013300285674631596,0.14197617769241333,-0.015627600252628326,0.14124071598052979,-0.017997095361351967,0.14274126291275024,-0.014771954156458378,0.14444488286972046,-0.009732378646731377,0.1457071155309677,-0.004499028902500868,0.1461051106452942,-0.002453282941132784,0.14624787867069244,-0.001413886435329914,0.14650863409042358,0.0006260140798985958,0.14700746536254883,0.005843429826200008,0.1469559371471405,0.011076122522354126,0.14390261471271515,-0.0032766787335276604,0.1434703916311264,-0.003205696353688836,0.14297154545783997,-0.0030207978561520576,0.1427769660949707,-0.0029926325660198927,0.14261505007743835,-0.002991671208292246,0.14242132008075714,-0.0029539759270846844,0.14178328216075897,-0.002912776544690132,0.14094653725624084,-0.002888786606490612,0.14075824618339539,-0.005817329976707697,0.14135664701461792,-0.008173842914402485,0.141556516289711,-0.010602738708257675,0.14165017008781433,-0.011537164449691772,0.14162392914295197,-0.012018469162285328,0.14161010086536407,-0.01299598440527916,0.1414441019296646,-0.015423381701111794,0.14093849062919617,-0.017937738448381424,0.14125734567642212,0.0,0.1417749971151352,0.003361039562150836,0.14197400212287903,0.006706399843096733,0.14199569821357727,0.008052731864154339,0.14193616807460785,0.0087728975340724,0.14195720851421356,0.010096888989210129,0.1417391151189804,0.013413055799901485,0.14124467968940735,0.01668088138103485,0.14306770265102386,0.018656263127923012,0.1448434442281723,0.017016969621181488,0.1460888385772705,0.015352270565927029,0.1464540958404541,0.01461312547326088,0.1466013789176941,0.014347448945045471,0.14687341451644897,0.013667341321706772,0.1471208781003952,0.012015599757432938,0.14691883325576782,0.010360443033277988,0.141290545463562,-0.006359502207487822,0.1418025642633438,-0.008261743001639843,0.14221301674842834,-0.010254602879285812,0.1422586441040039,-0.011029649525880814,0.14229749143123627,-0.011487079784274101,0.14246180653572083,-0.012274295091629028,0.14250275492668152,-0.014361433684825897,0.14242368936538696,-0.016526972874999046,0.1437462717294693,-0.012644531205296516,0.144609272480011,-0.0072893863543868065,0.14486993849277496,-0.0017529558390378952,0.14483556151390076,0.0003885452460963279,0.14475709199905396,0.0014488775050267577,0.14460879564285278,0.0035755408462136984,0.14389048516750336,0.008926857262849808,0.1425631046295166,0.014264530502259731,0.14193828403949738,-0.0018921185983344913,0.14290273189544678,-0.00024174407008104026,0.14373713731765747,0.001580188749358058,0.14408338069915771,0.0022334037348628044,0.14419840276241302,0.0025582928210496902,0.14456260204315186,0.0032108204904943705,0.14518602192401886,0.004820795729756355,0.14554163813591003,0.0064165047369897366,0.146398663520813,0.003378678113222122,0.1465718299150467,-0.00045523536391556263,0.1462903469800949,-0.004245697055011988,0.14616896212100983,-0.005734082777053118,0.14603063464164734,-0.006493411026895046,0.14578017592430115,-0.007940279319882393,0.14502108097076416,-0.011587074026465416,0.14385588467121124,-0.015177076682448387,0.1199951246380806,0.0,0.13098764419555664,0.004053650889545679,0.14131000638008118,0.008212032727897167,0.14533846080303192,0.009863121435046196,0.14718690514564514,0.010744751431047916,0.1510556936264038,0.012441852129995823,0.15998975932598114,0.01681853085756302,0.16817410290241241,0.021122155711054802,0.17722932994365692,0.029422836378216743,0.176157608628273,0.03195411339402199,0.17409636080265045,0.03447990119457245,0.17302365601062775,0.03544462099671364,0.17241322994232178,0.03595952317118645,0.17109708487987518,0.03690599277615547,0.16712835431098938,0.03926447406411171,0.16234427690505981,0.04156363010406494,0.10722076892852783,-0.00022626874851994216,0.1084858849644661,0.0029345222283154726,0.10962054133415222,0.005634435918182135,0.10989566147327423,0.006595378741621971,0.11010875552892685,0.007113217376172543,0.11048386245965958,0.007962478324770927,0.11116590350866318,0.009944692254066467,0.1115899533033371,0.011460659094154835,0.12381428480148315,0.014546428807079792,0.1333256959915161,0.01621820777654648,0.14264361560344696,0.017959630116820335,0.14624759554862976,0.01865229196846485,0.14806942641735077,0.019035903736948967,0.15157750248908997,0.01978803612291813,0.1601344496011734,0.021719923242926598,0.1681508868932724,0.023731812834739685,0.11619548499584198,0.004089195281267166,0.12407438457012177,0.011065988801419735,0.13126416504383087,0.01785222627222538,0.13410332798957825,0.020500432699918747,0.13542531430721283,0.021828966215252876,0.13807761669158936,0.02447788417339325,0.14409570395946503,0.03082350082695484,0.14951296150684357,0.036997150629758835,0.1508481651544571,0.039722196757793427,0.14632967114448547,0.03585578873753548,0.14106962084770203,0.0317523293197155,0.1388317346572876,0.03009048104286194,0.13769139349460602,0.029288435354828835,0.13517546653747559,0.02759062498807907,0.12861277163028717,0.02307227812707424,0.12149673700332642,0.0185720082372427,0.13657855987548828,0.0,0.14236998558044434,0.0009434118401259184,0.14768008887767792,0.0018329749582335353,0.14972682297229767,0.0021639796905219555,0.1506725400686264,0.002345132874324918,0.15256275236606598,0.0026936368085443974,0.1569487750530243,0.003665357828140259,0.16078579425811768,0.0044728415086865425,0.16668857634067535,0.007713797502219677,0.16685880720615387,0.009302492253482342,0.1658257693052292,0.01056378148496151,0.1650785207748413,0.010890256613492966,0.1646283119916916,0.011120281182229519,0.16357828676700592,0.01137879490852356,0.1601053774356842,0.011938514187932014,0.15551364421844482,0.01212308555841446,0.1276397854089737,-0.001644524047151208,0.12646517157554626,-0.002212440362200141,0.12499453872442245,-0.002973094116896391,0.12430606782436371,-0.003280455246567726,0.12397309392690659,-0.0034357013646513224,0.12325748056173325,-0.003752300050109625,0.12127121537923813,-0.00452395249158144,0.11903019994497299,-0.005455079488456249,0.12698204815387726,-0.00564991869032383,0.13517990708351135,-0.004474302288144827,0.1427573263645172,-0.003044482320547104,0.14551296830177307,-0.002403737511485815,0.1469004601240158,-0.0020510610193014145,0.1494138389825821,-0.0014215817209333181,0.15530867874622345,0.0005404978292062879,0.16021277010440826,0.0026519133243709803,0.13424590229988098,0.0009711323655210435,0.13795402646064758,0.0027158441953361034,0.1411033719778061,0.004446074832230806,0.14229099452495575,0.005146362353116274,0.14279019832611084,0.00547240162268281,0.14377641677856445,0.006290964782238007,0.14580576121807098,0.008054964244365692,0.14722859859466553,0.00980779156088829,0.14638930559158325,0.009289138950407505,0.1438012421131134,0.0070023746229708195,0.1402781754732132,0.0045663113705813885,0.13865141570568085,0.0036325620021671057,0.13779756426811218,0.003175207180902362,0.1359155774116516,0.00216208235360682,0.1306287795305252,-0.0005128923803567886,0.12452980130910873,-0.0031357489060610533,0.1250046193599701,0.0,0.1312600076198578,-0.0006903092726133764,0.13743481040000916,-0.0012297236826270819,0.13986468315124512,-0.0013660177355632186,0.1410524845123291,-0.0014341275673359632,0.14337965846061707,-0.0015203311340883374,0.149122953414917,-0.0014877875801175833,0.15449129045009613,-0.00132758601102978,0.1645027995109558,0.0003796012606471777,0.1665511280298233,0.0009508187649771571,0.1675838977098465,0.0009811291238293052,0.16777314245700836,0.0008300093468278646,0.16772781312465668,0.0007931954460218549,0.16758567094802856,0.0004740303265862167,0.16650894284248352,-0.0004469427221920341,0.164322629570961,-0.0018894679378718138,0.12004823237657547,0.0006647940608672798,0.12148728966712952,-0.00016024193610064685,0.1221262589097023,-0.0012557388981804252,0.1220918595790863,-0.0017032613977789879,0.12207958847284317,-0.0019686981104314327,0.12185458093881607,-0.002433634828776121,0.12076152116060257,-0.0037439181469380856,0.11892203986644745,-0.005177989602088928,0.12763026356697083,-0.006871397607028484,0.13616998493671417,-0.0064395819790661335,0.14355070888996124,-0.0057375989854335785,0.14615769684314728,-0.0054274736903607845,0.1474480926990509,-0.005247172433882952,0.1497320532798767,-0.004933260381221771,0.15463487803936005,-0.003783075837418437,0.1581682711839676,-0.0025426088832318783,0.1267089992761612,1.3055637282377575e-05,0.13371580839157104,-0.0009145500953309238,0.14014199376106262,-0.001742334570735693,0.14259032905101776,-0.0020129934418946505,0.14378654956817627,-0.002223799005150795,0.1459820419549942,-0.002355928299948573,0.15111325681209564,-0.003027314320206642,0.15550774335861206,-0.0036403087433427572,0.15768612921237946,-0.005256039090454578,0.15423430502414703,-0.005752796307206154,0.14945493638515472,-0.006158087868243456,0.14713959395885468,-0.006219395902007818,0.1458987444639206,-0.006283952388912439,0.14335651695728302,-0.006378364749252796,0.13600309193134308,-0.006602293811738491,0.12753885984420776,-0.006823324132710695,0.12847526371479034,0.0,0.13401159644126892,0.0019343278836458921,0.13873885571956635,0.0036330444272607565,0.1404007077217102,0.0042658536694943905,0.1412346065044403,0.004539469722658396,0.14263476431369781,0.005073097068816423,0.14573194086551666,0.006152233108878136,0.14785777032375336,0.006987966131418943,0.1563003808259964,0.007463907822966576,0.16083887219429016,0.007596527226269245,0.1643969714641571,0.007710886653512716,0.16550703346729279,0.00779649056494236,0.16595539450645447,0.007763609290122986,0.16690510511398315,0.007771375589072704,0.1683187335729599,0.007836383767426014,0.16851827502250671,0.007726194337010384,0.12245982140302658,0.0065445676445961,0.12261898070573807,0.013190160505473614,0.12132292240858078,0.0193643718957901,0.12043485790491104,0.021627023816108704,0.11988503485918045,0.022790513932704926,0.11866000294685364,0.024942155927419662,0.11464173346757889,0.02983499877154827,0.1092740148305893,0.034156907349824905,0.11636804789304733,0.0347517691552639,0.12691594660282135,0.03118753246963024,0.13563847541809082,0.027230054140090942,0.1386224925518036,0.025564830750226974,0.1400189995765686,0.02468991093337536,0.14241249859333038,0.02296510525047779,0.14705635607242584,0.018439551815390587,0.14953045547008514,0.013632829301059246,0.13049539923667908,-0.00029727647779509425,0.137931227684021,0.001358752720989287,0.14490580558776855,0.002799381734803319,0.1475042849779129,0.003340125782415271,0.1488509476184845,0.0036302150692790747,0.15126526355743408,0.004213938023895025,0.15695855021476746,0.005362866912037134,0.16194172203540802,0.0063995723612606525,0.16453036665916443,0.012281158939003944,0.1598929911851883,0.016512298956513405,0.15295693278312683,0.020925600081682205,0.14956840872764587,0.022684959694743156,0.14774136245250702,0.023521697148680687,0.14385713636875153,0.025301555171608925,0.13267992436885834,0.029698446393013,0.1196381077170372,0.03386484831571579,0.16183847188949585,0.0,0.16361919045448303,-0.0011007393477484584,0.16427133977413177,-0.002943191211670637,0.1642594337463379,-0.0038505098782479763,0.16419556736946106,-0.004386280197650194,0.16391199827194214,-0.005449632182717323,0.1626296043395996,-0.008671839721500874,0.1602676957845688,-0.012499602511525154,0.1601201295852661,-0.01867956668138504,0.16051052510738373,-0.018878016620874405,0.15852876007556915,-0.01879931427538395,0.15702107548713684,-0.018674276769161224,0.15615369379520416,-0.018614735454320908,0.15421433746814728,-0.01850851997733116,0.14762169122695923,-0.01796739734709263,0.13893388211727142,-0.017247052863240242,0.15342287719249725,-0.001264051767066121,0.14792482554912567,-0.0026004365645349026,0.14073532819747925,-0.003877439768984914,0.13744118809700012,-0.0044329408556222916,0.1356467455625534,-0.004717760719358921,0.13201576471328735,-0.005216000601649284,0.12192524969577789,-0.006560589652508497,0.11044541001319885,-0.007877103053033352,0.11246815323829651,-0.011703635565936565,0.12504103779792786,-0.013169695623219013,0.13577230274677277,-0.014474483206868172,0.13953635096549988,-0.014982912689447403,0.1412779539823532,-0.015205896459519863,0.1444179117679596,-0.015603996813297272,0.15082067251205444,-0.016572820022702217,0.15480923652648926,-0.017327044159173965,0.1556243896484375,-0.0023522323463112116,0.15277624130249023,-0.004610681906342506,0.14913704991340637,-0.006942769046872854,0.14751341938972473,-0.00793303083628416,0.14662742614746094,-0.008344975300133228,0.1447967141866684,-0.009254218079149723,0.13964377343654633,-0.011462586000561714,0.1337110847234726,-0.013582171872258186,0.12771867215633392,-0.014337885193526745,0.1273990273475647,-0.013104447163641453,0.12510798871517181,-0.01200936920940876,0.12365502864122391,-0.011623857542872429,0.12283285707235336,-0.01142684742808342,0.12089341878890991,-0.011070171371102333,0.11476866900920868,-0.010327404364943504,0.10687895119190216,-0.009823248721659184,0.15883266925811768,0.0,0.15883567929267883,0.001389089273288846,0.1571080982685089,0.001888328930363059,0.15596027672290802,0.0018809281755238771,0.15532611310482025,0.001811561407521367,0.15378504991531372,0.0015793335624039173,0.14905878901481628,0.00038637148099951446,0.14275722205638885,-0.0017431752057746053,0.1411137878894806,-0.006732061970978975,0.14459316432476044,-0.007738829590380192,0.1456184685230255,-0.008801535703241825,0.1452644318342209,-0.009249751456081867,0.14496828615665436,-0.00947478599846363,0.14414656162261963,-0.009930363856256008,0.14030015468597412,-0.011036152951419353,0.13413658738136292,-0.012104025110602379,0.15546312928199768,-0.0064274161122739315,0.15325655043125153,-0.00873802974820137,0.14961782097816467,-0.010628470219671726,0.1478644758462906,-0.011279400438070297,0.14682476222515106,-0.011604287661612034,0.14479990303516388,-0.012080354616045952,0.13883425295352936,-0.013148488476872444,0.1316947340965271,-0.013810836710035801,0.1338062733411789,-0.013289406895637512,0.14075244963169098,-0.012194053269922733,0.1450984627008438,-0.010946417227387428,0.14612066745758057,-0.010423466563224792,0.14644840359687805,-0.010154429823160172,0.14666052162647247,-0.009622505865991116,0.14552976191043854,-0.008253729902207851,0.14168880879878998,-0.006925051100552082,0.15415868163108826,-0.004788546822965145,0.1513872891664505,-0.006360540632158518,0.14777377247810364,-0.007930212654173374,0.1461523175239563,-0.00859258882701397,0.14526943862438202,-0.008840592578053474,0.14338743686676025,-0.009430637583136559,0.13816818594932556,-0.010769474320113659,0.13208229839801788,-0.012002089992165565,0.12928181886672974,-0.01306741964071989,0.13228839635849,-0.012957983650267124,0.13371120393276215,-0.012952796183526516,0.1338488757610321,-0.012944833375513554,0.1338108777999878,-0.01293871458619833,0.13351409137248993,-0.013003946281969547,0.13165251910686493,-0.013198431581258774,0.12816660106182098,-0.01354239135980606,0.10690268129110336,0.0,0.11521050333976746,0.013412771746516228,0.12059301137924194,0.028093820437788963,0.12183061242103577,0.0341646745800972,0.12233966588973999,0.03727780655026436,0.12286341190338135,0.043376319110393524,0.12185246497392654,0.05893094465136528,0.11729821562767029,0.07407128065824509,0.12131760269403458,0.08900894224643707,0.12992538511753082,0.08463477343320847,0.13584771752357483,0.0785227045416832,0.13726022839546204,0.07553032785654068,0.1378183662891388,0.07404611259698868,0.13867637515068054,0.07066605985164642,0.1385011225938797,0.06139007583260536,0.13525035977363586,0.05087706819176674,0.10354222357273102,-0.005120950751006603,0.11230145394802094,0.001907100435346365,0.12122157216072083,0.008061432279646397,0.12490636110305786,0.010346869006752968,0.1266736537218094,0.011400972492992878,0.13038897514343262,0.013380013406276703,0.13960762321949005,0.017563752830028534,0.14852610230445862,0.020648924633860588,0.16782669723033905,0.039901185780763626,0.16945724189281464,0.05297732353210449,0.1665254533290863,0.06473463773727417,0.16413593292236328,0.06907845288515091,0.1626337170600891,0.07108135521411896,0.15897175669670105,0.07494968175888062,0.14717808365821838,0.08292590081691742,0.13148133456707,0.08858879655599594,0.10055577754974365,-0.0037191156297922134,0.10625720024108887,0.0047651007771492004,0.11154139041900635,0.012927010655403137,0.1134432852268219,0.015916313976049423,0.1143932119011879,0.01744278334081173,0.11618635058403015,0.020215671509504318,0.12038679420948029,0.02662114053964615,0.12386031448841095,0.031740788370370865,0.14076489210128784,0.03901024907827377,0.14980247616767883,0.03999147191643715,0.1565873920917511,0.039527975022792816,0.15879219770431519,0.0389791876077652,0.159673810005188,0.03857359290122986,0.16127653419971466,0.03777072951197624,0.16340436041355133,0.03458911553025246,0.16313119232654572,0.0299924835562706,0.1206919252872467,0.0,0.1287313997745514,0.010569734498858452,0.1336807906627655,0.02209818921983242,0.13471150398254395,0.02686309441924095,0.13508294522762299,0.029289698228240013,0.13530874252319336,0.034063249826431274,0.13344347476959229,0.04620857536792755,0.12791532278060913,0.057937879115343094,0.1300855427980423,0.06854674220085144,0.13774648308753967,0.06386217474937439,0.14218024909496307,0.057326916605234146,0.14285755157470703,0.05421498790383339,0.14303353428840637,0.052586257457733154,0.14301849901676178,0.049082595854997635,0.14048318564891815,0.03944017365574837,0.13459599018096924,0.028722427785396576,0.1130998358130455,-0.001482778345234692,0.1185961365699768,0.005875792820006609,0.12440203130245209,0.012255300767719746,0.1269061416387558,0.014616748318076134,0.12810738384723663,0.01571383699774742,0.13066063821315765,0.017738470807671547,0.1371726542711258,0.022052370011806488,0.14370335638523102,0.025275943800807,0.16299980878829956,0.038250911980867386,0.16696782410144806,0.046509750187397,0.1663903445005417,0.05398770794272423,0.16491515934467316,0.05672801285982132,0.16387473046779633,0.058016810566186905,0.16117995977401733,0.060486312955617905,0.1516454666852951,0.06561756879091263,0.13809682428836823,0.06934046745300293,0.11345002800226212,-0.0031577367335557938,0.11770711839199066,0.0026735614519566298,0.12097283452749252,0.007704376708716154,0.12194237858057022,0.009309984743595123,0.12242274731397629,0.010126449167728424,0.12311698496341705,0.011425386182963848,0.12432809174060822,0.013894054107367992,0.12439615279436111,0.014910966157913208,0.1377272605895996,0.019777804613113403,0.14705890417099,0.02374234050512314,0.15367911756038666,0.026826201006770134,0.1557072103023529,0.027797728776931763,0.15646888315677643,0.028181621804833412,0.15774570405483246,0.028968408703804016,0.15894818305969238,0.02995285578072071,0.15741601586341858,0.02960493229329586,0.12404722720384598,0.0,0.1366940587759018,-0.0025509479455649853,0.14818468689918518,-0.004286212380975485,0.15242567658424377,-0.004601310472935438,0.1545400470495224,-0.004810292739421129,0.1583927571773529,-0.004890500567853451,0.16704143583774567,-0.00419627595692873,0.17357707023620605,-0.0020098930690437555,0.18753762543201447,-0.021530361846089363,0.18905532360076904,-0.04211672767996788,0.18551050126552582,-0.06268608570098877,0.18265090882778168,-0.07061213999986649,0.18091629445552826,-0.07455608993768692,0.1769554316997528,-0.08228422701358795,0.16372238099575043,-0.10042601078748703,0.14627020061016083,-0.11618972569704056,0.10360100865364075,0.0033203824423253536,0.09838343411684036,0.0007762418244965374,0.09113018214702606,-0.0031414050608873367,0.08771728724241257,-0.005201388616114855,0.085846908390522,-0.006215779110789299,0.08191975206136703,-0.008492531254887581,0.07070506364107132,-0.014835094101727009,0.05776773765683174,-0.02154107205569744,0.07498152554035187,-0.035951800644397736,0.10237865895032883,-0.03713637962937355,0.12707304954528809,-0.035227686166763306,0.13587838411331177,-0.033696480095386505,0.14003193378448486,-0.03269859775900841,0.14783748984336853,-0.030263258144259453,0.16391099989414215,-0.022551530972123146,0.1743840128183365,-0.01232664193958044,0.11720170825719833,-0.014225378632545471,0.12306708842515945,-0.030750419944524765,0.12694784998893738,-0.04868775233626366,0.12791968882083893,-0.05622740089893341,0.12826144695281982,-0.060001179575920105,0.12864848971366882,-0.06771327555179596,0.12827245891094208,-0.08743525296449661,0.12565356492996216,-0.10725071281194687,0.11766928434371948,-0.12014584988355637,0.11243937909603119,-0.1082763746380806,0.10385563969612122,-0.09458763897418976,0.09955860674381256,-0.08876485377550125,0.0971827358007431,-0.08579050749540329,0.0922304093837738,-0.07968023419380188,0.07801637053489685,-0.06412249803543091,0.06157452240586281,-0.04855211824178696,0.13496802747249603,0.0,0.15113705396652222,0.004791974555701017,0.16408726572990417,0.010631623677909374,0.16844284534454346,0.013212906196713448,0.1705443114042282,0.014511218294501305,0.17393161356449127,0.01724046654999256,0.18037815392017365,0.024424612522125244,0.18322399258613586,0.03202135115861893,0.19524218142032623,0.02125382423400879,0.1981337070465088,0.004204410128295422,0.194091334939003,-0.012637946754693985,0.19056421518325806,-0.019175708293914795,0.1885058879852295,-0.02234259806573391,0.18341419100761414,-0.02880643680691719,0.16640228033065796,-0.04398615285754204,0.14403705298900604,-0.05764230340719223,0.11271341890096664,-0.015165761113166809,0.10936786979436874,-0.026329807937145233,0.10185253620147705,-0.038626354187726974,0.09762047976255417,-0.04396149143576622,0.0951978787779808,-0.04649658128619194,0.08994468301534653,-0.051894307136535645,0.07374929636716843,-0.06529218703508377,0.05369853228330612,-0.07811914384365082,0.06080318242311478,-0.0843847319483757,0.09060192108154297,-0.072336345911026,0.11829869449138641,-0.05588521435856819,0.12836027145385742,-0.04821489378809929,0.1331983506679535,-0.04420122876763344,0.14235350489616394,-0.03561962768435478,0.16162076592445374,-0.012853654101490974,0.17491132020950317,0.011361014097929,0.12628446519374847,-0.007935389876365662,0.13395549356937408,-0.013423039577901363,0.1377851665019989,-0.021105414256453514,0.13808131217956543,-0.024718277156352997,0.13796480000019073,-0.026545099914073944,0.1373172402381897,-0.030515160411596298,0.13296674191951752,-0.04177210107445717,0.12484277784824371,-0.05454477667808533,0.10403235256671906,-0.0729890763759613,0.09619632363319397,-0.0745973065495491,0.08555290848016739,-0.07681803405284882,0.08062712848186493,-0.07794748246669769,0.07803475111722946,-0.07852692157030106,0.07286032289266586,-0.07968930155038834,0.0584062859416008,-0.08317691832780838,0.042926523834466934,-0.08694306015968323,0.13600146770477295,0.0,0.1481439620256424,0.0005132017540745437,0.1558344066143036,0.0031959228217601776,0.1578134149312973,0.0047717345878481865,0.1585775464773178,0.005744004622101784,0.15912963449954987,0.007722434122115374,0.15748989582061768,0.013942382298409939,0.1507953703403473,0.0212386567145586,0.15807968378067017,0.019356830045580864,0.16881754994392395,0.00959932804107666,0.17269429564476013,7.489699055440724e-05,0.1722176969051361,-0.003677906235679984,0.17169487476348877,-0.005415050312876701,0.16960248351097107,-0.00918578077107668,0.15977948904037476,-0.01806660182774067,0.143850177526474,-0.026527270674705505,0.12607403099536896,-0.008936372585594654,0.13008423149585724,-0.01975267380475998,0.13013021647930145,-0.031020253896713257,0.1290789395570755,-0.03569037839770317,0.1281665563583374,-0.03788699582219124,0.12606893479824066,-0.042493388056755066,0.11769293993711472,-0.05360697582364082,0.10529903322458267,-0.06380884349346161,0.11209647357463837,-0.05550188943743706,0.13016945123672485,-0.038507599383592606,0.14335179328918457,-0.021143775433301926,0.14698125422000885,-0.01433621160686016,0.1485038548707962,-0.011073150672018528,0.1507842242717743,-0.004583143629133701,0.15249398350715637,0.010068761184811592,0.14831790328025818,0.021742943674325943,0.1331045925617218,-0.0001800338359316811,0.14162276685237885,-0.003783977823331952,0.1458083689212799,-0.008428099565207958,0.14607159793376923,-0.010524258017539978,0.1459701955318451,-0.01157344039529562,0.14521194994449615,-0.013830920681357384,0.14050088822841644,-0.02007955126464367,0.13188259303569794,-0.027146322652697563,0.12033280730247498,-0.042108822613954544,0.1205611303448677,-0.04661715775728226,0.11793509870767593,-0.05122107267379761,0.11618480831384659,-0.0532040148973465,0.11515793204307556,-0.0541912317276001,0.11307507753372192,-0.05605890229344368,0.10586795210838318,-0.06127846986055374,0.09687212854623795,-0.06679806858301163,0.1669245958328247,0.0,0.1750311255455017,0.012030042707920074,0.17849144339561462,0.023141857236623764,0.17857208847999573,0.027133969590067863,0.1784903109073639,0.029132600873708725,0.17753462493419647,0.03279922530055046,0.1724158227443695,0.040894199162721634,0.16345526278018951,0.04708237946033478,0.16426822543144226,0.042256928980350494,0.16978240013122559,0.03241252526640892,0.16828037798404694,0.02114805206656456,0.16574597358703613,0.016347311437129974,0.16417202353477478,0.01389003824442625,0.16008241474628448,0.008801275864243507,0.1457628458738327,-0.0041392189450562,0.1263987421989441,-0.017336754128336906,0.14961031079292297,-0.01845843903720379,0.1440209001302719,-0.020911244675517082,0.13432255387306213,-0.02301216311752796,0.1293213665485382,-0.023848053067922592,0.12656190991401672,-0.02409532107412815,0.12072577327489853,-0.024738043546676636,0.10365549474954605,-0.025808807462453842,0.08366984874010086,-0.02594013139605522,0.0929282158613205,-0.021534988656640053,0.1195182278752327,-0.014516941271722317,0.1411626935005188,-0.003996012732386589,0.14794830977916718,0.0009919693693518639,0.1509484499692917,0.003578722709789872,0.15597684681415558,0.009088424034416676,0.16304084658622742,0.023341184481978416,0.1615528017282486,0.037417083978652954,0.15439021587371826,-0.010212651453912258,0.15343481302261353,-0.008559953421354294,0.14913608133792877,-0.009275507181882858,0.14642862975597382,-0.010129100643098354,0.14486512541770935,-0.010646162554621696,0.14137722551822662,-0.01205360982567072,0.1306101381778717,-0.0168723464012146,0.11698541790246964,-0.023354656994342804,0.10059209167957306,-0.04117969796061516,0.10068781673908234,-0.04487673565745354,0.09772083908319473,-0.045777834951877594,0.09568136185407639,-0.04540564864873886,0.09450241923332214,-0.045068249106407166,0.09184576570987701,-0.044065460562705994,0.08323783427476883,-0.03984127566218376,0.07210250943899155,-0.033655572682619095,0.1707053780555725,0.0,0.17772141098976135,0.02170546166598797,0.1786358654499054,0.04255438596010208,0.17739041149616241,0.05034751072525978,0.17658674716949463,0.05408333241939545,0.17421109974384308,0.061295293271541595,0.16543100774288177,0.07697901874780655,0.15321852266788483,0.08895140141248703,0.15305396914482117,0.08032477647066116,0.15931549668312073,0.062078312039375305,0.15800811350345612,0.04117206111550331,0.15544667840003967,0.03233347088098526,0.15373048186302185,0.02776762656867504,0.14943890273571014,0.018711630254983902,0.13412746787071228,-0.0040373471565544605,0.11313405632972717,-0.026079943403601646,0.15513251721858978,-0.0316324420273304,0.15107430517673492,-0.037379782646894455,0.14207974076271057,-0.043366722762584686,0.13694223761558533,-0.04577029123902321,0.1341656595468521,-0.046870019286870956,0.12804050743579865,-0.049035657197237015,0.10921380668878555,-0.05337047949433327,0.08617930114269257,-0.055673785507678986,0.08925832808017731,-0.047471728175878525,0.11544681340456009,-0.034511227160692215,0.13657738268375397,-0.015528588555753231,0.1431414633989334,-0.006406341213732958,0.14602331817150116,-0.001615014742128551,0.15071040391921997,0.008466963656246662,0.15647776424884796,0.035724807530641556,0.1529001146554947,0.06424363702535629,0.15441249310970306,-0.01770751364529133,0.15079981088638306,-0.01459645014256239,0.14344792068004608,-0.015088031068444252,0.1395658254623413,-0.0161982923746109,0.13743266463279724,-0.01694551669061184,0.13276460766792297,-0.01884819008409977,0.11922144889831543,-0.025812657549977303,0.10325392335653305,-0.035454437136650085,0.08543489128351212,-0.05309063568711281,0.08688604831695557,-0.05533301830291748,0.0857197642326355,-0.05702176317572594,0.08452607691287994,-0.05743279680609703,0.0837915763258934,-0.057649146765470505,0.08194512873888016,-0.05794433876872063,0.07560175657272339,-0.058005191385746,0.0668128952383995,-0.05687619373202324,0.16442568600177765,0.0,0.16503064334392548,0.018472280353307724,0.1598639190196991,0.03581776097416878,0.15635032951831818,0.04204206168651581,0.15445436537265778,0.04504580423235893,0.14991211891174316,0.05060694366693497,0.1363907903432846,0.062000226229429245,0.12032221257686615,0.06917425990104675,0.12467215955257416,0.058268725872039795,0.13761994242668152,0.045037705451250076,0.1429404467344284,0.030558014288544655,0.1429460197687149,0.024539770558476448,0.14250805974006653,0.021498382091522217,0.1406926065683365,0.015483521856367588,0.13104522228240967,0.0005696225562132895,0.11481267213821411,-0.01360337808728218,0.16111935675144196,-0.035885974764823914,0.15975317358970642,-0.04741181060671806,0.153030127286911,-0.0584607757627964,0.14873555302619934,-0.06256343424320221,0.14630474150180817,-0.06448634713888168,0.14094209671020508,-0.06820422410964966,0.12401166558265686,-0.07545698434114456,0.10301707684993744,-0.07960664480924606,0.10667578876018524,-0.06583034247159958,0.12806011736392975,-0.048557717353105545,0.14211253821849823,-0.02679697424173355,0.14530864357948303,-0.01711864024400711,0.14635294675827026,-0.012203866615891457,0.14722956717014313,-0.002143425401300192,0.14280176162719727,0.023175744339823723,0.12868498265743256,0.047147396951913834,0.16393022239208221,-0.018843311816453934,0.16512559354305267,-0.017019057646393776,0.16102562844753265,-0.01644173450767994,0.15784524381160736,-0.016547324135899544,0.15597674250602722,-0.01664852909743786,0.1515127271413803,-0.01705174334347248,0.13680337369441986,-0.01911800354719162,0.1172497570514679,-0.022595703601837158,0.09701082110404968,-0.035007067024707794,0.1022629514336586,-0.04125157371163368,0.10424866527318954,-0.04818650335073471,0.10411928594112396,-0.05108227953314781,0.10374927520751953,-0.05256834626197815,0.10274892300367355,-0.05565081536769867,0.09742149710655212,-0.06327836215496063,0.0886034145951271,-0.07057840377092361,0.14356791973114014,0.0,0.14682713150978088,0.024649297818541527,0.14281469583511353,0.0475815087556839,0.13913901150226593,0.05567649006843567,0.13707409799098969,0.05959217622876167,0.13196197152137756,0.06672131270170212,0.11546999961137772,0.08079759776592255,0.09448658674955368,0.08857833594083786,0.09577023983001709,0.07190368324518204,0.11598118394613266,0.057430949062108994,0.1309598982334137,0.04290110245347023,0.13534456491470337,0.03710566833615303,0.13721100986003876,0.03424429893493652,0.1401066929101944,0.02864054962992668,0.142820343375206,0.014942309819161892,0.13906042277812958,0.0019801012240350246,0.1377229541540146,-0.042452678084373474,0.1389322280883789,-0.053364165127277374,0.13538141548633575,-0.06449048221111298,0.13256390392780304,-0.06885216385126114,0.13087806105613708,-0.07091249525547028,0.1269996166229248,-0.07509388029575348,0.11414238065481186,-0.08431554585695267,0.09729080647230148,-0.09146592020988464,0.1075713038444519,-0.07571247220039368,0.12794536352157593,-0.05154843255877495,0.13874824345111847,-0.022833164781332016,0.14004015922546387,-0.010540942661464214,0.1399625539779663,-0.004342665430158377,0.13848735392093658,0.008056242018938065,0.12694302201271057,0.038111213594675064,0.1046835407614708,0.06458612531423569,0.14998315274715424,-0.03161580115556717,0.16114455461502075,-0.031787924468517303,0.16717979311943054,-0.030993403866887093,0.1679532676935196,-0.03029753267765045,0.16801178455352783,-0.029853463172912598,0.16734535992145538,-0.02885194681584835,0.16142134368419647,-0.025456290692090988,0.14923740923404694,-0.02068162150681019,0.1304784119129181,-0.02964368276298046,0.13060759007930756,-0.043416816741228104,0.12690642476081848,-0.056618738919496536,0.12437812983989716,-0.061664946377277374,0.12284167855978012,-0.06404562294483185,0.11939329653978348,-0.06888315081596375,0.10813451558351517,-0.07953677326440811,0.09365985542535782,-0.08828926831483841,0.13179944455623627,0.0,0.1394832283258438,0.01436301413923502,0.13954630494117737,0.029289567843079567,0.1372070014476776,0.035064537078142166,0.13576282560825348,0.037985868752002716,0.13170835375785828,0.04351869598031044,0.11664068698883057,0.05612178519368172,0.09515950083732605,0.0659252181649208,0.08843611925840378,0.049569543451070786,0.10799901187419891,0.028143277391791344,0.12465851753950119,0.005622571334242821,0.1301845908164978,-0.0035376546438783407,0.13272219896316528,-0.008111183531582355,0.13712190091609955,-0.01709933392703533,0.1440088450908661,-0.039088230580091476,0.1444321572780609,-0.05933566391468048,0.12330503761768341,-0.04246654361486435,0.12518297135829926,-0.06407520920038223,0.12095989286899567,-0.08412041515111923,0.11755695194005966,-0.09138648957014084,0.11555950343608856,-0.0947633907198906,0.11085965484380722,-0.10116080939769745,0.09539950639009476,-0.11386683583259583,0.0755319818854332,-0.12116620689630508,0.08938590437173843,-0.10771719366312027,0.11490493267774582,-0.08605390787124634,0.12973211705684662,-0.057233236730098724,0.13232816755771637,-0.04425979033112526,0.13285693526268005,-0.03755531087517738,0.1323653906583786,-0.024024536833167076,0.12253543734550476,0.010187639854848385,0.10112003982067108,0.041950080543756485,0.1269201636314392,-0.03938007727265358,0.13551504909992218,-0.05671732500195503,0.14151282608509064,-0.07127901166677475,0.1431112289428711,-0.0760359838604927,0.14376068115234375,-0.07814177125692368,0.14463786780834198,-0.08184769749641418,0.1448332965373993,-0.08771917968988419,0.14202897250652313,-0.08821745216846466,0.1274787336587906,-0.09990742802619934,0.11935752630233765,-0.11213883012533188,0.10904305428266525,-0.12101322412490845,0.10439544171094894,-0.1235910952091217,0.101958729326725,-0.12462584674358368,0.09679295867681503,-0.12642915546894073,0.08278899639844894,-0.128290057182312,0.06728537380695343,-0.126871258020401,0.18107151985168457,0.0,0.17616550624370575,0.029709262773394585,0.16252650320529938,0.05910273641347885,0.15459869801998138,0.07014094293117523,0.15038847923278809,0.07555337250232697,0.14083591103553772,0.08576250821352005,0.11292430758476257,0.10770495235919952,0.08054209500551224,0.12286781519651413,0.07107895612716675,0.11549835652112961,0.09339861571788788,0.09063328802585602,0.10994061827659607,0.05635964125394821,0.11465077102184296,0.040562618523836136,0.1165609061717987,0.03229605406522751,0.11946066468954086,0.015335781499743462,0.12072969973087311,-0.02903181128203869,0.11365953832864761,-0.07303544878959656,0.16360752284526825,-0.06238345429301262,0.14727461338043213,-0.08143504709005356,0.12623921036720276,-0.09542406350374222,0.11689992994070053,-0.09939486533403397,0.11212541908025742,-0.10102714598178864,0.10248510539531708,-0.10358221083879471,0.0779254361987114,-0.10537406802177429,0.05456869676709175,-0.10105022042989731,0.08042573183774948,-0.06404013186693192,0.1098889634013176,-0.033400192856788635,0.12592945992946625,0.003778631566092372,0.12820321321487427,0.01953456737101078,0.12840095162391663,0.027420619502663612,0.12685628235340118,0.04298638924956322,0.11278054118156433,0.07969540357589722,0.0853937491774559,0.109355628490448,0.1666472852230072,-0.05094772204756737,0.15653535723686218,-0.06470891088247299,0.14456744492053986,-0.07805823534727097,0.13939805328845978,-0.08321242779493332,0.1368458867073059,-0.08575081825256348,0.13153882324695587,-0.09063519537448883,0.118527352809906,-0.10202056169509888,0.1062120869755745,-0.11184483766555786,0.080082468688488,-0.12030461430549622,0.070744089782238,-0.11691169440746307,0.06205347552895546,-0.11173068732023239,0.05886031687259674,-0.10941526293754578,0.05722694471478462,-0.10818228125572205,0.05406293272972107,-0.1057557612657547,0.04648949205875397,-0.099522665143013,0.03909551724791527,-0.09360722452402115,0.1584782898426056,0.0,0.16424061357975006,0.0343298465013504,0.1610492616891861,0.06869024783372879,0.15702702105045319,0.0817452222108841,0.1546034961938858,0.08809970319271088,0.14864881336688995,0.10015827417373657,0.12798459827899933,0.12599869072437286,0.10038839280605316,0.14369705319404602,0.10295730084180832,0.13908113539218903,0.1265021115541458,0.11862693727016449,0.13857582211494446,0.09094809740781784,0.14011047780513763,0.07820622622966766,0.14015333354473114,0.07160007208585739,0.1389349400997162,0.05803745985031128,0.12814098596572876,0.022667046636343002,0.10804236680269241,-0.012687938287854195,0.13388513028621674,-0.04843222722411156,0.12443973124027252,-0.056125741451978683,0.11255057156085968,-0.0636150985956192,0.1073320209980011,-0.06653394550085068,0.10460231453180313,-0.06799466907978058,0.09921805560588837,-0.07097335904836655,0.08530118316411972,-0.07789107412099838,0.07148756831884384,-0.08424554020166397,0.11106377094984055,-0.060377251356840134,0.14404167234897614,-0.022934837266802788,0.16217243671417236,0.021064331755042076,0.16466882824897766,0.03923865407705307,0.16483719646930695,0.048256512731313705,0.1629500687122345,0.06580305099487305,0.14651192724704742,0.10566146671772003,0.11473778635263443,0.13526783883571625,0.1428641527891159,-0.04171859100461006,0.1399679183959961,-0.04328247159719467,0.133360356092453,-0.04449289292097092,0.12964598834514618,-0.04497640207409859,0.12764154374599457,-0.04527069628238678,0.12316528707742691,-0.045803241431713104,0.1101236641407013,-0.04750020429491997,0.09469374269247055,-0.049475397914648056,0.07767937332391739,-0.053046755492687225,0.08006174862384796,-0.05497867241501808,0.08074122667312622,-0.058350060135126114,0.0804418995976448,-0.060229551047086716,0.08011065423488617,-0.06119979918003082,0.07918744534254074,-0.06353852897882462,0.07495498657226563,-0.07046414911746979,0.067989282310009,-0.07886919379234314,0.12936358153820038,0.0,0.13508395850658417,0.028504671528935432,0.13205809891223907,0.05789707973599434,0.12825030088424683,0.06915739923715591,0.1258099377155304,0.07469652593135834,0.1201399564743042,0.08508385717868805,0.10036111623048782,0.10734736919403076,0.07450305670499802,0.12203574180603027,0.07939255982637405,0.1214871034026146,0.10660777986049652,0.11298461258411407,0.1264069527387619,0.10130751878023148,0.13201551139354706,0.09571251273155212,0.1342565417289734,0.09272924810647964,0.13778963685035706,0.08648356050252914,0.14035062491893768,0.06855344027280807,0.13456746935844421,0.04738020896911621,0.12302509695291519,-0.03570934012532234,0.1274881660938263,-0.04376859962940216,0.12721264362335205,-0.05506499484181404,0.12566982209682465,-0.060304220765829086,0.12452255189418793,-0.06305612623691559,0.12174852937459946,-0.06888218969106674,0.1111086755990982,-0.08402504771947861,0.09561902284622192,-0.09909804165363312,0.11883854866027832,-0.07983364164829254,0.14471910893917084,-0.039367713034152985,0.15560507774353027,0.006134900730103254,0.15531280636787415,0.02441701851785183,0.15415704250335693,0.033398617058992386,0.1497173011302948,0.05069533735513687,0.12797342240810394,0.08865722268819809,0.09293163567781448,0.11509180814027786,0.12989749014377594,-0.0181772131472826,0.14000776410102844,-0.007284384686499834,0.14574049413204193,0.0030009839683771133,0.14661453664302826,0.006640942767262459,0.14678432047367096,0.00827286671847105,0.1464693397283554,0.01129553746432066,0.14230437576770782,0.01667219027876854,0.133516326546669,0.018898172304034233,0.12804730236530304,0.005791513714939356,0.132582426071167,-0.0073829470202326775,0.13215045630931854,-0.024197641760110855,0.13050560653209686,-0.031806979328393936,0.12934763729572296,-0.03577915206551552,0.12630681693553925,-0.04410441219806671,0.11471392959356308,-0.06604941189289093,0.09788955003023148,-0.08881589770317078,0.09973081201314926,0.0,0.10632298141717911,0.019411122426390648,0.10553617775440216,0.04186432436108589,0.10278371721506119,0.05099416524171829,0.10091456770896912,0.05569863319396973,0.09630752354860306,0.06449335813522339,0.07911994308233261,0.08438081294298172,0.05548512935638428,0.09829037636518478,0.0605039969086647,0.09616062790155411,0.09261074662208557,0.08657100796699524,0.12237157672643661,0.07392392307519913,0.13307100534439087,0.06788408756256104,0.13798050582408905,0.06471226364374161,0.14711959660053253,0.05799318104982376,0.16404981911182404,0.03868905082345009,0.17095069587230682,0.015912385657429695,0.10923197865486145,-0.03597988188266754,0.12151741236448288,-0.053766459226608276,0.12565776705741882,-0.07251045852899551,0.12495050579309464,-0.07981161028146744,0.12406180799007416,-0.08343049883842468,0.12140323966741562,-0.0904645249247551,0.10929568111896515,-0.10601948201656342,0.09059150516986847,-0.11761739104986191,0.1071699783205986,-0.09141582250595093,0.13045397400856018,-0.0537712499499321,0.13836084306240082,-0.011571835726499557,0.13701772689819336,0.005360775161534548,0.13535097241401672,0.01366222184151411,0.13014790415763855,0.02967441827058792,0.10720347613096237,0.06498277932405472,0.07275330275297165,0.09019967913627625,0.11398550868034363,-0.022929135710000992,0.13552488386631012,-0.025544390082359314,0.15333767235279083,-0.02642928622663021,0.15902461111545563,-0.026370054110884666,0.16155597567558289,-0.026318833231925964,0.16586925089359283,-0.025979025289416313,0.1723095029592514,-0.02426367811858654,0.1722690612077713,-0.02144715003669262,0.1655394285917282,-0.037515219300985336,0.1619497835636139,-0.05504864081740379,0.15263575315475464,-0.07244093716144562,0.14743192493915558,-0.07911962270736694,0.1444527506828308,-0.0823875442147255,0.13786233961582184,-0.08880563825368881,0.11797438561916351,-0.1031893864274025,0.09402885288000107,-0.11492873728275299,0.10497111082077026,0.0,0.10843531787395477,0.005118518602102995,0.11329955607652664,0.01609167456626892,0.11472514271736145,0.022335300222039223,0.11540808528661728,0.025878457352519035,0.11605586111545563,0.03345917537808418,0.11348504573106766,0.0554945282638073,0.10324336588382721,0.07853377610445023,0.09835024178028107,0.08287466317415237,0.11535105854272842,0.05160489305853844,0.13042233884334564,0.008164439350366592,0.1350819170475006,-0.011904116719961166,0.13701744377613068,-0.022175218909978867,0.14006482064723969,-0.04346080496907234,0.1408057063817978,-0.09785929322242737,0.1299036592245102,-0.14898347854614258,0.11282465606927872,-0.04210825264453888,0.10689914226531982,-0.07181079685688019,0.09230108559131622,-0.09665708988904953,0.08477090299129486,-0.10476559400558472,0.08056654036045074,-0.10846655070781708,0.0718146339058876,-0.11499234288930893,0.048367779701948166,-0.12601014971733093,0.025630537420511246,-0.1297241598367691,0.07168085128068924,-0.09714526683092117,0.11186272650957108,-0.06081952899694443,0.1354626566171646,-0.01833849959075451,0.13998684287071228,-0.0013144419062882662,0.14120718836784363,0.007204421330243349,0.14162378013134003,0.023262053728103638,0.13238559663295746,0.0592731311917305,0.11181393265724182,0.08538440614938736,0.10607040673494339,-0.03651436045765877,0.10388277471065521,-0.06711027026176453,0.10067896544933319,-0.09830856323242188,0.0992642194032669,-0.11064492911100388,0.09846533834934235,-0.11679314821958542,0.09700969606637955,-0.1287759244441986,0.09436604380607605,-0.1565857231616974,0.09365236014127731,-0.17988067865371704,0.07980239391326904,-0.1903921216726303,0.06605035066604614,-0.17947529256343842,0.05252527818083763,-0.16635024547576904,0.047433964908123016,-0.16104871034622192,0.044921476393938065,-0.1583339422941208,0.03985777124762535,-0.15304508805274963,0.027931777760386467,-0.14109259843826294,0.016676489263772964,-0.13183218240737915,0.16849958896636963,0.0,0.15166930854320526,-0.009045307524502277,0.13739587366580963,-0.02396494150161743,0.1328655332326889,-0.030604369938373566,0.13087914884090424,-0.03389072045683861,0.12739750742912292,-0.04046761989593506,0.12116929143667221,-0.054207123816013336,0.11563682556152344,-0.06245127692818642,0.1204194724559784,-0.07845187932252884,0.11799607425928116,-0.09083757549524307,0.10037920624017715,-0.10198547691106796,0.08945620805025101,-0.10581505298614502,0.08316275477409363,-0.10735540091991425,0.06938271969556808,-0.11016930639743805,0.02884589694440365,-0.1129538044333458,-0.01579284854233265,-0.10840857774019241,0.13470503687858582,-0.056454289704561234,0.07657990604639053,-0.08993448317050934,0.011591839604079723,-0.11152804642915726,-0.014581581577658653,-0.11666735261678696,-0.027795713394880295,-0.11846238374710083,-0.053025927394628525,-0.12071187794208527,-0.11034638434648514,-0.11855801939964294,-0.1545882672071457,-0.10799308121204376,-0.11804437637329102,-0.14100795984268188,-0.05439167097210884,-0.15872207283973694,0.006871395744383335,-0.15682671964168549,0.0285805556923151,-0.1515977531671524,0.038624029606580734,-0.14820271730422974,0.05665639787912369,-0.1402924507856369,0.09039810299873352,-0.11539037525653839,0.10620997101068497,-0.08918433636426926,0.15613482892513275,-0.05559487268328667,0.12530389428138733,-0.09151829034090042,0.0911969542503357,-0.11698821932077408,0.0766901895403862,-0.12365315854549408,0.06923162937164307,-0.12621457874774933,0.05414098501205444,-0.12963375449180603,0.015634525567293167,-0.1290617287158966,-0.023040130734443665,-0.11668191105127335,-0.06661711633205414,-0.09719318151473999,-0.07247895002365112,-0.10377997159957886,-0.08488776534795761,-0.10913170874118805,-0.09163229167461395,-0.11054497957229614,-0.09536602348089218,-0.11103823035955429,-0.10338646918535233,-0.11166255921125412,-0.12670011818408966,-0.11021694540977478,-0.15287503600120544,-0.10385709255933762,0.1906975507736206,0.0,0.1749037206172943,-0.02650444209575653,0.15938036143779755,-0.05450552701950073,0.1535038948059082,-0.0654522255063057,0.15064041316509247,-0.07068026065826416,0.14508956670761108,-0.08074171096086502,0.13216587901115417,-0.1020047515630722,0.11938542127609253,-0.1167457178235054,0.11864705383777618,-0.1391645222902298,0.12334045022726059,-0.14047186076641083,0.11813081055879593,-0.13380900025367737,0.11352987587451935,-0.12905003130435944,0.11049430072307587,-0.12620501220226288,0.10365910083055496,-0.11989443749189377,0.08184869587421417,-0.09977929294109344,0.0557510107755661,-0.07464366406202316,0.19023005664348602,-0.006460358388721943,0.15463632345199585,-0.030855894088745117,0.10386501997709274,-0.05074749514460564,0.08064845949411392,-0.05694860219955444,0.06833629310131073,-0.0596778579056263,0.04389812797307968,-0.06417598575353622,-0.01783081144094467,-0.07025746256113052,-0.07340250164270401,-0.06932045519351959,-0.07726335525512695,-0.08099126070737839,-0.03392799198627472,-0.09368117153644562,0.00939709972590208,-0.10372431576251984,0.025679120793938637,-0.10721863061189651,0.03329448774456978,-0.10885501652956009,0.04767725244164467,-0.11216293275356293,0.07690068334341049,-0.11877784878015518,0.09518995136022568,-0.12366674095392227,0.20574243366718292,-0.02209087274968624,0.19468094408512115,-0.05666925758123398,0.17563894391059875,-0.08214207738637924,0.16588133573532104,-0.08874572813510895,0.1604425311088562,-0.09131394326686859,0.1488170027732849,-0.0945926234126091,0.11533769220113754,-0.09205125272274017,0.0763566717505455,-0.07516144216060638,0.038740918040275574,-0.062362462282180786,0.03973003849387169,-0.07884804904460907,0.028562400490045547,-0.0903647243976593,0.02069404534995556,-0.0929218977689743,0.016029855236411095,-0.09382016211748123,0.005327405873686075,-0.0947674959897995,-0.028127869591116905,-0.09158483892679214,-0.06885097920894623,-0.08111416548490524,0.1788153201341629,0.0,0.1827528476715088,-0.009380736388266087,0.18109078705310822,-0.019317029044032097,0.17861011624336243,-0.023608503863215446,0.176849827170372,-0.025674331933259964,0.17251446843147278,-0.030031312257051468,0.1567622423171997,-0.04024086892604828,0.13536351919174194,-0.0481252484023571,0.11491741240024567,-0.027690349146723747,0.09327451884746552,0.0019629348535090685,0.04938764125108719,0.03629088029265404,0.027355995029211044,0.05007490515708923,0.015701603144407272,0.056739721447229385,-0.008599058724939823,0.06943424046039581,-0.0709012895822525,0.09575477242469788,-0.12667542695999146,0.1109401062130928,0.1680750995874405,-0.0023034773766994476,0.16402797400951385,-0.009737709537148476,0.15860812366008759,-0.015139003284275532,0.15589220821857452,-0.016460802406072617,0.1543738842010498,-0.01726124994456768,0.15103086829185486,-0.018342187628149986,0.14043135941028595,-0.01977722905576229,0.1250365972518921,-0.019206082448363304,0.12722782790660858,-0.04950033873319626,0.1518113613128662,-0.07279819995164871,0.17102201282978058,-0.08768617361783981,0.17612160742282867,-0.09084240347146988,0.17789706587791443,-0.09184062480926514,0.17985981702804565,-0.09258130937814713,0.173742413520813,-0.08756710588932037,0.15190793573856354,-0.07427097111940384,0.12503044307231903,0.04249381646513939,0.06770537793636322,0.06407834589481354,0.0011873742332682014,0.0811174288392067,-0.025919418781995773,0.08670172095298767,-0.03921593725681305,0.08911750465631485,-0.06479136645793915,0.09368729591369629,-0.12027429044246674,0.10274427384138107,-0.1579837203025818,0.10882830619812012,-0.1223396360874176,0.11661764234304428,-0.06404418498277664,0.10658194124698639,-0.0010639746906235814,0.08692020922899246,0.022830680012702942,0.07739973813295364,0.03436046093702316,0.07241940498352051,0.05542492866516113,0.06157636642456055,0.09561794996261597,0.03463733568787575,0.11239884048700333,0.009704614989459515,0.17032811045646667,0.0,0.19414637982845306,0.04576030746102333,0.1959199458360672,0.08465507626533508,0.1909833550453186,0.09633475542068481,0.18735642731189728,0.10123912245035172,0.17808665335178375,0.10892981290817261,0.1457459181547165,0.11571645736694336,0.10561078786849976,0.10650338232517242,0.10724180936813354,0.10829237103462219,0.11124541610479355,0.12223802506923676,0.08225645869970322,0.12803414463996887,0.06306691467761993,0.12804831564426422,0.05222226306796074,0.1273653656244278,0.02853182889521122,0.12512990832328796,-0.0369066521525383,0.1133536770939827,-0.09856025129556656,0.09418582171201706,0.12056354433298111,-0.040712881833314896,0.1242731586098671,-0.039214715361595154,0.12482097744941711,-0.04476984217762947,0.12349773943424225,-0.04861068353056908,0.1225668415427208,-0.05084967985749245,0.1199011579155922,-0.05590612441301346,0.1084013506770134,-0.07000873982906342,0.08923793584108353,-0.08313089609146118,0.10431357473134995,-0.12435957044363022,0.1451428085565567,-0.12326087802648544,0.17545093595981598,-0.09772977232933044,0.18249864876270294,-0.08155830949544907,0.18462452292442322,-0.07255350053310394,0.18578077852725983,-0.05284924432635307,0.1705881655216217,0.0001580895623192191,0.1301964372396469,0.04806843400001526,0.078618124127388,-0.007916069589555264,0.03174948692321777,0.022838853299617767,-0.022823942825198174,0.046724867075681686,-0.044731512665748596,0.05405158922076225,-0.05532247573137283,0.057207752019166946,-0.0757582038640976,0.06267781555652618,-0.1184261292219162,0.07069359719753265,-0.1445428431034088,0.07164570689201355,-0.11654715985059738,0.08598882704973221,-0.07810623943805695,0.08279683440923691,-0.03471674770116806,0.061651669442653656,-0.017700888216495514,0.049261774867773056,-0.009310605935752392,0.04241424798965454,0.006413601338863373,0.027301495894789696,0.03858421742916107,-0.01387585885822773,0.056671202182769775,-0.053990691900253296,0.2728264033794403,0.0,0.28679123520851135,0.04975247010588646,0.26756054162979126,0.0838194489479065,0.2523006796836853,0.09112834185361862,0.24344097077846527,0.09351793676614761,0.22349371016025543,0.09514042735099792,0.16642014682292938,0.08331190794706345,0.10857757180929184,0.05275709927082062,0.0947406142950058,0.020800884813070297,0.10487359762191772,0.03867122530937195,0.09154137223958969,0.05836024135351181,0.080466628074646,0.06620556116104126,0.07397671043872833,0.06998809427022934,0.05935576185584068,0.07738582044839859,0.01681029237806797,0.0922374427318573,-0.02579927258193493,0.09952358901500702,0.19958414137363434,-0.0762544646859169,0.180025115609169,-0.08432867377996445,0.14866767823696136,-0.09136153757572174,0.13334758579730988,-0.0933455154299736,0.12518617510795593,-0.09396480023860931,0.10802865028381348,-0.09491797536611557,0.06189463287591934,-0.0933229923248291,0.014948352240025997,-0.08536042273044586,-0.005202107131481171,-0.09127877652645111,0.03096725046634674,-0.08961787074804306,0.06562638282775879,-0.07159274071455002,0.07690708339214325,-0.060939546674489975,0.08170383423566818,-0.05514276772737503,0.08922744542360306,-0.04304267838597298,0.09608877450227737,-0.014235258102416992,0.08447445183992386,0.00477007869631052,0.18214839696884155,-0.02846221998333931,0.14786936342716217,0.008704409003257751,0.104187972843647,0.045208241790533066,0.08509074151515961,0.05843878164887428,0.07547686249017715,0.06467549502849579,0.055938899517059326,0.0761549100279808,0.009037133306264877,0.09701842069625854,-0.03074776381254196,0.10500488430261612,-0.020087312906980515,0.09655612707138062,0.005566393956542015,0.08616972714662552,0.01884780079126358,0.06479703634977341,0.020440006628632545,0.05365028232336044,0.02052086964249611,0.04758711904287338,0.019068455323576927,0.03477908670902252,0.007743474096059799,7.36279889679281e-06,-0.010853147134184837,-0.0339374840259552,0.26970237493515015,0.0,0.22743938863277435,0.03009984828531742,0.16428960859775543,0.0330631285905838,0.13670362532138824,0.025540120899677277,0.1228165403008461,0.020197901874780655,0.09594129770994186,0.005568650551140308,0.038095083087682724,-0.047643210738897324,0.002837360603734851,-0.11568112671375275,-0.026635373011231422,-0.1729476898908615,-0.04969656839966774,-0.12227766960859299,-0.07197705656290054,-0.052224062383174896,-0.07938603311777115,-0.021381715312600136,-0.08263679593801498,-0.005612125154584646,-0.08800893276929855,0.02584240958094597,-0.09244949370622635,0.0991910845041275,-0.08175834268331528,0.15555807948112488,0.2510766088962555,-0.09742014110088348,0.2093118280172348,-0.10925421863794327,0.15497490763664246,-0.10214929282665253,0.1318710297346115,-0.09386711567640305,0.12016459554433823,-0.08866813778877258,0.09717767685651779,-0.07629015296697617,0.044364992529153824,-0.036221034824848175,0.003949114121496677,0.010902289301156998,-0.05114582180976868,0.047097936272621155,-0.0689997598528862,0.01853075996041298,-0.0797506719827652,-0.021264275535941124,-0.08152608573436737,-0.03952983021736145,-0.08170238882303238,-0.049057330936193466,-0.08077073842287064,-0.06881047785282135,-0.06973676383495331,-0.11853288859128952,-0.04612891376018524,-0.1627381145954132,0.2373155653476715,-0.02488153986632824,0.19512003660202026,0.008498662151396275,0.1469021439552307,0.04533538967370987,0.12651780247688293,0.06063538044691086,0.11634265631437302,0.0683576911687851,0.09574204683303833,0.08393649011850357,0.04553826525807381,0.12216542661190033,-0.0001061577204382047,0.15658937394618988,-0.017752088606357574,0.16473059356212616,-0.0003408722986932844,0.1451648622751236,0.009924320504069328,0.12666407227516174,0.011827381327748299,0.11989261955022812,0.012303784489631653,0.1165044829249382,0.012210499495267868,0.11008695513010025,0.006370382383465767,0.0953124612569809,-0.005089464597404003,0.0818881019949913,0.07159622013568878,0.0,0.0490492507815361,-0.03146695718169212,0.03311201184988022,-0.07215902954339981,0.030062466859817505,-0.0898904949426651,0.029255172237753868,-0.0987812876701355,0.029570171609520912,-0.11643294990062714,0.04130743443965912,-0.15635961294174194,0.06765811145305634,-0.18291689455509186,0.054716575890779495,-0.21414953470230103,0.0013702152064070106,-0.19728510081768036,-0.051088154315948486,-0.15021492540836334,-0.0701678916811943,-0.12533330917358398,-0.07921714335680008,-0.11191166192293167,-0.0958995595574379,-0.08402431011199951,-0.12721078097820282,-0.012979492545127869,-0.1406250149011612,0.04798676446080208,0.07859792560338974,0.004189714789390564,0.04876501485705376,-0.0035299824085086584,0.013330151326954365,-0.0006057496648281813,-0.0006851037032902241,0.004091743845492601,-0.007419949397444725,0.007138974964618683,-0.020014988258481026,0.014697489328682423,-0.04388468712568283,0.040394894778728485,-0.052744973450899124,0.07154315710067749,-0.13795723021030426,0.05998825654387474,-0.18750636279582977,-0.008984364569187164,-0.19687378406524658,-0.08976556360721588,-0.18830832839012146,-0.12143581360578537,-0.18136997520923615,-0.13650751113891602,-0.1625555157661438,-0.16448017954826355,-0.09150876104831696,-0.21521607041358948,0.0005748411640524864,-0.22864915430545807,0.08710214495658875,0.044965386390686035,0.060087792575359344,0.06002146750688553,0.021628204733133316,0.07166939228773117,0.004265035968273878,0.07535117864608765,-0.004648328293114901,0.07691867649555206,-0.022598201408982277,0.07988277077674866,-0.06585425138473511,0.0854998305439949,-0.10203839093446732,0.08933830261230469,-0.1252271831035614,0.12182256579399109,-0.1166556254029274,0.13676311075687408,-0.10451564937829971,0.14241302013397217,-0.09880679100751877,0.14233015477657318,-0.09582877159118652,0.14169305562973022,-0.08977602422237396,0.13961966335773468,-0.07397164404392242,0.130713552236557,-0.058083124458789825,0.11937077343463898,0.06278330087661743,0.0,0.10610809922218323,0.00535021536052227,0.1433393508195877,0.020894594490528107,0.15522941946983337,0.029890330508351326,0.1603633463382721,0.03485904261469841,0.16866344213485718,0.04570288211107254,0.1773330569267273,0.07655154913663864,0.16623853147029877,0.10856553912162781,0.18686573207378387,0.10665174573659897,0.20362897217273712,0.06606513261795044,0.18953505158424377,0.018490495160222054,0.1762896329164505,-0.0012627373216673732,0.16820412874221802,-0.01120902318507433,0.1499362587928772,-0.030935414135456085,0.09472857415676117,-0.07696539908647537,0.036385469138622284,-0.1144084483385086,0.014805599115788937,0.002021908527240157,0.014355418272316456,-0.016043979674577713,0.005506879650056362,-0.043249521404504776,-0.0008956665988080204,-0.055399030447006226,-0.0046630497090518475,-0.061388518661260605,-0.013421313837170601,-0.07328413426876068,-0.04107002913951874,-0.09845417737960815,-0.0733300969004631,-0.11217410117387772,-0.0504591129720211,-0.18315646052360535,0.026058949530124664,-0.2022370845079422,0.10661092400550842,-0.17717136442661285,0.13535399734973907,-0.15566790103912354,0.14833657443523407,-0.1427767425775528,0.17070256173610687,-0.1133325845003128,0.20172490179538727,-0.0266092661768198,0.19127391278743744,0.0616382472217083,0.0005106426542624831,0.024266885593533516,-0.006687853951007128,0.021036572754383087,-0.013222984038293362,0.0021496808622032404,-0.015549246221780777,-0.009064928628504276,-0.016587337478995323,-0.01537230983376503,-0.018620185554027557,-0.028890294954180717,-0.022292200475931168,-0.0665956661105156,-0.02416348271071911,-0.10443676263093948,-0.058000966906547546,-0.12896443903446198,-0.07927512377500534,-0.11760229617357254,-0.09398146718740463,-0.10921646654605865,-0.09815361350774765,-0.10711196810007095,-0.0998445674777031,-0.10631560534238815,-0.10256917029619217,-0.10538595914840698,-0.10663589835166931,-0.10570691525936127,-0.10843474417924881,-0.1077677458524704,0.10913998633623123,0.0,0.1453448235988617,0.04122872278094292,0.15802419185638428,0.0845484808087349,0.15585209429264069,0.10090995579957962,0.15316368639469147,0.10867015272378922,0.14480820298194885,0.12279419600963593,0.10796651244163513,0.1485176533460617,0.054241541773080826,0.155650332570076,0.05288251116871834,0.1632990688085556,0.10185281187295914,0.16182178258895874,0.13442464172840118,0.13769762217998505,0.1423676460981369,0.1223573088645935,0.14521059393882751,0.11358645558357239,0.14914165437221527,0.0942452922463417,0.14850932359695435,0.03770105168223381,0.13723453879356384,-0.023536603897809982,0.049098819494247437,-0.03914957493543625,0.057084761559963226,-0.05021136626601219,0.06086670234799385,-0.07222111523151398,0.06025446578860283,-0.0836273804306984,0.059309352189302444,-0.08958903700113297,0.056252457201480865,-0.10229112207889557,0.040970563888549805,-0.134463369846344,0.015738142654299736,-0.16160167753696442,0.06970551609992981,-0.17036813497543335,0.13595236837863922,-0.11912302672863007,0.17390698194503784,-0.04133870080113411,0.1785837560892105,-0.007080186158418655,0.17847058176994324,0.009977107867598534,0.17319190502166748,0.04316062852740288,0.13451533019542694,0.112225741147995,0.06895501911640167,0.14816957712173462,0.029888639226555824,-0.008934554643929005,0.02920924499630928,0.002875211648643017,0.03653573617339134,0.001444110181182623,0.0414593406021595,-0.002658952260389924,0.04433555528521538,-0.005458228290081024,0.050599414855241776,-0.01210793200880289,0.0696616917848587,-0.03449791297316551,0.09068607538938522,-0.06118965148925781,0.08354140818119049,-0.10119544714689255,0.05932274088263512,-0.10651812702417374,0.038003094494342804,-0.11454927176237106,0.030424490571022034,-0.11903740465641022,0.026846300810575485,-0.12151958793401718,0.020182454958558083,-0.12700702250003815,0.005157281178981066,-0.14337120950222015,-0.008112164214253426,-0.16106542944908142,0.1050969660282135,0.0,0.10551346093416214,0.03661032393574715,0.10001175850629807,0.06317505985498428,0.09852632880210876,0.06980594992637634,0.09799401462078094,0.07216592133045197,0.09846535325050354,0.07531218975782394,0.1072363331913948,0.0747019574046135,0.12707430124282837,0.06780602037906647,0.1479199379682541,0.07282037287950516,0.0831143707036972,0.0571373887360096,-0.016822531819343567,0.022884532809257507,-0.060859955847263336,0.005907836370170116,-0.0827576220035553,-0.0030891350470483303,-0.12520556151866913,-0.020894398912787437,-0.21141333878040314,-0.06160253658890724,-0.25011569261550903,-0.08725020289421082,0.031116489320993423,-0.03440191224217415,-0.0042978860437870026,-0.015551830641925335,-0.02557016722857952,0.010374369099736214,-0.02937738224864006,0.02211315557360649,-0.03013821877539158,0.02796623483300209,-0.02975914068520069,0.03989042341709137,-0.017685651779174805,0.06773926317691803,0.006357757840305567,0.08928694576025009,0.01883750781416893,0.03579074516892433,0.02217184007167816,-0.022334052249789238,0.04968259856104851,-0.06466707587242126,0.06599187850952148,-0.0737212523818016,0.0748150572180748,-0.0762355849146843,0.09345527738332748,-0.0772416889667511,0.13773509860038757,-0.05613873526453972,0.1650848537683487,-0.008601674810051918,-0.002104255836457014,0.001478958991356194,-0.07965194433927536,0.013304957188665867,-0.14960338175296783,0.002912235679104924,-0.17303285002708435,-0.006300440989434719,-0.183349609375,-0.01155813317745924,-0.2015792578458786,-0.02323349379003048,-0.22994156181812286,-0.053982898592948914,-0.23453472554683685,-0.07804639637470245,-0.2541881799697876,-0.05498560518026352,-0.25265225768089294,-0.014611020684242249,-0.2208302915096283,0.03046441823244095,-0.20129312574863434,0.04792804643511772,-0.19021256268024445,0.05615069344639778,-0.16613538563251495,0.07143149524927139,-0.09849506616592407,0.10021843761205673,-0.029216570779681206,0.11225534230470657,0.11321867257356644,0.0,0.13306300342082977,0.038760434836149216,0.14523844420909882,0.07510390132665634,0.14837299287319183,0.08817625045776367,0.1494871973991394,0.09434438496828079,0.15102727711200714,0.10604916512966156,0.1497180312871933,0.1309688836336136,0.13898342847824097,0.1497369110584259,0.16456446051597595,0.15755653381347656,0.1635219156742096,0.11398687958717346,0.12267878651618958,0.044922031462192535,0.09768810123205185,0.013601726852357388,0.08392266929149628,-0.002360719721764326,0.0544937439262867,-0.03386778011918068,-0.021822595968842506,-0.1033310517668724,-0.08555256575345993,-0.1463523805141449,0.050607830286026,-0.03865189105272293,0.025562871247529984,-0.033998362720012665,-0.0009716532658785582,-0.029112523421645164,-0.011665203608572483,-0.027004452422261238,-0.016859741881489754,-0.025845807045698166,-0.027167795225977898,-0.023383092135190964,-0.05107054486870766,-0.015731241554021835,-0.07080475240945816,-0.004852460231631994,-0.04108012095093727,-0.07115117460489273,0.032728083431720734,-0.10869364440441132,0.11708139628171921,-0.10290444642305374,0.1477171778678894,-0.088017039000988,0.16151364147663116,-0.0781458243727684,0.18515412509441376,-0.054134707897901535,0.21435344219207764,0.022483840584754944,0.19377119839191437,0.1017962098121643,0.03509711101651192,-0.017250947654247284,-0.008524497039616108,-0.013487034477293491,-0.05357145145535469,-0.027511989697813988,-0.07027967274188995,-0.037498004734516144,-0.07802410423755646,-0.043149832636117935,-0.09239219129085541,-0.05583446845412254,-0.11888634413480759,-0.09112029522657394,-0.1301369071006775,-0.12367101013660431,-0.16358929872512817,-0.12397009879350662,-0.17994043231010437,-0.09741467237472534,-0.18068277835845947,-0.06791109591722488,-0.17714080214500427,-0.056052353233098984,-0.17453132569789886,-0.050253696739673615,-0.16810421645641327,-0.03917257860302925,-0.146029531955719,-0.014661005698144436,-0.11931663006544113,0.0033726529218256474,0.07903379946947098,0.0,0.10541529953479767,0.033350296318531036,0.1243055909872055,0.0716373547911644,0.1285545974969864,0.0875898227095604,0.12961162626743317,0.09564165025949478,0.12969069182872772,0.11147382110357285,0.11549879610538483,0.14724041521549225,0.07931432873010635,0.1710105687379837,0.07574494183063507,0.21202604472637177,0.10600531846284866,0.19213062524795532,0.11055111885070801,0.13192687928676605,0.10564856231212616,0.09994259476661682,0.10199365764856339,0.08286616951227188,0.09264104068279266,0.04746823012828827,0.060979049652814865,-0.039471328258514404,0.02671600691974163,-0.10729026049375534,0.033994898200035095,-0.04321333020925522,0.02520103193819523,-0.051523543894290924,0.013285515829920769,-0.06078120321035385,0.0074517554603517056,-0.0647910088300705,0.00426102988421917,-0.06666705012321472,-0.0025197770446538925,-0.07047948986291885,-0.022074712440371513,-0.07865549623966217,-0.043902426958084106,-0.08253714442253113,0.04261305183172226,-0.12089367210865021,0.13777299225330353,-0.10257454961538315,0.20650017261505127,-0.041419029235839844,0.2215317040681839,-0.00892649032175541,0.22588153183460236,0.008255621418356895,0.22809875011444092,0.04346763342618942,0.19687078893184662,0.12506400048732758,0.12306048721075058,0.1765601485967636,0.02908901683986187,-0.02865705080330372,0.012730763293802738,-0.03457220271229744,-0.0054553197696805,-0.04992955923080444,-0.012316873297095299,-0.05843896046280861,-0.015436924993991852,-0.06296573579311371,-0.0210306067019701,-0.072871133685112,-0.02885778620839119,-0.09926971793174744,-0.025681547820568085,-0.12341737747192383,-0.03769191727042198,-0.14927467703819275,-0.06136194244027138,-0.1475169062614441,-0.07907888293266296,-0.13990910351276398,-0.08396342396736145,-0.13538959622383118,-0.08583776652812958,-0.1328093558549881,-0.08852711319923401,-0.12727972865104675,-0.08937933295965195,-0.11123838275671005,-0.08321454375982285,-0.09430605173110962,0.054723966866731644,0.0,0.07841520011425018,0.059930622577667236,0.0831633135676384,0.12899334728717804,0.07833866775035858,0.15517131984233856,0.07439485192298889,0.1671791672706604,0.06364244222640991,0.18880240619182587,0.02260306477546692,0.22101859748363495,-0.028860919177532196,0.21424205601215363,-0.09427621960639954,0.20499925315380096,-0.07948732376098633,0.19071318209171295,-0.047607120126485825,0.13424520194530487,-0.03216872364282608,0.10435609519481659,-0.024190466850996017,0.08863178640604019,-0.008345403708517551,0.05704324692487717,0.026603946462273598,-0.01399983186274767,0.04794611409306526,-0.055666591972112656,0.03331280127167702,-0.07238900661468506,0.03990951180458069,-0.09290602058172226,0.037918198853731155,-0.10688400268554688,0.034930795431137085,-0.10988448560237885,0.03305358812212944,-0.11072815209627151,0.028905730694532394,-0.11110658198595047,0.018184293061494827,-0.10417681187391281,0.012103436514735222,-0.08682603389024734,0.09178371727466583,-0.0226870309561491,0.11788422614336014,0.03424443304538727,0.10900092869997025,0.10390228778123856,0.09622420370578766,0.1312529444694519,0.08810506761074066,0.14408579468727112,0.06916548311710358,0.1675923466682434,0.011941684409976006,0.20644576847553253,-0.04425063356757164,0.2073327749967575,0.049750737845897675,-0.07616031914949417,0.06905285269021988,-0.10542386770248413,0.07837165892124176,-0.13020096719264984,0.07936421781778336,-0.13726551830768585,0.07931459695100784,-0.13980478048324585,0.07827074080705643,-0.14317592978477478,0.0713953748345375,-0.13761304318904877,0.0617716982960701,-0.11046454310417175,0.07730618119239807,-0.08679398149251938,0.0695948377251625,-0.11590195447206497,0.04469279199838638,-0.13723568618297577,0.03277319669723511,-0.14210295677185059,0.026814870536327362,-0.14354300498962402,0.015448367223143578,-0.1442207545042038,-0.0049185557290911674,-0.133094921708107,-0.006945790257304907,-0.10484229773283005,0.10725042223930359,0.0,0.13598470389842987,0.05297062546014786,0.13927964866161346,0.11153817921876907,0.1328704059123993,0.13306786119937897,0.12822255492210388,0.14288456737995148,0.11590656638145447,0.1603645384311676,0.0726359486579895,0.18636494874954224,0.021834636107087135,0.18251177668571472,-0.0036131355445832014,0.15211094915866852,0.020724670961499214,0.11594267934560776,0.04209920018911362,0.04981541261076927,0.04861660674214363,0.019733045250177383,0.051338303834199905,0.00474477419629693,0.055331286042928696,-0.024005597457289696,0.05655217915773392,-0.07996338605880737,0.045541923493146896,-0.0986546203494072,0.05650171637535095,-0.09343286603689194,0.036441512405872345,-0.1327003538608551,-0.0013913107104599476,-0.15348024666309357,-0.019405309110879898,-0.15423141419887543,-0.028478728607296944,-0.15283545851707458,-0.04650501161813736,-0.14649665355682373,-0.08483242988586426,-0.11092729866504669,-0.10425975173711777,-0.05435008555650711,-0.04757349193096161,-0.023240407928824425,0.012588785961270332,-0.027702847495675087,0.0699676126241684,0.0029686852358281612,0.08672825992107391,0.02327645570039749,0.09312146157026291,0.034504484385252,0.10145049542188644,0.05831719562411308,0.0937773585319519,0.11613268405199051,0.04909134656190872,0.15163825452327728,0.08832993358373642,-0.10187084227800369,0.10601864755153656,-0.1463516503572464,0.10969408601522446,-0.175785630941391,0.10738959163427353,-0.18173594772815704,0.10547048598527908,-0.1832457184791565,0.10020744800567627,-0.18352380394935608,0.08034832775592804,-0.16722427308559418,0.05461609736084938,-0.1292405128479004,0.004699827637523413,-0.1104799434542656,-0.028367837890982628,-0.12991993129253387,-0.06889232248067856,-0.1262788027524948,-0.08450698107481003,-0.11859157681465149,-0.09178850054740906,-0.11354038864374161,-0.10495368391275406,-0.10140402615070343,-0.1256529986858368,-0.06250791251659393,-0.12433192133903503,-0.01970968209207058,0.11109485477209091,0.0,0.13931484520435333,0.04346150532364845,0.1528332233428955,0.0892917662858963,0.1534801572561264,0.10609650611877441,0.15278469026088715,0.11394739896059036,0.14924927055835724,0.12815654277801514,0.12915971875190735,0.15248148143291473,0.09614536166191101,0.15753231942653656,0.0878024622797966,0.15428555011749268,0.09653814882040024,0.12286204844713211,0.0829586386680603,0.05822908133268356,0.0727175921201706,0.026842940598726273,0.0669451430439949,0.010722246952354908,0.05430528521537781,-0.021473893895745277,0.021761897951364517,-0.09291844815015793,-0.0035235409159213305,-0.13595165312290192,0.04305211082100868,-0.0768418163061142,0.010945657268166542,-0.09441789984703064,-0.026407018303871155,-0.0935889482498169,-0.04058317840099335,-0.0877108946442604,-0.04712465777993202,-0.08365999162197113,-0.05890068784356117,-0.07364211231470108,-0.07781223207712173,-0.03939701244235039,-0.07853641360998154,0.0008900895481929183,-0.025744222104549408,-0.036224283277988434,0.03515072166919708,-0.0757909044623375,0.10464853793382645,-0.07261060923337936,0.12852363288402557,-0.05885683745145798,0.13874363899230957,-0.04967077448964119,0.15497638285160065,-0.027510149404406548,0.16563495993614197,0.040919363498687744,0.1313837468624115,0.10419009625911713,0.039228372275829315,-0.09644558280706406,0.015773015096783638,-0.1436980962753296,-0.005221921484917402,-0.18219874799251556,-0.011971011757850647,-0.19339722394943237,-0.01483649667352438,-0.19777043163776398,-0.019731804728507996,-0.20426945388317108,-0.02590368501842022,-0.2052687704563141,-0.024301709607243538,-0.18470913171768188,-0.0757037103176117,-0.13954095542430878,-0.11496089398860931,-0.11584952473640442,-0.13669836521148682,-0.07504379749298096,-0.139621302485466,-0.05643082410097122,-0.13980481028556824,-0.046982333064079285,-0.13795384764671326,-0.028447886928915977,-0.12133754789829254,0.01245148666203022,-0.0934712290763855,0.038822561502456665,0.13324923813343048,0.0,0.17441746592521667,0.017551230266690254,0.20173850655555725,0.030418120324611664,0.2078348696231842,0.03424116596579552,0.20975029468536377,0.0360531210899353,0.2111416906118393,0.039317574352025986,0.20001660287380219,0.04655710980296135,0.16887716948986053,0.053017646074295044,0.17413678765296936,0.06526732444763184,0.18114487826824188,0.049923788756132126,0.14571130275726318,0.018085751682519913,0.12189436703920364,0.0023843515664339066,0.10856544226408005,-0.005674817133694887,0.07965196669101715,-0.021944144740700722,0.003769024508073926,-0.058827951550483704,-0.059521909803152084,-0.08243236690759659,0.05247758328914642,-0.06400176882743835,0.02735048718750477,-0.08923576027154922,-0.0017145163146778941,-0.1009056344628334,-0.012933095917105675,-0.10064417123794556,-0.018177831545472145,-0.09932570159435272,-0.027836520224809647,-0.09462907910346985,-0.04454304650425911,-0.071010060608387,-0.04756920412182808,-0.03521362692117691,-0.03585340455174446,-0.07513298839330673,0.0011176512343809009,-0.13351581990718842,0.06240998953580856,-0.1566074937582016,0.08865207433700562,-0.15343604981899261,0.10126961022615433,-0.1491880565881729,0.12453389912843704,-0.13584104180335999,0.16295397281646729,-0.07952500134706497,0.16228033602237701,-0.009358903393149376,0.01981658861041069,-0.04558680206537247,-0.030095217749476433,-0.06526979804039001,-0.07795147597789764,-0.08413246273994446,-0.09438186883926392,-0.0905771404504776,-0.10162770003080368,-0.09333815425634384,-0.11433641612529755,-0.0981915295124054,-0.13206316530704498,-0.10457353293895721,-0.1283375471830368,-0.10170164704322815,-0.15154671669006348,-0.056869324296712875,-0.1674630492925644,-0.030795065686106682,-0.15748603641986847,-0.00863706786185503,-0.1475093960762024,-0.001780473510734737,-0.14148521423339844,0.0011807403061538935,-0.1281183958053589,0.006198227871209383,-0.09051195532083511,0.013852585107088089,-0.05632792413234711,0.016261296346783638,0.0900740772485733,0.0,0.09089763462543488,0.07102790474891663,0.06234407797455788,0.14229944348335266,0.04297124594449997,0.16557767987251282,0.03221450373530388,0.17550310492515564,0.008379078470170498,0.19106526672840118,-0.05552688241004944,0.20228494703769684,-0.10903491824865341,0.17393304407596588,-0.09295202046632767,0.12806455790996552,-0.02576318569481373,0.12737298011779785,0.05219878628849983,0.10985048860311508,0.08057894557714462,0.09903581440448761,0.09329976141452789,0.09300491958856583,0.11484548449516296,0.0802125334739685,0.1397697627544403,0.045619308948516846,0.11818872392177582,0.013961613178253174,0.06557485461235046,-0.11565922200679779,0.053159199655056,-0.1548653542995453,0.02826010249555111,-0.17750883102416992,0.01584266871213913,-0.1804589480161667,0.00935483817011118,-0.18057160079479218,-0.003899574978277087,-0.1779879778623581,-0.03523043915629387,-0.1552954465150833,-0.05837656930088997,-0.11360321193933487,-0.017777759581804276,-0.10407768934965134,0.04092910885810852,-0.10093490034341812,0.08310039341449738,-0.049706511199474335,0.089019276201725,-0.019469795748591423,0.08901751041412354,-0.0033190955873578787,0.08282522112131119,0.029744945466518402,0.03384533151984215,0.1026562824845314,-0.04555526375770569,0.13611266016960144,0.086051806807518,-0.102498359978199,0.10723432153463364,-0.12980540096759796,0.12354106456041336,-0.13866348564624786,0.12737585604190826,-0.1359633207321167,0.12833113968372345,-0.13332203030586243,0.12881071865558624,-0.12552960216999054,0.11834070086479187,-0.09446325898170471,0.09176956117153168,-0.05470963940024376,0.05202719569206238,-0.037591926753520966,0.04839415103197098,-0.07230980694293976,0.03600874915719032,-0.10737679898738861,0.028938431292772293,-0.11891460418701172,0.024982985109090805,-0.12366635352373123,0.0160988662391901,-0.13102176785469055,-0.009547633118927479,-0.13331308960914612,-0.03757687658071518,-0.10955876111984253,0.13719268143177032,0.0,0.13700605928897858,0.08144392818212509,0.09815843403339386,0.15818773210048676,0.0729626938700676,0.18138442933559418,0.05901702120900154,0.19074282050132751,0.028947053477168083,0.20410749316215515,-0.0478142574429512,0.2044287919998169,-0.10482627898454666,0.16132988035678864,-0.10050465166568756,0.11506008356809616,-0.04694260284304619,0.11801233887672424,0.02781859040260315,0.0963985025882721,0.058540668338537216,0.08254388719797134,0.0731889083981514,0.07487130910158157,0.10008992254734039,0.05879585072398186,0.1452016830444336,0.01759282499551773,0.14788590371608734,-0.015790877863764763,0.0811498761177063,-0.11840125918388367,0.0515909343957901,-0.14614702761173248,0.014301484450697899,-0.15720093250274658,-0.0011062535922974348,-0.15629872679710388,-0.008702556602656841,-0.1547461301088333,-0.02323290891945362,-0.14962726831436157,-0.05386156588792801,-0.12564070522785187,-0.07293544709682465,-0.09038911014795303,-0.03343809396028519,-0.06100838631391525,0.014080875553190708,-0.03812010586261749,0.04477499797940254,0.016558287665247917,0.04761284589767456,0.04310663044452667,0.04662533849477768,0.056428153067827225,0.03985615447163582,0.08191770315170288,-0.001640502829104662,0.12890145182609558,-0.06163179501891136,0.1338881254196167,0.11934701353311539,-0.09189172834157944,0.12994173169136047,-0.10712911188602448,0.137782022356987,-0.11509761214256287,0.14025139808654785,-0.11533569544553757,0.14122256636619568,-0.11469502747058868,0.1427503228187561,-0.11201765388250351,0.14146076142787933,-0.0968109741806984,0.1292572319507599,-0.07206372171640396,0.10140802711248398,-0.0687124952673912,0.08509949594736099,-0.09402123838663101,0.05123663321137428,-0.11388684809207916,0.03431479632854462,-0.11915968358516693,0.025458015501499176,-0.12096338719129562,0.007161970715969801,-0.12291025370359421,-0.03612253814935684,-0.11605433374643326,-0.06724854558706284,-0.09142144024372101,0.09512565284967422,0.0,0.09483836591243744,0.07406593859195709,0.059741437435150146,0.1445871740579605,0.036758869886398315,0.16576920449733734,0.02385418303310871,0.1742379367351532,-0.003686643438413739,0.1858929693698883,-0.07287544012069702,0.1816847175359726,-0.1188935711979866,0.13332906365394592,-0.11362393945455551,0.11274735629558563,-0.07745576649904251,0.13657964766025543,-0.016327550634741783,0.12479078769683838,0.011653316207230091,0.11128012835979462,0.025668080896139145,0.10309138894081116,0.05307146906852722,0.08455956727266312,0.11036298424005508,0.03162723407149315,0.13915206491947174,-0.016891909763216972,0.07228400558233261,-0.08563295006752014,0.07241280376911163,-0.0959598571062088,0.06648813933134079,-0.1015952080488205,0.06212449073791504,-0.10247864574193954,0.059429675340652466,-0.10260367393493652,0.05322474241256714,-0.10231359302997589,0.032427120953798294,-0.09646182507276535,0.006615150719881058,-0.08157528936862946,0.055970508605241776,-0.025505658239126205,0.09760838001966476,0.02780437096953392,0.09979873895645142,0.0919453427195549,0.08854749798774719,0.11489119380712509,0.08054669201374054,0.12485789507627487,0.06051572039723396,0.1408849060535431,-0.004857765045017004,0.15357594192028046,-0.07031256705522537,0.12292037159204483,0.10341344773769379,-0.07629978656768799,0.12900327146053314,-0.0771794244647026,0.1495642364025116,-0.07696202397346497,0.15616053342819214,-0.07732108980417252,0.1590615063905716,-0.07750969380140305,0.16386406123638153,-0.07815825194120407,0.16881804168224335,-0.0786217674612999,0.16001775860786438,-0.0736943930387497,0.11589428782463074,-0.11224369704723358,0.09395124763250351,-0.14614972472190857,0.06096910312771797,-0.15929201245307922,0.04606223478913307,-0.15794600546360016,0.03851926699280739,-0.15587063133716583,0.023444030433893204,-0.1492283195257187,-0.00918662641197443,-0.12087399512529373,-0.02754545956850052,-0.08494961261749268,0.092930369079113,0.0,0.12732070684432983,-0.03254617378115654,0.16490545868873596,-0.05682278797030449,0.17795495688915253,-0.0618586502969265,0.18374362587928772,-0.06309043616056442,0.1925472617149353,-0.06336209177970886,0.19457487761974335,-0.051141224801540375,0.16084407269954681,-0.03071785345673561,0.12281341105699539,-0.05398312583565712,0.12423711270093918,-0.06538113951683044,0.09082841873168945,-0.06391259282827377,0.06943076848983765,-0.06165292486548424,0.05763592943549156,-0.06040674448013306,0.032308951020240784,-0.05812643840909004,-0.034617118537425995,-0.056259892880916595,-0.09364355355501175,-0.061019740998744965,0.012504449114203453,-0.00891407672315836,-0.05379769951105118,-0.04658934101462364,-0.1259966492652893,-0.06501210480928421,-0.15110674500465393,-0.064826101064682,-0.16210372745990753,-0.06303612142801285,-0.18039074540138245,-0.05646570771932602,-0.1980709731578827,-0.02711135894060135,-0.173323392868042,0.005921614822000265,-0.13647474348545074,-0.06841059029102325,-0.10792744904756546,-0.1328924000263214,-0.04512782767415047,-0.16294600069522858,-0.016545889899134636,-0.16350306570529938,-0.0025180981028825045,-0.16128993034362793,0.023862887173891068,-0.15284815430641174,0.07395467162132263,-0.11397825181484222,0.09245053678750992,-0.06624498218297958,0.007872888818383217,0.0022726249881088734,-0.0511237308382988,-0.03768376633524895,-0.11182188987731934,-0.07308372855186462,-0.13355298340320587,-0.08321359008550644,-0.14355240762233734,-0.08741173893213272,-0.16107028722763062,-0.09327369183301926,-0.18743349611759186,-0.09591378271579742,-0.18450915813446045,-0.0855240523815155,-0.13280364871025085,0.017819615080952644,-0.1015327051281929,0.07574218511581421,-0.06454029679298401,0.1062181368470192,-0.05236738547682762,0.10866513103246689,-0.04732184857130051,0.107962965965271,-0.03966325893998146,0.10286597162485123,-0.037217963486909866,0.07411579042673111,-0.05759771540760994,0.039865992963314056,0.02489984780550003,0.0,-0.013203051872551441,-0.025362001731991768,-0.06986312568187714,-0.05037541687488556,-0.09495207667350769,-0.06173824146389961,-0.1073828712105751,-0.06772899627685547,-0.13103744387626648,-0.08041002601385117,-0.17589958012104034,-0.11466758698225021,-0.1859787404537201,-0.14385870099067688,-0.16974672675132751,-0.160684272646904,-0.15206289291381836,-0.09839741885662079,-0.10590148717164993,0.00650546932592988,-0.08292341232299805,0.05227537825703621,-0.07108217477798462,0.07453390210866928,-0.04750874266028404,0.1165139451622963,0.004887301009148359,0.19213013350963593,0.03736214339733124,0.20969447493553162,0.10894366353750229,-0.004348169080913067,0.13090179860591888,-0.03225388377904892,0.12600338459014893,-0.048332806676626205,0.11801145225763321,-0.051480598747730255,0.11299324035644531,-0.05255363509058952,0.1014433205127716,-0.05362166464328766,0.06746798753738403,-0.052820172160863876,0.033447202295064926,-0.052294451743364334,0.05396992340683937,-0.0005397461936809123,0.035827163606882095,0.054361820220947266,-0.03593359515070915,0.0766233429312706,-0.07325074076652527,0.07104749232530594,-0.09226039052009583,0.06493508070707321,-0.129196897149086,0.04650155082345009,-0.19874230027198792,-0.02561378851532936,-0.21080924570560455,-0.10439565032720566,0.05773741751909256,0.04608439281582832,0.06690704822540283,0.06099370867013931,0.07289303839206696,0.08569705486297607,0.07380165904760361,0.09747010469436646,0.0739411935210228,0.10356199741363525,0.07332267612218857,0.1160968765616417,0.06738527864217758,0.14439663290977478,0.0562361441552639,0.16096442937850952,0.11040997505187988,0.13038519024848938,0.14936041831970215,0.05326465517282486,0.16469405591487885,-0.039761096239089966,0.163366436958313,-0.07261168211698532,0.16109584271907806,-0.0870002955198288,0.15341007709503174,-0.1108345165848732,0.11808004975318909,-0.1361916959285736,0.06735681742429733,-0.11597446352243423,0.09555749595165253,0.0,0.09772589802742004,0.03495005518198013,0.10766720771789551,0.07269347459077835,0.11149030178785324,0.08882325142621994,0.11301948875188828,0.09690260142087936,0.11451955139636993,0.11265292763710022,0.1066812202334404,0.14556172490119934,0.07954740524291992,0.1571725308895111,0.045859601348638535,0.17549031972885132,0.06324922293424606,0.14438091218471527,0.07845288515090942,0.0578225739300251,0.08191816508769989,0.013973647728562355,0.08270242810249329,-0.008608541451394558,0.08249463140964508,-0.05349239706993103,0.06821321696043015,-0.14884653687477112,0.035503122955560684,-0.19546110928058624,0.021578706800937653,-0.08088577538728714,-0.04943830519914627,-0.08446898311376572,-0.10251434892416,-0.06654435396194458,-0.11584999412298203,-0.05449622869491577,-0.12077482044696808,-0.047642890363931656,-0.1267748773097992,-0.033170104026794434,-0.1220443919301033,0.004543869290500879,-0.09770238399505615,0.03506644442677498,-0.072230763733387,-0.02255486138164997,-0.019405145198106766,-0.05358752980828285,0.06108705326914787,-0.033712971955537796,0.09177277982234955,-0.012175274081528187,0.10534175485372543,0.0007792881806381047,0.12754835188388824,0.029560860246419907,0.14691025018692017,0.10298652946949005,0.11244478821754456,0.14661061763763428,0.08712951093912125,-0.09681786596775055,0.05367891862988472,-0.1274595558643341,0.013615351170301437,-0.15272866189479828,-0.001589544233866036,-0.16156718134880066,-0.00880770105868578,-0.16569650173187256,-0.021387578919529915,-0.17337459325790405,-0.04114961996674538,-0.1872139871120453,-0.040792446583509445,-0.1890641450881958,-0.08437662571668625,-0.1893768608570099,-0.12714801728725433,-0.15386584401130676,-0.15214088559150696,-0.08930808305740356,-0.1565781831741333,-0.06120846047997475,-0.1575806736946106,-0.04749513790011406,-0.15739041566848755,-0.021601993590593338,-0.1440919041633606,0.02760624699294567,-0.11495266109704971,0.05025377497076988,0.1598910391330719,0.0,0.1743599772453308,0.0060147191397845745,0.18362049758434296,0.02392243966460228,0.1838524341583252,0.035378217697143555,0.18291549384593964,0.0418110229074955,0.17864175140857697,0.05597534030675888,0.1533910483121872,0.0934014543890953,0.10947002470493317,0.11961778998374939,0.0602605864405632,0.1577339917421341,0.06391993165016174,0.12713328003883362,0.059630777686834335,0.044311780482530594,0.05612841248512268,0.0025911203119903803,0.05394753813743591,-0.018903037533164024,0.04917622357606888,-0.061412230134010315,0.03381330147385597,-0.14955644309520721,0.0140098687261343,-0.18612051010131836,0.1004502922296524,0.004569805692881346,0.03044169768691063,0.010572971776127815,-0.04311711713671684,0.009728855453431606,-0.06792958080768585,0.007856877520680428,-0.07889650762081146,0.006725598126649857,-0.09698273241519928,0.004159840289503336,-0.11889337748289108,0.00028408205253072083,-0.11030254513025284,0.004112523049116135,-0.10187745839357376,-0.009272032417356968,-0.02994363009929657,-0.026415390893816948,0.09102511405944824,-0.014825725927948952,0.13882143795490265,-0.0011076806113123894,0.16041754186153412,0.007470788899809122,0.1963842511177063,0.027106503024697304,0.23010849952697754,0.08084306120872498,0.1771463006734848,0.11831881105899811,0.09566613286733627,-0.029766172170639038,0.04714269936084747,-0.04028515890240669,-0.0005786377005279064,-0.052958160638809204,-0.017169607803225517,-0.06052408367395401,-0.02488504722714424,-0.06493799388408661,-0.03803589567542076,-0.07500887662172318,-0.05691028758883476,-0.10548311471939087,-0.05194003880023956,-0.13319672644138336,-0.13110169768333435,-0.15278805792331696,-0.18726344406604767,-0.11965398490428925,-0.20011594891548157,-0.06376906484365463,-0.1953457146883011,-0.040370114147663116,-0.19143380224704742,-0.02919360250234604,-0.18166078627109528,-0.008820021525025368,-0.15146347880363464,0.025467701256275177,-0.12068826705217361,0.03343619778752327,0.029902514070272446,0.0,0.057615477591753006,-0.041269347071647644,0.09528784453868866,-0.05194687098264694,0.10908903926610947,-0.04298516735434532,0.11487459391355515,-0.03559446707367897,0.12361809611320496,-0.015735793858766556,0.12074566632509232,0.05452132225036621,0.0796206146478653,0.12090632319450378,-0.025220641866326332,0.18298602104187012,-0.029613830149173737,0.15926861763000488,-0.011442090384662151,0.07724061608314514,0.0022219568490982056,0.03216082975268364,0.010342604480683804,0.008128390647470951,0.028480952605605125,-0.041374318301677704,0.07808948308229446,-0.15585780143737793,0.11539176106452942,-0.22354105114936829,0.02473578043282032,0.10559997707605362,0.032908860594034195,0.14374947547912598,0.03140589967370033,0.14825981855392456,0.02628045342862606,0.13783688843250275,0.022462228313088417,0.1301221251487732,0.012360574677586555,0.11026421189308167,-0.026207463815808296,0.044303104281425476,-0.07478348165750504,-0.01991988532245159,-0.04699638485908508,-0.08327982574701309,0.07934476435184479,-0.08020327985286713,0.19642916321754456,-0.03413226455450058,0.22657035291194916,-0.005336811766028404,0.23682810366153717,0.010491649620234966,0.24654418230056763,0.04356023669242859,0.2116919904947281,0.11953409016132355,0.11886095255613327,0.15886995196342468,-0.12037130445241928,0.06127684935927391,-0.1668781042098999,0.0475022979080677,-0.15336117148399353,0.005880451761186123,-0.1337154656648636,-0.01789884828031063,-0.1215830147266388,-0.03118218667805195,-0.09362867474555969,-0.05928152799606323,-0.0129065727815032,-0.13285818696022034,0.06099839136004448,-0.1902596801519394,0.06182717904448509,-0.21739600598812103,0.011618525721132755,-0.16339121758937836,-0.028432577848434448,-0.08627494424581528,-0.04041670635342598,-0.05854469910264015,-0.04567592218518257,-0.046487316489219666,-0.055013831704854965,-0.027158096432685852,-0.07550142705440521,-0.010013623163104057,-0.09776897728443146,-0.02863476239144802,0.13794724643230438,0.0,0.07961076498031616,0.104393869638443,-0.013417129404842854,0.15311157703399658,-0.05017954111099243,0.1503165066242218,-0.06676074862480164,0.14409960806369781,-0.09510241448879242,0.12294312566518784,-0.12429411709308624,0.033857159316539764,-0.0902753695845604,-0.0633748397231102,-0.0713939219713211,-0.1577833592891693,-0.08513252437114716,-0.14761114120483398,-0.059034042060375214,-0.102462038397789,-0.0409851148724556,-0.0767374113202095,-0.03118981048464775,-0.06262624263763428,-0.011122345924377441,-0.0330977663397789,0.03192233294248581,0.04146984964609146,0.049970611929893494,0.10004197061061859,0.06004481762647629,-0.13689745962619781,-0.012674398720264435,-0.12221837043762207,-0.06974546611309052,-0.08346883952617645,-0.08203662931919098,-0.06220938637852669,-0.08527274429798126,-0.05070331692695618,-0.08559529483318329,-0.02701752632856369,-0.05265863239765167,0.02870887890458107,0.011837376281619072,0.06351645290851593,0.009783918969333172,0.09654002636671066,-0.06246205419301987,0.11920308321714401,-0.13081865012645721,0.11411318182945251,-0.15276871621608734,0.10139936953783035,-0.16194260120391846,0.09271685779094696,-0.17574931681156158,0.07094830274581909,-0.17722533643245697,-0.0014655714621767402,-0.12492090463638306,-0.07558899372816086,0.22356881201267242,-0.1603918969631195,0.24219419062137604,-0.15709275007247925,0.21813111007213593,-0.12294017523527145,0.20049822330474854,-0.10067334771156311,0.19065101444721222,-0.08776938915252686,0.16955573856830597,-0.05934085696935654,0.11559577286243439,0.020329268649220467,0.06993807852268219,0.09120958298444748,0.05017067492008209,0.12770864367485046,0.016850946471095085,0.09895341843366623,-0.034697797149419785,0.06351904571056366,-0.05205235630273819,0.052321530878543854,-0.058814361691474915,0.04782434180378914,-0.06747008115053177,0.0414775088429451,-0.05515172332525253,0.04099707305431366,0.001135338330641389,